0.04027897539825931, 0.33352866331343556, 0.7129485798777977, -0.5607594321819005, 0.8816198112088112, 0.2243192205987039, -0.5042055668922212, 0.3542260114347371, -0.7446107799261663, -0.3423093646068116, 0.5232607315076492, 0.6472816002469419, 0.026876592319293513, -0.30259350418745745, 0.6722560083550531, -0.9211862850304555, -0.5075042600178576, 0.5486462928181393, 0.17384574347767323, -0.8619336989678725, 0.2278287722263641, -0.15292522854846902, -0.7244602147300145, -0.7637215810742322, 0.1339852391994032, 0.39214999984060794, -0.3009522153912745, -0.7788916115195483, -0.27226818571600786, -0.044165177523560084, 0.7310270779903945, -0.1543157588599915, 0.15153338637992708, 0.9170164973177506, 0.8266877611489798, -0.2805658521910952, -0.904958235199919, -0.09641925332973877, -0.3881858419593984, 0.4834775992230158, 0.4794110488698733, -0.6317738305237615, -0.6964722511271466, -0.8188734153370438, -0.4531648825314796, 0.08074657371645144, 0.5173816088610759, 0.03557646000396941, -0.3987823848347025, -0.11135155242716843, -0.811857685249, 0.5324853445512436, 0.06190090369141443, -0.22038780768659572, 0.9038807875549433, 0.6475096177469908, -0.27910437591460613, -0.7265541214930649, 0.3377598196976177, -0.5655096134430042, 0.13506871310798352, -0.522178813288817, -0.3021918284718017, 0.5790885757761806, -0.06173759575574689, -0.23877857630585875, 0.8156357582706195, -0.4519437853252135, -0.47566581947230824, 0.9281730026931825, -0.600832839184148, 0.3022224884037852, -0.16348221646467653, 0.02597114372781184, 0.4455209735111805, -0.8083353748540822, 0.8423451220434677, -0.5312477420938295, 0.9620724128032019, -0.3855777271297014, 0.9420091318460138, 0.03390553449227807, 0.23978705611794204, -0.704493373335112, -0.6561898305530551, -0.5325428155722955, -0.9229632863489121, -0.21912468777274574, 0.5816617471310086, -0.07079894069289017, -0.012955195056495006, -0.558804949903281, 0.760393041018111, 0.502178649398312,
-0.18842865133836528, -0.48045242302239477, 0.015415869862145826, -0.5730391973276765, 0.8412093006042181, -0.4950419439822351, -0.7084836569301352, 0.19840788023828804, -0.8684686223580091, -0.46981187278809555, 0.41763129225596196, 0.004694269463953127, 0.9742463194582158, 0.27740805739572005, 0.5082732813764101, 0.43687753771120397, 0.15890191282259147, 0.39875534389271894, 0.3556534075400477, 0.21095887891181775, 0.781038054282192, 0.9461896820747508, -0.13256718582337568, -0.34912634229680406, -0.5339671725725925, 0.77219719316497, 0.8196997360062648, 0.24770894893686068, 0.09545835231750699, -0.4284274570622786, -0.9197370464242907, 0.6108837685752222, 0.3591237426843321, -0.39635478464199436, 0.2171164139259687, -0.09758405948114768, 0.3250331595573297, 0.8159589804232765, -0.020801943020239078, -0.06670645478723713, -0.2726082279782045, -0.9154466831163004, 0.5213288589281888, -0.49864410542798376, 0.0033480277657169655, -0.4073637585628207, 0.4424853606023702, -0.7370170488664092, 0.8779844162313588, 0.9885790007713404, -0.2836754103226835, 0.456280063570206, -0.4729678583052501, 0.8958030603517402, -0.581853333756962, 0.13133734601261593, -0.32395880942368316, 0.6232804099955909, 0.7632308294205545, -0.806467584770221, -0.03904820894912353, 0.22593330798517441, -0.7440235418517005, -0.47126341599384514, 0.3108240806262361, -0.962572434327696, -0.18445091660887458, 0.7546753386254326, 0.36490890756582095, -0.47546112473618196, 0.11497436942815709, -0.2694165630238263, -0.6629106631977186, 0.006131881425995189, 0.9096097517711672, 0.8576870959366973, 0.8843946793249895, 0.03239465117413309, 0.6343248744551135, 0.41593527696768895, 0.7867368896628861, -0.2825624050604385, 0.8568088042875406, -0.2922070686543605, 0.6153909020493114, -0.014712372403014706, -0.4114787820458685, -0.38219966286128715, 0.04114395564315365, 0.12352342245624981, 0.564189235417768, -0.653007796908265, 0.0947816838622515, -0.4386468454561039,
0.005508973882302204, -0.9998301714129305, 0.388489104134504, -0.3401366148956284, -0.8237302617457629, 0.8559652845897694, 0.899823385460754, -0.6162045465101949, -0.0947664049508361, 0.8065706356939715, -0.7339430723618239, -0.4440510673717857, 0.723888111780471, -0.15936405912999385, -0.3110926902642319, -0.8723258855817426, -0.4236329628949165, -0.9082077883149802, 0.3337493514480505, 0.06760060396133483, -0.37604115677920036, 0.8383636295105565, -0.8740738275233875, 0.9797082838538429, -0.6948523306958889, -0.811556917650972, -0.04100344737438277, 0.4031603681088298, -0.8226280439011602, -0.22525825072329675, 0.5252223920127077, 0.9600489358241777, 0.7014500504612677, 0.6792278725594423, -0.47678673299685426, -0.4396588023128234, 0.5768880972037558, -0.6518602669217963, -0.7864242729346047, -0.054773838518179296, 0.4960510907587685, 0.11097912501812446, 0.9845978178928649, -0.2926939188837019, 0.2574441634969613, -0.405986884333148, -0.9004436648059815, 0.6344696907574121, -0.6182339461518371, 0.17468673616695019, -0.8865826209203611, -0.8874325203598505, -0.4775403176141326, -0.008183821140927972, 0.9126319091288431, 0.055942962865425105, 0.3944639439431019, -0.09262465038950696, -0.24865985597265938, -0.733482326628361, -0.5772929221508858, -0.3464204932381061, 0.10411331537175195, -0.13373570698195225, 0.7521856298640119, -0.45063993394691426, -0.053621223832318377, 0.5045463508717802, 0.36430738282522857, 0.6332154167800139, 0.6771882087724057, 0.4109415783586159, -0.2738415905457052, 0.8348136592815665, 0.31500597611447323, -0.9541926890572141, 0.42241493268050134, -0.10438719087924864, 0.8257090170559227, 0.094987015989904, -0.07696194400111955, -0.8508445325361678, -0.3002141942704266, 0.8616972554513214, 0.13463283732262354, -0.01541466065224495, -0.9850019646994097, 0.7277754414875592, -0.3610752953739489, 0.8423236328651644, 0.9566228155744558, 0.28810912300691527, 0.4013914734457278, 0.9287339053573074,
0.9779460792309158, -0.958948348095215, -0.9982496931947549, -0.7107311080640395, 0.6902759242523877, 0.9778080329905321, -0.644396208296149, 0.35720379799038815, 0.31028399063121426, -0.7266187850690482, 0.08893437953674588, -0.4750732897289529, -0.5018145825113742, 0.7240685785980703, 0.44929028724776554, -0.3704227866197374, -0.3249067560716892, -0.4594804997198698, 0.14744574633001606, -0.23170432872054358, 0.2085834897879819, 0.7529702733344388, -0.03383128610904129, 0.8474625140597882, 0.27051044613007647, 0.16472099949866648, 0.7346394275348218, 0.5178723738374971, 0.42868635352115314, 0.1881451391846003, 0.002957420981187342, 0.24301718931700989, 0.8463086342307633, 0.5166610604707744, 0.8868467959164732, 0.6817561078633929, -0.7266090797964386, -0.48226330782317217, -0.7763275000176386, 0.3534502319621091, 0.20425766374148613, 0.47613879699451966, -0.10740619593177647, 0.20403149129094222, -0.022933790163218948, 0.37327880707489314, -0.29265391284361386, 0.6543656800700131, 0.40612633394321174, -0.24235203564399277, -0.0742441470811186, -0.012339898899674129, -0.9018434564738129, 0.4429747275865934, -0.1860319360052014, -0.4794431606089373, 0.29088866895360543, -0.7351210153910466, -0.13874475815628573, 0.06891189542939236, -0.2763962485309328, 0.933437144544589, -0.12176088262159013, 0.10440357316238891, -0.5973034572689078, -0.8617865052242561, -0.28826612521632766, 0.17061981290273853, -0.7086166550325876, 0.4939534310122835, 0.4061484056029012, 0.6709338891124146, 0.9311816184504431, 0.6592751828224497, 0.3919799446963288, -0.0913433165728601, 0.7938071845269581, 0.017337210090453192, 0.33895946739135496, 0.42861392192444003, 0.7656490138906598, -0.32340161106797094, 0.5627649395511247, -0.8681968162852467, -0.4170014687600867, -0.7685701175586359, -0.5959960516951857, 0.3949273770389614, 0.26472466489167323, -0.28352255283335626, -0.468386967710263, 0.9929627692293761, 0.6301027089307221, 0.49531345321885967,
-0.5970824073308121, -0.001874494069156185, -0.4394923112157898, -0.9758224481116502, -0.9039064347961119, 0.5309614497419364, 0.05044900912623729, 0.18161588726662514, -0.04857771791644416, -0.6672865100297332, -0.5711151539835309, -0.3420699393378499, 0.8487938120169136, -0.7339320026959897, 0.9857023689737576, -0.0022453323141160553, 0.9769816205343094, 0.7316724957214653, -0.7386018910281598, -0.1844827921449348, -0.2024236011921301, -0.6733850435641808, 0.7609183049534023, -0.5891946198886402, -0.6314019374340585, 0.06001489574336394, 0.5806484646667651, -0.570133611252079, 0.11297980268100072, -0.2348764814796025, 0.9184058792897662, -0.9686710306598303, -0.538842787820003, -0.5797683515673595, 0.2273221714756517, -0.844413870315456, -0.48678598530179773, -0.3039266995304848, 0.8028195907714819, 0.30906639528037716, 0.5552352485088135, 0.3853037166103117, 0.3351607868950315, -0.42308965786787023, -0.3942621266570734, 0.02002084689255379, 0.42011645633515116, 0.6051360947079951, 0.7620870200398897, -0.05380938735960794, 0.3885724831327444, 0.7422538381875992, -0.5225057936951294, -0.6007743527259195, 0.6365294696432422, 0.7644617546798729, 0.08384441473071158, 0.7128594605414242, 0.9644476954622716, 0.1026983233744394, -0.6648950041664936, 0.6938473027356358, 0.39997726067240347, -0.7035355526089255, -0.15459341385469094, -0.4220167930389642, -0.7402587383367529, -0.4815282103331011, 0.39698568384311894, -0.8522232030164376, -0.038283285516670595, 0.44581186725696376, -0.7587210928773309, 0.030292357404609893, -0.9936162750407613, 0.49748334505930303, -0.15657679434359917, 0.1131637010070401, 0.37177439050539096, -0.4852456988352529, -0.6384623061911718, -0.14068292446687747, -0.12491587731339604, -0.6700236122837995, -0.09451757168498953, 0.8362235148712398, -0.4934788191944115, 0.13707974047181626, 0.673483340798771, 0.4444352968126386, -0.03041299238868378, 0.2833622355269152, 0.9848411985771484, 0.12286123007491301,
0.800760452685336, -0.08021274313801952, 0.9009430346346774, 0.8045511301969661, -0.9019482555722802, -0.25535092170488016, -0.9504301814219407, 0.985923627551615, 0.008350336687642068, 0.8247051421345468, -0.4437367700547996, -0.33129332671630185, -0.009488972813515906, 0.1261977216134329, 0.6243561224968914, 0.9411129226149089, 0.48409858986706844, 0.9350514793592495, 0.5518353906723759, 0.015049404229570351, 0.8690334795855035, -0.8608862226368135, -0.3375680992389163, 0.45643702271488795, 0.5672351923825445, -0.3811517589694524, -0.61996918423796, 0.36355258183318706, 0.7738355358506381, 0.16994466848686907, -0.1416717127920597, 0.2769022011821465, -0.1020090680944401, -0.8006397818402664, -0.2649793767662365, 0.5982746010031272, -0.5305536091084793, -0.16330044180370207, -0.8099269048638047, 0.6032641062712862, 0.7935524843904158, 0.39008322846775645, 0.3285068629494945, 0.750693570325957, -0.968230734034607, -0.4937763151381984, -0.27899637515687026, 0.9240076044431156, 0.5931606204720528, -0.1858051590279246, -0.1342051885632234, -0.5161519869702331, 0.08223676716934891, -0.6809814648089554, -0.2540594996786105, -0.4323366566878699, 0.6332248339467441, -0.021226370173862197, 0.3486274122105464, -0.05865492053950927, -0.6043760129392133, -0.9894290853925471, 0.6332836391793792, -0.1104760539797276, 0.048792985770273356, -0.8594962764812408, -0.474787765247195, -0.8746999491753549, 0.1080810104008405, 0.3182535639562669, -0.7854058206889749, 0.5068218919811909, 0.4822809792125795, -0.7957269674294312, 0.3739568394777484, -0.5327314329807717, 0.25194765475672387, 0.5221135689217746, -0.9267761014875429, -0.5035679893428435, 0.9603900617234462, 0.13232001427277829, -0.8500259219983999, -0.24376525264519455, -0.15608671585050748, -0.9061693264723623, 0.583555220414508, 0.9691608370279543, 0.3751492955274871, -0.09545893594747468, 0.025213301254919607, -0.9122826030482525, -0.746916650708576, -0.8127488317235916,
-0.9582461418506525, 0.05671930961175797, -0.3528747680196693, -0.00943781452675796, 0.9222085770342612, -0.5244362059717238, 0.7595660505346136, -0.20905197684359234, -0.8869047219616726, -0.9543101586724618, 0.5374602808505089, 0.7584229639118099, 0.23182300109353937, 0.33505764569840446, -0.0811520135834436, 0.48754923031745045, 0.6908643751178034, -0.3235808697454985, 0.41397141074216925, -0.2625114804303401, 0.9467988232242699, -0.3172704788901064, 0.5523885327447344, 0.8653110044824541, -0.22274462914015247, 0.2952072595040671, 0.8372378057671512, -0.1842135764215158, 0.4956010029516813, -0.48781730117880806, -0.37946750377829175, 0.6562442183918926, -0.8545530957948442, 0.5317685280328701, 0.10438024566801296, 0.7017291116007514, -0.6493837345369848, -0.5164777800924072, -0.7234615984524135, 0.6448203849246856, 0.36007581412672574, 0.9400248135519509, -0.9952687229520443, -0.21387708928884086, 0.08054157746942647, -0.15555818130868748, -0.9969827540142198, -0.5444213039761014, 0.7299217789890042, 0.5000681570260705, 0.34174142842877564, 0.021389044618215447, -0.32402521967169595, 0.8239143573760042, -0.684187637603161, 0.5024765992198719, 0.14997421284066093, 0.44638677238821334, -0.42731717347953535, 0.7320590968532661, -0.5812695071164744, -0.48839094109577474, -0.6340703594193573, 0.2640455904406882, 0.01875283652530002, 0.25136469623110624, 0.417713247466706, -0.22939281941370981, -0.2696221734531725, -0.22233833554897675, 0.5964976454861153, -0.45158448142413277, 0.9012367939242494, 0.013169751188048195, -0.21013671334676842, -0.06731836257751156, -0.9118196187002057, 0.16470514079880383, 0.6658528116905558, 0.43209982117465584, 0.8568000815296362, 0.6007866501343517, 0.8975083844422644, -0.9542012328412721, -0.2533035273561972, -0.5656962823757028, -0.891326739016105, 0.1794529004895351, -0.25698529785933677, -0.9408122479902956, -0.12911078901612405, -0.3544392596983905, -0.494269578637611, -0.8344497146279282,
0.06836914751719725, -0.30422105219045914, 0.120974945295792, 0.28051436300899546, 0.07496116777774864, 0.9301686598533725, 0.3920153603380607, 0.48864623024193055, -0.7544577399368719, -0.3959621494585521, 0.37238032582578584, 0.671699808772253, -0.059711071010472905, 0.8752497059245326, 0.8574404585732758, 0.6005483753770109, -0.26535631136875093, -0.5539227157290807, -0.6031954367384946, 0.8370349626372469, 0.2893517988110499, 0.3328492555117679, -0.7241198205322468, 0.19814427121288447, -0.4405182162982859, -0.8427422312604351, -0.2739796062896207, -0.979795283677219, 0.3224372388158263, 0.4977191311928437, 0.17557344985508871, 0.38529081394558395, 0.21171878395964594, 0.7395687880988131, -0.10483143250998905, 0.3782466803486071, 0.762749700384084, 0.07576379368504926, -0.2559154329681623, 0.6873791883818281, 0.03405912815096124, 0.835154864123939, 0.890567147733514, 0.3931210860212391, -0.31061803100339436, 0.15328213380125577, 0.3574721123456801, -0.016701333715451794, -0.43900024629214074, 0.15103859228973926, -0.9643689334462051, -0.15263293610731843, 0.6619131217391787, 0.24943655624780425, 0.41084967182094845, 0.6014808443602135, -0.6257981596920585, 0.024101822071507684, -0.3335354968555466, 0.2779085978832576, -0.8868058407593082, -0.9089875224958799, -0.9480992170871321, 0.4064394949695622, -0.8481681211404475, 0.9153884948666868, 0.44868859604091393, -0.6779274621616933, -0.5131147582585538, 0.14852999656769894, -0.08108994290471538, 0.6524177728002065, -0.36156504374608, 0.12279134908096734, -0.3129327821677703, -0.1301193564934091, 0.09630611205536144, 0.47277087570552334, 0.48487392555335407, 0.037841105350504556, -0.23809675691778476, 0.5011843815476418, -0.482296178707152, -0.5633211675282772, -0.8188374824644455, -0.12921709708006346, 0.10925252555229004, 0.6246383474348589, -0.37589890055685293, 0.47906486924823266, 0.0668955979704764, 0.6701658583441941, 0.1387111823824465, -0.039575718468286114,
-0.6402888807746059, 0.30676789399606674, -0.4219639135341833, -0.3525495221166761, 0.05013448050402447, -0.88875951078434, 0.42151068536050573, -0.7174883573316644, -0.37231115920506497, 0.5741988919278347, -0.7238534483911174, -0.04835748932531225, -0.844300653517795, 0.25109223072799103, -0.047201029762666824, -0.1394901914038016, 0.9292946253628891, -0.3629049347335995, -0.09208006108251077, -0.1490202689290332, 0.42987241000791454, -0.3068360161996948, -0.9406357251549693, 0.3996676003974362, -0.664791715045506, -0.3857388110187332, -0.7121255431852478, -0.050357661870731096, -0.6132176891882519, 0.3628584183767254, -0.4846716816013734, 0.08926268000549253, -0.13683633130294925, -0.3523505904208408, -0.8851670297704439, 0.46126266439160646, 0.16805938867896564, 0.41494026114216176, -0.08792520531912174, 0.9668449561915884, -0.06456862324144774, 0.7428901083542383, 0.08922699991183758, 0.8236808111447502, -0.5705029561049362, -0.9586847113204895, -0.9354864852402713, -0.656644017373526, -0.28564292497918187, 0.8665852771928062, -0.9025831350149345, -0.08705660061161091, -0.8508875311070567, 0.0596938331978476, 0.12384792528373856, 0.5970226602414057, -0.9552986959248913, -0.793165382045844, -0.9354084945856425, 0.020608188085103674, -0.8064297971153462, -0.9278002040692537, 0.10879854861520943, -0.2499117921966003, -0.7742951948560879, -0.38438817078109366, 0.5778095615659802, 0.2584166034605093, 0.29970050522067004, 0.48298903177738883, -0.10938855990002905, 0.7424420309658986, 0.8430801673320367, 0.44553568894640727, 0.8807444577751267, -0.4456030541717606, 0.3462488306401661, -0.8360612291621432, -0.744508787070816, -0.18378796514480822, -0.6146908531416071, 0.8667435386372129, 0.3416966317196444, -0.466964714275657, -0.12546871238110602, 0.05747088243282117, 0.42858218645344826, 0.9253809061455927, -0.12846385069706034, 0.2029300379207697, 0.9964340322900374, -0.9564440859858587, -0.6069832495578782, -0.4944286523864023,
-0.52292173545997, 0.7335843521895782, -0.3091981003847504, -0.6615422136814306, -0.02916546562928546, -0.48883280519894123, -0.5316977266263554, 0.5521382123952854, 0.7051037835561746, 0.6633036588210881, 0.33055314169965344, -0.8524287903102561, 0.04347305072861429, 0.4706950793784992, -0.7434084805950283, -0.2824860613300313, -0.6053874117111406, -0.29146314044956245, 0.41161977572024333, 0.10943561767736587, -0.2707723339816761, 0.751862234916939, -0.27251502863491384, -0.5419191151595646, 0.324735896511297, -0.09155956907281282, 0.022657776823890474, -0.3760733087852941, 0.039798520723355546, 0.026665400698105524, -0.3882370264057873, 0.48306155767326064, 0.3552732682995918, 0.956609577330704, 0.012593820621692453, -0.8500454445365526, 0.7506836342414396, 0.42602885304206484, -0.009463580391547044, 0.4972384570727095, -0.2600663379903567, -0.904363938195206, -0.08561331534660921, -0.9704913801306356, 0.4815870115273888, 0.8273811606000259, 0.5244110231684882, 0.217620884859411, -0.47299688478182866, -0.65719828003389, 0.45533646969293207, 0.46172738049661954, -0.40810977698845186, -0.7136032872538913, 0.1492223793167078, -0.7196278321991816, -0.628400613284408, 0.8593680850544612, 0.5055041978222676, 0.8167635152792851, -0.6322499387129485, 0.6519651954620356, -0.9730427843301523, -0.41587048546197347, 0.4535433694456197, 0.5521831363349674, 0.8158042324417689, 0.7735467059918859, -0.5226156211297923, 0.9034506766408466, 0.41297627125715186, -0.9979110492476688, -0.4107995452801332, -0.24014433119760104, -0.6026680271637694, -0.014612383843881416, 0.17110917246323187, 0.2493036093140435, 0.5298079313110107, -0.20184760361600307, 0.263853665164403, 0.2691991572879944, -0.10651038880845554, -0.9623160210175372, 0.9473905467060177, -0.47391236175431506, -0.040893526873229336, -0.7561192455121628, 0.8111720502358803, -0.14339296163100035, 0.7964720321519851, 0.26159289736015046, -0.05143583951186037, 0.46027349435035547,
0.7759531886576867, 0.6077917696112747, -0.8296307130861706, 0.45922279932679655, -0.9877497606358929, 0.6242849187816826, -0.3680071149337001, 0.19378204730662185, -0.8450289712821641, 0.7224340424013027, 0.7990631125860415, 0.7919375365100243, 0.9745228879815375, 0.9148232548969133, 0.07679136478198201, -0.4945746485178806, 0.3045047345878229, 0.16806219646743137, -0.6302170745306424, 0.8064081677952966, -0.8784281404155436, -0.18258469117680032, 0.8340460698074461, -0.42034823995526804, 0.24908034994245165, 0.7858205919555532, 0.11749029250838805, 0.7130409481563351, 0.7195112950928184, -0.0011905645154386413, -0.9115856465712824, -0.0011487025872627399, 0.31814291379381565, -0.08618993104613248, -0.17886927176380585, -0.6226703917050322, 0.21121579344252495, -0.02045255797939416, -0.7009609126470786, -0.871534762381825, 0.3155398913464178, 0.9643435215493783, -0.39483054225538705, -0.7795005574668101, 0.21440530593440976, 0.6143514862006103, -0.7908883915914116, 0.07551245597830447, 0.7967382668993652, 0.8797295947544059, -0.6483210533600334, 0.3912700076443101, -0.12189116364368746, 0.7752694589956428, -0.8093287889581893, 0.3280229458190633, -0.3655379586136931, 0.14824556758250806, 0.21122954420977158, 0.37279803680727674, 0.06420887346283144, -0.08520757803056878, 0.6048406295455662, -0.5044938713846183, 0.891580921469689, 0.9338036323685075, 0.5029982491805405, -0.3111360017394671, 0.33391648125899764, 0.5809523616980641, 0.6739111576768315, 0.05845142999916364, 0.9778123193948036, 0.6756399266845159, 0.4168051810001254, 0.8733637389267235, 0.6438410008590376, -0.6753751731465809, 0.9871692491392203, 0.5445628097140707, -0.4332007925077881, 0.1574918270517165, -0.2680474177443799, -0.6142119377250721, 0.4782171201503418, -0.7971712430871178, -0.42833871009138824, 0.9095969742308909, -0.749873084890498, -0.650961351616923, -0.8833426989237763, -0.4935827372221151, 0.643851240478319, -0.24764348585941054,
-0.4538956897883901, 0.5781919466500498, -0.6136099985984584, -0.1651309163456871, -0.30292256039731047, 0.7669879598574769, -0.3869308249851189, -0.5813515017694562, 0.24398264635934153, 0.46119866972236156, 0.7687465035421417, -0.4694195065547242, -0.47297372513515157, 0.6391874872152286, 0.5087429579715461, -0.3397766315278885, -0.3515222995088614, 0.358028665357802, -0.05292598112735725, 0.4021199023724433, 0.2717653604019794, -0.17149039089593265, -0.511558963230365, 0.5868573017716472, 0.7712292993708316, 0.5757021036855396, 0.7308421340710338, 0.6176880014086081, 0.20109678677711962, 0.3955165091136197, 0.44925979917647507, -0.14225741239623635, 0.7619877989316559, 0.3181066116486322, 0.3763702949393426, -0.8742424078870659, -0.5530171249164921, 0.9956159149205883, -0.010460888825358783, 0.44215487736180137, 0.4395628223769903, 0.6024607927265873, -0.14380941679801929, -0.501040654656536, -0.6342766454940807, -0.9195130603811283, 0.20795942932762723, 0.4205028867159095, 0.10423671342563012, -0.38202341468084633, 0.3695196076271128, 0.5020013223897577, -0.9859763450533103, -0.3793764159602566, 0.2825461985286788, 0.6159915372325531, 0.5778789212919127, 0.11423520702967616, -0.6657371191587653, 0.12361398124809964, -0.6600075206827127, 0.5130591135715945, 0.05614367296471978, 0.29763374136162857, -0.27135071665801225, 0.9942754563368652, -0.44412241575750966, 0.44336677144905345, 0.1943060490749111, -0.6616661550140837, -0.6450786215385069, -0.5048133151741057, -0.21134184975584458, -0.9133763259012524, 0.8769181658835548, 0.5406357358010601, -0.24792335470904603, 0.6307679325524564, -0.7335251376964691, 0.06377438194530005, -0.0027898868253053433, -0.9108437820503348, 0.76533328891409, -0.716145959445202, 0.46536212583571035, -0.6738968060324935, -0.06057110822072587, -0.5361612188227483, 0.252470461225037, -0.13762773659758465, 0.1934198015645885, -0.7272481994481979, 0.12950507546655254, 0.550574894826001,
-0.18553273571351836, -0.8961030940722652, 0.0749243523042058, 0.6648905840118209, -0.7793924882846566, -0.9092291567075286, -0.2951965394853011, -0.5847229122185096, -0.4818851284468675, 0.6761907304082533, 0.22942490072696842, 0.33929740504287165, 0.21454089389519915, -0.18643806029022225, -0.631271860507691, -0.3240010276319192, 0.10174708593913606, 0.5036300079377507, -0.3439035107689188, -0.24130665298031828, 0.10832945240246561, 0.3774693833434397, 0.9791408603500258, 0.22735720959823325, 0.08108993010652621, 0.39354160961257567, -0.8856716732059873, -0.6085740702677129, -0.22217738781896812, -0.5120053169747798, 0.6498042486303575, 0.7226065503802108, 0.8163167512254463, -0.45723330658649775, 0.42881319047636923, -0.19466535406193453, -0.8473642695186101, 0.873947608606964, 0.04830142792977088, -0.3164462865168449, 0.6845284687975155, -0.40675708195525484, -0.24451144844077488, -0.8343194435402332, -0.5811591933161062, -0.3417252950897578, -0.11709161354756992, 0.8568903315737872, 0.2664508167627835, 0.20284500775188885, -0.40721099526448, -0.13207240246716556, 0.37073669083909055, 0.8261780092788256, -0.7040452223075442, -0.6817935588668393, 0.5200050887779906, -0.07945275888125303, -0.6317171568647417, 0.2999044284463088, 0.8823705815512348, -0.17041382144753925, -0.9346329978919588, -0.012252978042184504, -0.09579012290045164, -0.34503096969435565, 0.9737447000816739, -0.6381036848235817, -0.5246272166011414, -0.13295904601324593, 0.21573549966303074, 0.5971776619519888, -0.19293055243170087, 0.52536729783959, 0.08733362676696732, 0.809482347394626, 0.4596675956065206, 0.8780606781993228, 0.2079912321655608, 0.6449979432332984, 0.9453745765852712, 0.38413751777340943, 0.6387360550723156, -0.02641491718128952, -0.37637732530936896, -0.15156539084533116, 0.038012978365055794, 0.8839366427410158, -0.4108292541914331, -0.20011416807671933, -0.30320559019919613, 0.8261614000572775, -0.049800838351807375, 0.06377760613304573,
-0.27167626932304634, -0.4683172883669111, 0.7217187184192675, -0.17002706676680757, -0.5056498135820604, 0.3338196075790294, 0.1711022082688205, -0.3537953025420344, -0.34587213264284355, -0.8749738174226049, 0.8564280741111894, 0.16879852406590112, -0.1496084449555608, -0.9069909689283013, -0.7612666820848637, 0.5934626299345054, 0.7041089750348108, 0.6001986390963394, 0.5579798450735964, -0.24066448932439433, 0.480068383208734, 0.32823256932238887, 0.9642454955123132, 0.6482002437081702, -0.6315580756468575, -0.7198395006535712, -0.8350535903795506, -0.8929790103311903, 0.9192519227852101, -0.35264632816782226, -0.23728770755474016, 0.16031746895818944, 0.3951815771307421, -0.5329507907281923, -0.15669847472788412, -0.32071611559862534, 0.8491874912086497, -0.7489693497974594, -0.42979062325688844, -0.11254950080744663, -0.4131122607823421, 0.20843423854143017, 0.5523874018663597, -0.618200204983308, 0.4372709464049258, -0.9006631515139318, 0.5737584668661582, 0.29634238294132853, -0.04667046098393679, -0.2979388562012264, -0.09202336881774986, -0.25015639645605736, 0.6868419238907844, -0.20982820161916726, 0.8891477823114937, 0.9536910977472663, 0.32183122607375503, -0.13248386798796585, 0.6689913716792495, -0.20797679848546435, 0.19625980565585754, -0.8058404610533987, -0.8368094509024122, -0.4544621587365816, 0.00682192805112769, 0.6968217549032587, 0.07444210499734538, 0.19508752346648528, 0.30669565535124765, -0.771355668851236, 0.5769847447662835, 0.5642577154739088, -0.3598474325360681, -0.9519745943042659, 0.7571488247564784, 0.25924166432469664, -0.3919328466979175, 0.07039238376800316, -0.773263678683006, 0.20221555374873534, 0.7637411801014391, -0.9541563620259528, 0.4608067507837168, 0.7048081876850731, 0.9959026247527667, -0.938836903554435, 0.7536752157379778, 0.49114926046385166, -0.7138896717393575, -0.24657532174928432, -0.7130405259900849, -0.27345177206586313, -0.669615218711741, 0.9941589708437895,
-0.4803528469541827, -0.8161066922104057, 0.0031696287410314383, -0.31489413239367603, 0.8517461219349347, 0.6358404278661585, -0.3968296102780089, -0.1627923397453257, 0.27428735164375784, -0.986353075055435, 0.555558539945709, 0.6345497122282417, 0.27358723902394, -0.08307956360788094, 0.7407891058705167, 0.21428000439773598, 0.1802248020997097, -0.22517170764184113, -0.24428379984730753, 0.09873735239345027, -0.20263124784172337, -0.41042256177231295, -0.775065314201707, -0.1504687905131743, 0.06205582043607727, 0.24241929081793745, -0.8834387684152274, -0.02631285187792809, -0.2031665057827272, 0.49725007118189124, -0.7566151941960333, -0.4010028958156684, 0.3946403237822713, -0.9189815682578142, -0.5825109148785672, 0.4879835295409778, -0.09255703699829843, -0.22320815295695517, 0.34751116276639427, -0.5987266644836482, -0.8873338189960445, -0.6655251282421999, -0.422190037593126, 0.857319698846021, 0.0474667215685769, 0.18581247005123736, 0.8472921451427899, -0.7226274727412569, 0.2294180544222748, -0.5555476672633981, -0.8695937834131728, 0.11072856788396601, 0.7293802419966988, 0.47848061822390875, -0.6799159133404145, 0.7481837383140748, -0.6336873474744751, -0.5380134345173195, 0.02217236043330506, -0.44299897675173106, 0.8331628652377443, 0.36938365679821583, -0.7468367528953381, -0.7914030590119712, 0.7947630064797027, -0.383901487402176, -0.03220049323515606, 0.5974343614283586, 0.22307609328821343, -0.879219090191824, 0.29039357279648526, 0.8496995884878631, -0.9080652814794836, 0.9035253335026869, 0.08346729541558218, 0.6299812989889073, 0.34278782487963433, 0.8034894648188737, 0.05958320530182171, -0.19830381780328632, -0.9880441437398557, -0.13636755448144888, 0.02700529557349629, -0.6513839469914882, 0.8571021789048381, 0.7518377340551592, -0.9429084180639751, -0.8641518105155417, -0.32585636529358886, 0.20256855027223386, 0.3710868632353377, -0.4642767585179699, 0.16183908049286422, 0.020376649503078603,
-0.1778783139002975, -0.1143073961979928, -0.18369246606798106, -0.32060291340146563, -0.14721398582065492, 0.30682313960630303, 0.2541015814140024, -0.9039961825527709, 0.7487651613651765, -0.5361878895495149, 0.8420677545100881, 0.6730865469361733, -0.11374395776967083, -0.5282234538844708, -0.007426411437818636, 0.08338051399784385, -0.26814575006087593, -0.6479986422894606, -0.404174948451437, -0.668833606248127, 0.9603567688839956, -0.35091775399944014, -0.5261568020647278, 0.9654857133763197, 0.769803123777548, -0.32528518852114297, -0.3278533707894853, 0.9544922718210895, -0.11838393245620904, 0.6493401706287205, -0.03885516501144881, 0.8425158624816602, -0.760275021834607, 0.726674963712477, 0.25533920424912626, 0.4412096086230095, -0.15831146155357634, -0.3291785601063226, 0.5740807784389248, -0.2605437207510848, 0.28585401612214145, 0.11753495132329195, 0.25786182122382284, -0.42020889912515536, 0.6358546318707419, 0.7124041649419275, 0.9663241704211241, 0.0335631753111123, -0.5609535084691084, -0.25765249850360794, 0.6189348430103485, 0.41481818134104964, -0.06809394698240911, -0.9159138302581327, -0.11345605765632372, 0.15709181535782224, 0.5689234908525862, 0.24190117431700253, -0.8981942003173995, -0.03911188575991176, 0.9275430929379604, -0.11113034559801749, -0.47128990093109935, -0.03101591337061671, 0.17312799852276584, -0.8830119599124859, 0.8162350978655082, 0.6270926015885738, -0.4143402127824678, -0.2539028250868467, 0.15840053132032827, -0.8996944694686635, -0.806295218229254, -0.8393360142632265, 0.19276415307398187, -0.35886974096184043, -0.10632357209023824, 0.5751160542139797, -0.008329299337350271, 0.14282321078478755, 0.061556613695035844, -0.8621443714320307, 0.6353278891547709, -0.737885119823684, 0.9984825220863889, 0.21839604627573928, -0.19695003716201898, 0.9583105930905023, 0.05385366240321332, -0.9806584736665336, -0.9579235510785318, 0.07114314424739687, 0.5685527315807277, 0.48029605279664245,
0.21198113227353743, -0.7202995945255228, 0.08673549316043783, 0.4132194998304646, -0.03271183414392742, 0.9226206023001611, 0.5156424684086875, 0.9001200734041479, 0.4160281288641392, 0.5144965539972908, -0.4273511418572504, 0.1604890770980052, 0.7172626147840822, 0.02673419649867781, 0.23250116886682126, 0.429035854363625, -0.5387206437741341, 0.1793807554175022, -0.7092208562093703, 0.826035648360465, 0.1733598381320467, -0.7930017662292403, -0.8381620393464184, -0.5419701560973065, -0.4439178198596825, -0.8793164484879648, 0.014647555279524438, 0.8839389181387773, 0.5539598923400497, 0.020629474856587393, -0.2749656374603149, 0.484977308181995, 0.05273409575162291, 0.7493439023597552, -0.42368424334039556, 0.5442157705153781, -0.4333491859046308, -0.6385059652178717, 0.23515959602980785, 0.11802732801571292, 0.6205727221295136, -0.6742911552679929, 0.31842459627646, -0.415214291588498, 0.6997877247570563, 0.640285912119622, -0.40046360324846053, -0.9614056592324802, 0.6188948942057604, 0.7888887369712163, -0.18305463466581662, 0.540565167315203, -0.047837658648927306, -0.4810383140261547, -0.9748334299242822, -0.8524224000628773, -0.22873264686828287, 0.7722473043949114, -0.7842431534523131, -0.308422545748434, -0.6476543626724067, 0.9582964063093424, 0.5078512787062575, -0.5661296664271995, -0.2572086352586451, -0.8735278407417146, 0.6617244494348109, 0.4863161367533779, 0.11926530103673483, 0.1576514533045612, -0.6865218036735863, 0.6042216119911135, -0.17474796906432433, 0.14213936968806906, -0.7270707962631069, -0.018880382192880463, 0.8155817334921174, -0.6989832142444374, 0.18062178853429467, -0.9864868023225011, -0.39185949741388404, -0.5772511396860585, 0.06467211328928513, -0.3459461610494714, -0.2756646547659538, 0.5233901848164979, 0.721020099421229, 0.9345140153199016, 0.9078322148291433, -0.7146206871357872, 0.7903315611782225, -0.48469605237501323, 0.14804702795485225, 0.011555689582106732,
-0.8569112544400128, -0.3712342629207914, 0.666422284773704, -0.417651841655887, -0.7321656244619223, -0.037504129847941936, -0.8900836232841165, 0.20965503171241595, -0.5594069038548204, -0.47833903201934147, -0.6065929789499063, -0.7876024029597775, 0.16616534492659274, 0.08651354007257006, 0.231456271489213, -0.6682835992128899, 0.941910378046062, -0.7763699265197561, -0.6428617994726185, 0.7119431844893724, -0.8530470576572537, -0.13545695869601193, 0.4505172033907787, -0.2630099044264085, 0.34219513321916684, -0.33436230622619956, 0.8658721537170821, 0.44722708766646724, 0.990954280153491, 0.9931911129388751, -0.9958367985844256, 0.6297141643642923, 0.8019110344416804, 0.3175981388778768, -0.9379965590068704, -0.5656754160106445, 0.048693137925724495, 0.715412904434988, -0.414336294008232, -0.06067044901314711, 0.11620327714020995, -0.7485092926769827, 0.7684028586760292, -0.2216551568830858, -0.3783074994463518, -0.1624496406780156, -0.24831592560475002, -0.24018667152324413, -0.2446307909513208, 0.8580629106997106, -0.6743994417906978, 0.9914756017547968, 0.7117606044407339, -0.9395423726931571, -0.6288981984201707, 0.05950315403682671, -0.013169428076349243, 0.3170339933329309, 0.14637622999564104, 0.6660705849104422, -0.1620273627046771, 0.5387754628646797, 0.09201133558777985, -0.9799475495610344, 0.9299647959258952, 0.5198177212872246, 0.21431917517812082, 0.24155090540678992, 0.9902171616836617, 0.08241809577065728, 0.303479688702609, -0.6557162465677839, -0.17594358062791748, 0.8508557954222848, -0.7470797383626244, -0.12047536027810613, -0.06441687163330623, -0.08566596007865668, 0.9298206536106828, -0.22870196085436723, -0.20277334183294093, 0.8830957844635456, 0.9169877825419326, 0.6074239166757005, -0.2346652304017478, 0.3986041023838034, -0.9944841783404841, 0.018325034825102282, 0.843963474066318, -0.9722187079177638, -0.1436522906173925, 0.37534766055702495, -0.3004501948698177, -0.3470613300316112,
0.039364376030438075, -0.8174086651762409, 0.6161119869750735, 0.6560790549652356, 0.7217824951662977, -0.900037529785016, 0.31092311962816965, 0.4859578692710109, -0.7546892919455743, -0.4807237362624537, -0.6237105116561121, 0.661941484285828, 0.5203953113648085, 0.007383978776553279, 0.5368338558886234, 0.8052034469289413, 0.28035984338316244, -0.842431337447022, 0.11049011916228157, -0.43154099205188223, 0.7100441714323187, -0.21240695875671234, 0.6812529745066307, -0.18811966479821907, -0.6191200476367913, 0.28393984936867867, 0.01796916831569262, -0.22709522747147237, -0.3837567664809116, 0.6770136073722492, 0.14133232684305064, -0.5184537172033095, -0.8293103996648705, 0.6063245953526544, 0.8572562772409931, 0.07618292502362456, 0.6789439057303537, -0.17515292218464484, -0.6966799073912913, -0.04628028004100826, -0.28471834059862666, -0.21071765790833719, -0.90400894146708, 0.9946668749406817, 0.5012046683978031, 0.39781642122349514, -0.48014999329652763, 0.7228126001720359, 0.0836182058121211, 0.5637156579792415, 0.8660565022610225, 0.19081203577610495, -0.5683256699545671, 0.8997025978224173, 0.5058095469899391, 0.6271536980341161, -0.7777110758503183, -0.4512197977531802, -0.42442724327346215, 0.4366049667155003, 0.15745135034532187, 0.5104568226599118, 0.25435006088662715, 0.015379963471870983, -0.8660958374403598, -0.27409484564598285, 0.529313669222935, -0.8778312690681502, 0.2838816025885482, -0.6111354909624671, -0.9253996441976438, -0.745741450246765, 0.4774381092142046, 0.8037015973416113, -0.04607187392126644, 0.03579242504747904, -0.6221430741552683, -0.21501844954160765, -0.1473521511162028, 0.2420020210042948, -0.5740687990400224, 0.2700043823157483, -0.03420577235633426, -0.6071711739422723, -0.5488224305076803, -0.9222035639083288, 0.5375858898340533, 0.09113928218729694, -0.257193338646585, 0.9201104957204502, 0.7742704296383212, -0.911445802738228, 0.36054029914781105, -0.3948309616264205,
-0.6536022483323027, 0.20010554192703678, -0.4445806474348133, -0.4629063540851739, 0.3283500592748714, -0.6537280862093491, -0.8490304343051596, -0.4039333526808391, -0.9625748440259905, 0.583321016563443, 0.9803138424656639, 0.06852681796453663, -0.12902172201255535, 0.23383298799589491, -0.44277964283453053, 0.7999121232803026, -0.30562573714485297, -0.6193377401107492, 0.6566411468933877, 0.03983211936169684, 0.2679806655174226, 0.910117226480158, 0.31205894386188415, -0.08151959898494132, 0.7604609371461406, 0.3130386930017801, 0.31707141946412265, -0.605279639268198, 0.2731853504465065, 0.11517498639466983, 0.8989045344162141, 0.911502116774159, 0.40096759279085314, -0.8851056574800675, 0.5447369269893012, 0.7071573904286412, -0.5657033482904963, 0.22541396873009334, -0.869337477125298, 0.7565103896709011, -0.33732539027925257, 0.650367080429948, -0.06910453443378795, 0.6536333491513298, 0.057700385906840124, -0.6343309304912033, -0.18350305985384519, 0.39846602961232747, -0.7754739043629846, -0.5627150001023626, -0.01939388128611741, 0.01240904457415759, -0.8175810643868262, 0.5736408144421974, -0.010239002175434386, -0.8166087012280261, -0.9682816760226545, 0.49306221295931096, -0.11719425483576651, -0.27119719335227277, -0.2819904616292095, 0.1807641898535246, -0.07635344908434072, -0.4349250646631384, 0.10492211191780454, -0.08344339812721313, -0.10865849601250632, -0.9144204474472928, -0.6630125331465302, 0.0735706437912611, -0.3388837659247239, -0.6260887846833716, 0.7951621550329617, -0.8800482346627789, -0.6090314992995891, 0.5175050196333206, -0.6376753005456517, 0.9996060089067682, -0.7143198441282028, -0.1354549319162286, -0.7531846537549993, -0.8752738467008632, -0.5456670916848831, 0.10912741683253535, 0.17306661419505076, 0.7909590460171891, -0.3404199734879836, 0.8381154190538118, 0.3406233574940096, -0.16422862176634911, 0.5679973530779296, -0.685150591747407, 0.3247282174149857, 0.2065138648871443,
-0.4803528469541827, -0.8161066922104057, 0.0031696287410314383, -0.31489413239367603, -0.48488600202042487, 0.6358404278661585, -0.3968296102780089, -0.1627923397453257, 0.27428735164375784, -0.986353075055435, 0.555558539945709, 0.6345497122282417, 0.27358723902394, -0.08307956360788094, 0.7345820913946333, 0.21428000439773598, 0.1802248020997097, -0.22517170764184113, -0.24428379984730753, 0.47219739320308785, -0.20263124784172337, -0.41042256177231295, -0.511028400698071, -0.1504687905131743, 0.06205582043607727, 0.24241929081793745, -0.8834387684152274, -0.02631285187792809, -0.2031665057827272, -0.434792489280011, -0.7566151941960333, -0.24538412984366054, 0.3946403237822713, 0.6408450243496369, -0.5825109148785672, 0.4879835295409778, 0.8310319446093914, -0.22320815295695517, 0.34751116276639427, -0.5987266644836482, -0.8873338189960445, -0.6655251282421999, -0.422190037593126, 0.857319698846021, 0.0474667215685769, 0.18581247005123736, 0.8472921451427899, -0.7226274727412569, 0.5196133622148018, -0.5555476672633981, -0.8695937834131728, 0.11072856788396601, -0.6768111191071207, 0.47848061822390875, -0.6799159133404145, 0.7481837383140748, -0.6336873474744751, -0.5380134345173195, 0.02217236043330506, -0.44299897675173106, 0.6707616970063703, 0.02935522253196088, -0.7468367528953381, -0.7914030590119712, 0.9342728793989705, -0.383901487402176, -0.03220049323515606, -0.5716537922467004, 0.22307609328821343, -0.879219090191824, 0.914670069110584, -0.6637397836298047, 0.4965049387371878, -0.993571799292319, 0.8779416585597977, -0.07379381631231463, -0.4777587692391583, 0.4664354186274162, 0.1094141123960799, 0.9983749401722, 0.9266362504689032, -0.7767086038541595, -0.30982963692367305, 0.4013126661144575, -0.3218379413600687, -0.9201752270034911, -0.42927805123972695, -0.8055047648300666, -0.19091445362914028, 0.6532887299550558, 0.8575822803339255, 0.24098987230343805, -0.9131320298229373, 0.33040786795211075,
0.15071439435557754, -0.21058912852977651, 0.648184697886359, -0.43371874490455764, 0.21217262504030598, -0.9595861921123181, 0.8317514096652618, -0.9686373043731114, -0.9640681843013563, 0.631533575354877, 0.786908340991997, -0.23765799736409776, -0.7675711954055993, 0.6535650060445668, 0.10144569598734554, 0.7367090224299324, -0.2533188881487889, 0.48829067418606464, -0.7300801066460265, 0.7722730381250233, 0.021710782749991164, -0.169676584876286, -0.9190139106766095, 0.643908022515421, -0.8059584831759283, 0.9358748082354604, 0.2075300864034504, -0.3407846016563625, 0.6572917170081185, 0.7875425294228717, -0.6617175918776044, -0.7138166171082974, 0.7198204556780607, -0.23682448781235266, 0.8243658684161042, 0.07631144002188939, 0.46475165557862974, 0.12474435474920131, -0.7385096926464532, 0.08956037293380148, 0.2586400290416637, -0.6670510022491538, 0.6882768493192355, -0.6971220206297335, -0.7233977767621609, 0.24968204908217762, 0.15345741286254766, -0.9280582440291096, -0.4641836876237222, 0.1676247669795834, -0.7105381239465332, 0.6161503036607137, 0.27252736966317226, -0.5381013809332171, -0.7728291929959106, -0.290214211476884, -0.23513678572532548, -0.25968335632510153, -0.30362259306561357, 0.28766018827359785, 0.2555739913721491, 0.3256870325606862, 0.47876723969787616, -0.48855037685722347, -0.39267422793443285, 0.4874198171977535, 0.5149909702354842, 0.9933100766002303, 0.1141920960720737, 0.9421405961934359, -0.6034920896306795, 0.6250651364807165, -0.9080652814794836, 0.9035253335026869, 0.08346729541558218, 0.6299812989889073, 0.34278782487963433, 0.8034894648188737, 0.05958320530182171, -0.19830381780328632, -0.9880441437398557, -0.13636755448144888, 0.02700529557349629, -0.6513839469914882, 0.8571021789048381, 0.7518377340551592, -0.9429084180639751, 0.31356095823645136, -0.32585636529358886, 0.20256855027223386, 0.3710868632353377, -0.4642767585179699, 0.16183908049286422, 0.020376649503078603,
-0.8569112544400128, -0.3712342629207914, 0.666422284773704, -0.8968783306506738, -0.7321656244619223, -0.037504129847941936, -0.8900836232841165, 0.3785348076443029, -0.5594069038548204, -0.47833903201934147, -0.6065929789499063, -0.8308670631290109, 0.16616534492659274, 0.08651354007257006, 0.231456271489213, -0.6682835992128899, -0.17525826662790567, -0.7763699265197561, -0.6302170745306424, 0.8064081677952966, -0.20032624997051074, -0.18258469117680032, 0.8340460698074461, -0.42034823995526804, 0.24908034994245165, 0.6674606150202091, 0.11749029250838805, 0.7130409481563351, 0.7195112950928184, -0.0011905645154386413, -0.30044129030971556, -0.0011487025872627399, 0.31814291379381565, -0.08618993104613248, 0.3732507981501434, -0.6226703917050322, 0.21121579344252495, -0.02045255797939416, 0.06582480605092478, 0.9857813432145841, -0.04355543297165587, 0.8400527762386596, 0.8962795272825144, -0.7795005574668101, 0.21440530593440976, -0.1624496406780156, 0.8579332881874173, 0.4826906208694879, 0.5916295263608855, 0.8580629106997106, -0.6743994417906978, 0.9914756017547968, 0.7117606044407339, -0.9395423726931571, -0.6288981984201707, 0.05950315403682671, 0.2712707692054057, 0.3170339933329309, 0.14637622999564104, -0.6583758673107329, -0.1620273627046771, 0.5387754628646797, 0.09201133558777985, -0.9799475495610344, 0.9299647959258952, 0.5198177212872246, 0.21431917517812082, 0.24155090540678992, 0.9902171616836617, 0.08241809577065728, 0.303479688702609, -0.6557162465677839, -0.17594358062791748, -0.34879373720188234, -0.7470797383626244, -0.12047536027810613, -0.6744594026916793, -0.08566596007865668, 0.5686157980145536, -0.22870196085436723, -0.20277334183294093, 0.8830957844635456, 0.7917589898214346, 0.6074239166757005, 0.45885181229961125, 0.3986041023838034, -0.9944841783404841, 0.018325034825102282, 0.843963474066318, -0.9722187079177638, -0.1436522906173925, 0.37534766055702495, -0.3004501948698177, -0.3470613300316112,
0.7759531886576867, 0.6077917696112747, -0.8296307130861706, 0.45922279932679655, -0.6419802632997345, 0.6242849187816826, -0.3680071149337001, 0.19378204730662185, 0.6972389588214452, 0.7224340424013027, 0.7990631125860415, -0.09389670856899035, 0.9745228879815375, 0.9148232548969133, 0.8877937002154865, -0.4945746485178806, 0.3045047345878229, 0.16806219646743137, -0.6428617994726185, 0.7119431844893724, -0.598376629793687, -0.13926934963189996, 0.4505172033907787, -0.2630099044264085, 0.34219513321916684, 0.6854223619713788, 0.8658721537170821, -0.8259111273560624, 0.990954280153491, 0.9931911129388751, -0.9958367985844256, 0.6297141643642923, 0.8019110344416804, 0.3175981388778768, -0.9379965590068704, -0.5656754160106445, 0.048693137925724495, 0.715412904434988, -0.414336294008232, -0.06067044901314711, 0.11620327714020995, 0.9120472402491684, 0.7684028586760292, -0.2216551568830858, -0.3783074994463518, 0.6143514862006103, -0.7908883915914116, 0.07551245597830447, 0.7967382668993652, 0.8797295947544059, -0.6483210533600334, 0.3912700076443101, -0.12189116364368746, 0.7752694589956428, 0.5718360666968787, 0.3280229458190633, -0.3655379586136931, 0.14824556758250806, 0.21122954420977158, 0.37279803680727674, 0.06420887346283144, 0.4742155180652423, 0.6048406295455662, -0.5044938713846183, 0.891580921469689, 0.9338036323685075, -0.22540335222618713, -0.3111360017394671, 0.33391648125899764, 0.5809523616980641, -0.5018985957660633, 0.05845142999916364, 0.9778123193948036, 0.686891728079426, 0.4168051810001254, 0.8733637389267235, 0.6438410008590376, -0.6753751731465809, -0.0705595822284264, 0.5445628097140707, -0.4332007925077881, 0.1574918270517165, -0.2680474177443799, 0.36716883629969455, 0.4782171201503418, -0.7971712430871178, -0.42833871009138824, -0.9554238037919875, -0.749873084890498, -0.650961351616923, -0.8833426989237763, -0.4935827372221151, 0.643851240478319, -0.24764348585941054,
0.19477429974741067, -0.21058912852977651, 0.648184697886359, -0.43371874490455764, 0.7813099828971264, -0.9595861921123181, 0.8317514096652618, -0.9686373043731114, 0.19707363413027035, -0.21657517462767784, 0.786908340991997, -0.23765799736409776, -0.7675711954055993, 0.14543006166423855, 0.10144569598734554, -0.45210945431204697, -0.2533188881487889, 0.48829067418606464, -0.7300801066460265, 0.7722730381250233, 0.624699141428348, -0.169676584876286, -0.30197012150972724, 0.643908022515421, -0.8833891299662942, 0.9358748082354604, 0.2075300864034504, -0.3407846016563625, -0.7285017723038298, -0.4170403080918528, -0.6617175918776044, -0.7138166171082974, 0.7198204556780607, -0.23682448781235266, 0.8243658684161042, 0.07631144002188939, 0.46475165557862974, 0.12474435474920131, -0.7385096926464532, 0.08956037293380148, 0.27747549118144965, 0.8050339212189932, 0.6882768493192355, -0.6971220206297335, -0.7233977767621609, -0.8892061125963433, 0.15345741286254766, -0.9280582440291096, -0.4641836876237222, 0.1676247669795834, -0.7105381239465332, 0.6161503036607137, 0.27252736966317226, -0.5381013809332171, -0.7728291929959106, -0.290214211476884, -0.23513678572532548, -0.25968335632510153, 0.7463183719053965, 0.28766018827359785, 0.2555739913721491, 0.3256870325606862, 0.47876723969787616, -0.48855037685722347, -0.39267422793443285, 0.4874198171977535, 0.5149909702354842, 0.9933100766002303, 0.1141920960720737, 0.9421405961934359, 0.914670069110584, -0.6637397836298047, 0.4965049387371878, -0.993571799292319, 0.8779416585597977, -0.07379381631231463, -0.4777587692391583, 0.4664354186274162, 0.1094141123960799, -0.9271430412707526, -0.23809675691778476, 0.5011843815476418, -0.5205071075865046, -0.5633211675282772, -0.8188374824644455, -0.12921709708006346, 0.10925252555229004, 0.6246383474348589, -0.37589890055685293, 0.47906486924823266, 0.0668955979704764, 0.6701658583441941, 0.1387111823824465, -0.61264104126229,
0.1378041246279622, -0.30422105219045914, 0.120974945295792, 0.28051436300899546, 0.07496116777774864, 0.9301686598533725, 0.3920153603380607, 0.48864623024193055, 0.6983285093632705, -0.3959621494585521, 0.37238032582578584, 0.671699808772253, -0.059711071010472905, 0.8752497059245326, 0.09065632633128362, 0.6005483753770109, -0.26535631136875093, -0.5539227157290807, -0.4192052069268484, 0.8370349626372469, 0.2893517988110499, 0.3328492555117679, -0.7241198205322468, -0.5322198842903307, -0.4405182162982859, -0.8427422312604351, -0.2739796062896207, -0.979795283677219, 0.3224372388158263, 0.4977191311928437, 0.17557344985508871, 0.38529081394558395, 0.13243649668879987, 0.7395687880988131, -0.10483143250998905, 0.3782466803486071, 0.762749700384084, 0.07576379368504926, -0.2559154329681623, 0.6873791883818281, 0.03405912815096124, 0.835154864123939, 0.890567147733514, 0.3931210860212391, -0.31061803100339436, 0.15328213380125577, 0.3574721123456801, -0.016701333715451794, -0.43900024629214074, 0.15103859228973926, -0.9643689334462051, -0.2769325314270108, 0.6619131217391787, 0.24943655624780425, 0.41084967182094845, 0.6014808443602135, -0.6257981596920585, 0.024101822071507684, -0.3335354968555466, 0.2779085978832576, -0.8868058407593082, -0.9089875224958799, -0.9480992170871321, 0.7312587961240515, -0.8481681211404475, 0.9153884948666868, 0.44868859604091393, -0.6779274621616933, -0.5131147582585538, 0.14852999656769894, -0.08108994290471538, 0.6524177728002065, -0.36156504374608, 0.12279134908096734, -0.3129327821677703, -0.1301193564934091, 0.09630611205536144, 0.47277087570552334, 0.48487392555335407, 0.037841105350504556, 0.9266362504689032, -0.7767086038541595, -0.30982963692367305, 0.4013126661144575, -0.6572675650908983, -0.9201752270034911, -0.42927805123972695, -0.8055047648300666, -0.19091445362914028, 0.6532887299550558, 0.8575822803339255, 0.24098987230343805, -0.9131320298229373, 0.33040786795211075,
0.41066647475643503, -0.1143073961979928, -0.571793525941328, -0.32060291340146563, -0.14721398582065492, 0.30682313960630303, 0.2541015814140024, 0.48864623024193055, 0.6983285093632705, 0.46458287089051664, 0.37238032582578584, 0.671699808772253, -0.059711071010472905, 0.8752497059245326, 0.8574404585732758, 0.6005483753770109, -0.26535631136875093, -0.5539227157290807, -0.6031954367384946, 0.8370349626372469, 0.2893517988110499, 0.3328492555117679, -0.7241198205322468, -0.5322198842903307, -0.4405182162982859, -0.8427422312604351, -0.2739796062896207, -0.979795283677219, 0.3224372388158263, 0.4977191311928437, 0.17557344985508871, 0.38529081394558395, 0.21171878395964594, 0.8946089544343039, -0.10483143250998905, 0.3782466803486071, 0.762749700384084, 0.07576379368504926, -0.2559154329681623, 0.6873791883818281, 0.03405912815096124, 0.835154864123939, 0.890567147733514, 0.08806689936099277, -0.31061803100339436, 0.7124041649419275, 0.9663241704211241, 0.0335631753111123, -0.5609535084691084, -0.25765249850360794, 0.2645672430622137, 0.41481818134104964, -0.06809394698240911, -0.9159138302581327, 0.23976519466922563, -0.9094004543412493, 0.5689234908525862, 0.24190117431700253, -0.8981942003173995, -0.03911188575991176, 0.9275430929379604, -0.11113034559801749, -0.47128990093109935, -0.03101591337061671, 0.7702177235051342, -0.8830119599124859, 0.8162350978655082, 0.6270926015885738, -0.4143402127824678, -0.2539028250868467, 0.15840053132032827, -0.8996944694686635, 0.28488701567025854, -0.8393360142632265, 0.19276415307398187, -0.35886974096184043, -0.10632357209023824, 0.5751160542139797, -0.008329299337350271, 0.14282321078478755, 0.061556613695035844, 0.37256502774391387, 0.6353278891547709, -0.737885119823684, 0.9984825220863889, -0.32205498425188117, -0.19695003716201898, 0.9583105930905023, 0.24308279385235076, -0.017811672549586488, 0.5787747782938675, 0.07114314424739687, 0.5685527315807277, 0.48029605279664245,
0.06836914751719725, -0.30422105219045914, 0.120974945295792, 0.28051436300899546, 0.07496116777774864, 0.9301686598533725, 0.3920153603380607, -0.9039961825527709, 0.7487651613651765, -0.5361878895495149, 0.8420677545100881, 0.2464694821247424, -0.11374395776967083, -0.49751494622433134, 0.0026311863968833116, -0.6599063915703092, -0.26814575006087593, -0.6479986422894606, -0.404174948451437, -0.668833606248127, 0.05495508600412524, -0.35091775399944014, 0.06487817473263613, 0.9654857133763197, 0.769803123777548, -0.32528518852114297, 0.3004655777013643, 0.9544922718210895, -0.11838393245620904, 0.6493401706287205, -0.03885516501144881, 0.08104035318163105, -0.760275021834607, 0.800228196731172, 0.25533920424912626, 0.4412096086230095, -0.15831146155357634, -0.6670445099870799, 0.5740807784389248, -0.2605437207510848, 0.28585401612214145, 0.11753495132329195, 0.25786182122382284, -0.42020889912515536, 0.6358546318707419, 0.15328213380125577, 0.3574721123456801, -0.016701333715451794, -0.43900024629214074, 0.15103859228973926, -0.9643689334462051, -0.15263293610731843, 0.6619131217391787, 0.24943655624780425, 0.41084967182094845, -0.05561829391839268, -0.6257981596920585, 0.024101822071507684, -0.3335354968555466, 0.2779085978832576, -0.6163788384074647, -0.9089875224958799, -0.9480992170871321, -0.1325868338136882, -0.8481681211404475, 0.9153884948666868, 0.44868859604091393, -0.6779274621616933, -0.5131147582585538, 0.14852999656769894, -0.08108994290471538, 0.6524177728002065, -0.36156504374608, 0.12279134908096734, -0.6537714282071421, -0.1301193564934091, 0.09630611205536144, 0.47277087570552334, 0.48487392555335407, 0.037841105350504556, -0.23809675691778476, 0.5011843815476418, -0.5205071075865046, -0.5633211675282772, -0.8188374824644455, -0.12921709708006346, 0.10925252555229004, 0.6246383474348589, -0.37589890055685293, 0.47906486924823266, 0.0668955979704764, 0.6701658583441941, 0.1387111823824465, -0.039575718468286114,
0.21198113227353743, -0.7202995945255228, 0.08673549316043783, 0.4132194998304646, -0.03271183414392742, 0.9226206023001611, 0.5156424684086875, 0.9001200734041479, 0.4160281288641392, 0.5144965539972908, -0.9887626847472666, 0.1604890770980052, 0.48560608673148664, -0.808237559596769, 0.23250116886682126, 0.429035854363625, -0.5387206437741341, 0.1793807554175022, -0.7092208562093703, 0.826035648360465, 0.11073258592510515, -0.7930017662292403, -0.08557762909818578, -0.5419701560973065, -0.4439178198596825, -0.3529978194544421, -0.012443572887473442, 0.8839389181387773, 0.5539598923400497, -0.27070653394286537, -0.2749656374603149, 0.484977308181995, 0.05273409575162291, 0.7493439023597552, -0.42368424334039556, -0.8228463628843579, -0.4333491859046308, -0.6385059652178717, 0.23515959602980785, 0.11802732801571292, 0.6205727221295136, -0.6742911552679929, 0.31842459627646, -0.415214291588498, 0.6997877247570563, 0.640285912119622, -0.40046360324846053, -0.9614056592324802, 0.6188948942057604, 0.7888887369712163, -0.7982115222945025, 0.540565167315203, -0.047837658648927306, -0.4810383140261547, -0.9748334299242822, -0.8524224000628773, -0.22873264686828287, -0.20526944864158803, -0.7842431534523131, -0.308422545748434, -0.6476543626724067, 0.9582964063093424, 0.5078512787062575, -0.5661296664271995, -0.2572086352586451, -0.8735278407417146, 0.592645604672674, 0.4863161367533779, 0.11926530103673483, 0.1576514533045612, -0.6865218036735863, 0.6042216119911135, 0.7218844377197762, 0.14213936968806906, -0.7270707962631069, -0.018880382192880463, 0.8155817334921174, -0.6989832142444374, 0.18062178853429467, -0.9864868023225011, -0.39185949741388404, -0.5772511396860585, -0.7098255217753024, -0.3459461610494714, 0.3454235926285858, 0.5233901848164979, 0.721020099421229, 0.9345140153199016, 0.9078322148291433, -0.7146206871357872, 0.7205728395846562, -0.48469605237501323, 0.14804702795485225, 0.011555689582106732,
0.21198113227353743, -0.7202995945255228, 0.08673549316043783, 0.4132194998304646, -0.03271183414392742, 0.9226206023001611, 0.5156424684086875, 0.9001200734041479, 0.4160281288641392, 0.5144965539972908, 0.3345973569667031, 0.1604890770980052, 0.4798950941759972, -0.808237559596769, 0.23250116886682126, 0.429035854363625, -0.5387206437741341, 0.1793807554175022, -0.7092208562093703, 0.826035648360465, 0.8302147350689832, -0.7930017662292403, 0.9652922323646735, -0.5419701560973065, -0.4439178198596825, -0.8793164484879648, -0.012443572887473442, 0.8839389181387773, 0.5539598923400497, 0.020629474856587393, -0.2749656374603149, 0.484977308181995, 0.05273409575162291, 0.7493439023597552, -0.42368424334039556, -0.8228463628843579, -0.4333491859046308, -0.6385059652178717, 0.23515959602980785, -0.13425695984822905, 0.6205727221295136, -0.6742911552679929, 0.31842459627646, -0.415214291588498, 0.6997877247570563, 0.640285912119622, -0.40046360324846053, -0.9614056592324802, 0.6188948942057604, 0.7888887369712163, -0.18305463466581662, 0.540565167315203, -0.047837658648927306, -0.4810383140261547, -0.9748334299242822, -0.8524224000628773, -0.22873264686828287, -0.20526944864158803, -0.7842431534523131, -0.308422545748434, -0.6476543626724067, 0.9582964063093424, 0.5078512787062575, -0.5661296664271995, -0.2572086352586451, -0.8735278407417146, 0.592645604672674, 0.4863161367533779, 0.11926530103673483, 0.1576514533045612, -0.5785641072725078, 0.6042216119911135, 0.7218844377197762, 0.14213936968806906, -0.7270707962631069, 0.6302893704570454, 0.7489238895478942, -0.6989832142444374, 0.18062178853429467, -0.9864868023225011, -0.39185949741388404, -0.06109147587914987, -0.7098255217753024, -0.3459461610494714, 0.3454235926285858, 0.5233901848164979, 0.721020099421229, 0.9345140153199016, 0.9078322148291433, -0.7146206871357872, 0.7205728395846562, -0.48469605237501323, 0.14804702795485225, 0.011555689582106732,
-0.5970824073308121, -0.001874494069156185, -0.4394923112157898, 0.9374345675023057, -0.9039064347961119, -0.04903720718271032, 0.5557680227144479, 0.9787800066741879, -0.39764217949293235, -0.6672865100297332, -0.5711151539835309, -0.3420699393378499, 0.6286044555283195, -0.7339320026959897, 0.9857023689737576, -0.0022453323141160553, 0.9769816205343094, 0.7316724957214653, -0.7386018910281598, -0.1844827921449348, -0.2024236011921301, -0.169676584876286, -0.9190139106766095, 0.643908022515421, -0.8059584831759283, 0.9358748082354604, 0.2075300864034504, -0.3407846016563625, -0.7285017723038298, -0.4170403080918528, -0.6617175918776044, -0.7138166171082974, 0.7198204556780607, -0.23682448781235266, 0.8243658684161042, 0.07631144002188939, 0.46475165557862974, 0.31299603153478395, -0.7385096926464532, 0.08956037293380148, 0.2586400290416637, -0.16132449534183047, 0.6882768493192355, -0.6971220206297335, -0.7233977767621609, 0.24968204908217762, 0.15345741286254766, 0.5665468047013669, -0.4641836876237222, 0.1676247669795834, -0.7105381239465332, 0.6161503036607137, 0.27252736966317226, -0.5381013809332171, -0.7728291929959106, -0.290214211476884, -0.23513678572532548, -0.25968335632510153, -0.30362259306561357, 0.28766018827359785, -0.23963612466389916, 0.6938473027356358, 0.39997726067240347, -0.7035355526089255, -0.15459341385469094, -0.5920838449394084, -0.7402587383367529, -0.4815282103331011, -0.2251653038645196, -0.8522232030164376, -0.038283285516670595, 0.44581186725696376, -0.7587210928773309, 0.1919018740607603, -0.9936162750407613, 0.49748334505930303, -0.15657679434359917, 0.1131637010070401, -0.5838304704158084, -0.4852456988352529, -0.6384623061911718, -0.14068292446687747, -0.12491587731339604, -0.6700236122837995, -0.09451757168498953, 0.6027024002386085, -0.4934788191944115, 0.3511106012833396, 0.673483340798771, 0.4444352968126386, -0.03041299238868378, 0.2833622355269152, 0.9848411985771484, -0.5412605729389233,
-0.3590234396701375, -0.21058912852977651, 0.648184697886359, 0.9090736444587402, 0.21217262504030598, -0.9595861921123181, 0.8317514096652618, -0.9686373043731114, 0.19707363413027035, -0.21657517462767784, 0.786908340991997, -0.23765799736409776, -0.7675711954055993, 0.14543006166423855, 0.10144569598734554, 0.7367090224299324, -0.2533188881487889, 0.48829067418606464, -0.7300801066460265, 0.7722730381250233, 0.021710782749991164, -0.6733850435641808, 0.7609183049534023, 0.358272315361962, -0.15481192615634454, 0.06001489574336394, 0.5806484646667651, -0.570133611252079, 0.11297980268100072, -0.2348764814796025, 0.5302765669974763, -0.9686710306598303, -0.538842787820003, -0.5797683515673595, 0.2273221714756517, -0.844413870315456, -0.48678598530179773, -0.3039266995304848, 0.8028195907714819, 0.30906639528037716, 0.5552352485088135, 0.3853037166103117, 0.3351607868950315, -0.42308965786787023, -0.3942621266570734, 0.02002084689255379, -0.46495108307834854, -0.954859179040942, 0.8639323748973529, -0.05380938735960794, 0.3885724831327444, 0.7422538381875992, -0.5225057936951294, -0.6007743527259195, -0.4004685676594282, 0.7644617546798729, -0.21048780305245285, 0.7128594605414242, -0.04451857720099772, 0.1026983233744394, 0.2555739913721491, 0.3256870325606862, 0.47876723969787616, -0.48855037685722347, -0.39267422793443285, 0.4874198171977535, 0.5149909702354842, 0.9933100766002303, 0.1141920960720737, 0.9421405961934359, -0.04671228376111891, -0.6637397836298047, 0.4965049387371878, -0.993571799292319, 0.8779416585597977, -0.07379381631231463, -0.4777587692391583, 0.4664354186274162, 0.1094141123960799, 0.9983749401722, 0.9266362504689032, -0.7767086038541595, -0.30982963692367305, 0.4013126661144575, -0.6572675650908983, -0.9201752270034911, -0.42927805123972695, -0.8055047648300666, -0.19091445362914028, 0.6532887299550558, 0.8575822803339255, 0.24098987230343805, -0.489212623810066, 0.33040786795211075,
0.04027897539825931, 0.33352866331343556, 0.7129485798777977, -0.5607594321819005, 0.8816198112088112, 0.2243192205987039, -0.18763350955932134, 0.3542260114347371, -0.40715803271829065, -0.3423093646068116, 0.5232607315076492, 0.6472816002469419, 0.026876592319293513, 0.9556994734347155, 0.6722560083550531, -0.9211862850304555, -0.5075042600178576, 0.5486462928181393, 0.17384574347767323, -0.8619336989678725, 0.2278287722263641, -0.15292522854846902, -0.7244602147300145, -0.7637215810742322, 0.1339852391994032, 0.39214999984060794, -0.3009522153912745, 0.8361762546638456, -0.27226818571600786, -0.044165177523560084, 0.7310270779903945, -0.8305277259714021, 0.15153338637992708, 0.9170164973177506, 0.8266877611489798, -0.2805658521910952, -0.904958235199919, -0.09641925332973877, -0.3881858419593984, 0.4834775992230158, 0.4794110488698733, -0.6317738305237615, -0.6964722511271466, -0.018050444066263438, -0.4531648825314796, 0.08074657371645144, 0.5173816088610759, 0.03557646000396941, -0.3987823848347025, -0.11135155242716843, -0.811857685249, 0.5324853445512436, 0.06190090369141443, 0.8768252437617461, 0.9038807875549433, 0.6475096177469908, -0.27910437591460613, -0.7265541214930649, 0.3377598196976177, -0.5655096134430042, 0.13506871310798352, -0.522178813288817, 0.6591703708462711, 0.5790885757761806, -0.06173759575574689, -0.23877857630585875, 0.8156357582706195, -0.4519437853252135, -0.47566581947230824, 0.9281730026931825, -0.600832839184148, 0.3022224884037852, -0.9693796170467379, 0.02597114372781184, 0.4455209735111805, -0.8083353748540822, 0.8423451220434677, -0.5312477420938295, 0.9620724128032019, -0.3855777271297014, 0.9420091318460138, 0.03390553449227807, 0.23978705611794204, -0.704493373335112, -0.6561898305530551, -0.5325428155722955, 0.7130274510042125, -0.47758018757456755, 0.5816617471310086, -0.07079894069289017, 0.9277713936133609, -0.9961610990138028, 0.760393041018111, 0.3149902717941129,
-0.6631155947800071, 0.4900941331296442, 0.8363446921999362, 0.2808775772087979, 0.30314483072572274, 0.10575580813620733, 0.09879470442076088, -0.3204864855523626, 0.28076017237432715, 0.8394060771491416, 0.39034441973397693, -0.3423594667265837, -0.6332028493752031, -0.46148714520145884, -0.9921844166366236, 0.3867553938761472, -0.3570187666544833, -0.8119796669707615, 0.5871062004872836, -0.014897700604290964, 0.6754853168543848, 0.07112637046078385, 0.4499348849037441, 0.4663886630144849, -0.20668647477984425, -0.4820248162927363, 0.745180894888869, -0.7139103219777039, -0.5166473491202388, -0.3101633108850004, -0.8389960122066211, 0.01592178384729226, -0.4982467499039467, -0.909517265950194, 0.6186939421524418, -0.6725470122690749, -0.6947691362807382, -0.9468861066753824, 0.8064645617366129, -0.5712894516944587, 0.8682525481948051, -0.6796720912215493, 0.6711739914653974, 0.45506546855485985, -0.41899780335119163, -0.9837356222535831, -0.9417832133853514, -0.7526693762712298, -0.2049224559192806, 0.8041985051060023, 0.5746011626808534, 0.1472177236231853, 0.512446462536005, 0.8294995777228169, -0.5525117568797311, 0.05955271310525245, 0.14325985794859508, -0.8329918200612321, -0.3397626201815327, -0.7019147836333792, 0.42413637174534213, 0.9235289849439208, 0.9702664582760352, 0.9759826625684529, -0.4329534041311123, 0.890274944404484, -0.4521983248348074, 0.14930673719962306, -0.5000568369002003, 0.6967400266641821, 0.9218575305152599, -0.2715708757003974, -0.3362031812180051, 0.7866182823578396, -0.32044740564267693, 0.029760724835154573, 0.246714627439361, 0.2180274818161061, 0.9371329088277547, -0.07193852015622526, 0.9643324341303174, -0.7155636519639108, 0.9858402277059555, 0.9699870565147002, -0.46331092091866677, -0.7406652726162113, -0.9229632863489121, 0.6308454040528544, 0.8653054002282272, 0.18682700026664056, -0.5913093611028504, 0.05452213429300601, -0.4197930992130099, -0.4280304967201263,
0.06836914751719725, -0.30422105219045914, 0.120974945295792, 0.28051436300899546, -0.08417082451350444, 0.9301686598533725, 0.3920153603380607, 0.48864623024193055, 0.6983285093632705, -0.3959621494585521, 0.37238032582578584, 0.671699808772253, -0.059711071010472905, 0.8752497059245326, 0.8574404585732758, -0.8091796242719609, -0.26535631136875093, -0.5539227157290807, -0.6031954367384946, 0.8370349626372469, 0.2893517988110499, 0.3328492555117679, -0.7241198205322468, -0.5322198842903307, -0.4405182162982859, -0.8427422312604351, -0.2739796062896207, 0.4031603681088298, -0.5967704948515697, -0.22525825072329675, -0.9430782482050333, 0.9600489358241777, -0.8679950293838574, 0.6792278725594423, -0.47678673299685426, -0.4396588023128234, 0.6564275221413163, 0.418309350395651, -0.7864242729346047, -0.054773838518179296, 0.4960510907587685, 0.11097912501812446, 0.9845978178928649, -0.2926939188837019, 0.2574441634969613, -0.405986884333148, -0.9004436648059815, 0.6344696907574121, 0.06311547797683636, 0.17468673616695019, -0.8865826209203611, -0.8874325203598505, -0.4775403176141326, -0.008183821140927972, 0.9126319091288431, 0.055942962865425105, 0.3944639439431019, -0.09262465038950696, -0.24865985597265938, -0.733482326628361, -0.5772929221508858, -0.3464204932381061, -0.8187597601386796, -0.13373570698195225, 0.7521856298640119, -0.45063993394691426, -0.053621223832318377, 0.5045463508717802, 0.36430738282522857, 0.8845870282458985, 0.6771882087724057, 0.4109415783586159, -0.2738415905457052, 0.8348136592815665, 0.5094289986866036, -0.1301193564934091, 0.09630611205536144, -0.33403568388099614, 0.48487392555335407, 0.037841105350504556, -0.23809675691778476, 0.5011843815476418, -0.5923020076076733, -0.5633211675282772, 0.5518739702460713, -0.12921709708006346, 0.10925252555229004, 0.6246383474348589, -0.37589890055685293, 0.47906486924823266, 0.0668955979704764, 0.6701658583441941, 0.1387111823824465, -0.039575718468286114,
-0.5187382003345276, -0.9998301714129305, 0.388489104134504, -0.3401366148956284, -0.8237302617457629, 0.8559652845897694, 0.899823385460754, -0.6162045465101949, 0.7782316470327169, 0.11765173256669148, -0.7339430723618239, -0.5481581238117812, 0.723888111780471, -0.15936405912999385, -0.3110926902642319, -0.8723258855817426, -0.012935728697869964, -0.9082077883149802, 0.3337493514480505, 0.06760060396133483, -0.37604115677920036, 0.8383636295105565, -0.8740738275233875, 0.3649135995798922, -0.6948523306958889, 0.8328900362469922, -0.04100344737438277, -0.979795283677219, 0.3224372388158263, 0.4977191311928437, 0.17557344985508871, 0.38529081394558395, 0.21171878395964594, 0.7395687880988131, -0.10483143250998905, 0.3782466803486071, 0.762749700384084, 0.07576379368504926, -0.2559154329681623, 0.6873791883818281, 0.03405912815096124, 0.835154864123939, 0.890567147733514, 0.3931210860212391, -0.31061803100339436, 0.15328213380125577, 0.3574721123456801, -0.016701333715451794, -0.43900024629214074, 0.15103859228973926, -0.9643689334462051, -0.15263293610731843, 0.6619131217391787, 0.24943655624780425, 0.41084967182094845, 0.6014808443602135, -0.6257981596920585, -0.6418180335860788, -0.3335354968555466, 0.2779085978832576, -0.8868058407593082, -0.9089875224958799, 0.8771139792951133, 0.4064394949695622, -0.7260461028233749, 0.22767729673391468, 0.44868859604091393, -0.6779274621616933, -0.5131147582585538, 0.14852999656769894, -0.08108994290471538, 0.6524177728002065, -0.36156504374608, 0.12279134908096734, -0.3129327821677703, -0.9541926890572141, 0.42241493268050134, -0.10438719087924864, 0.8257090170559227, 0.094987015989904, -0.07696194400111955, -0.8508445325361678, 0.48300584031749993, 0.8616972554513214, 0.837152674673828, -0.01541466065224495, -0.9850019646994097, 0.7277754414875592, 0.013280574199320272, 0.8423236328651644, 0.9566228155744558, 0.28810912300691527, -0.3316389827133006, 0.9287339053573074,
0.04027897539825931, 0.33352866331343556, 0.7129485798777977, -0.5607594321819005, 0.8816198112088112, 0.2243192205987039, -0.18763350955932134, 0.3542260114347371, -0.08946524111693877, -0.46981187278809555, 0.41763129225596196, -0.8417748441678923, 0.24894145799135603, 0.27740805739572005, 0.5082732813764101, 0.43687753771120397, -0.8843025308888497, 0.39875534389271894, 0.3556534075400477, 0.21095887891181775, 0.781038054282192, 0.9461896820747508, -0.13256718582337568, -0.34912634229680406, -0.5339671725725925, 0.1270183424914435, -0.32224558443639384, 0.24770894893686068, -0.24611126924216586, -0.4284274570622786, -0.9197370464242907, 0.6108837685752222, 0.3591237426843321, -0.39635478464199436, 0.756593692570046, -0.09758405948114768, 0.3250331595573297, 0.8159589804232765, -0.020801943020239078, -0.06670645478723713, -0.2726082279782045, -0.5232185934500413, 0.5213288589281888, -0.49864410542798376, 0.0033480277657169655, -0.4073637585628207, 0.4424853606023702, -0.7370170488664092, -0.5704181607264445, 0.9885790007713404, -0.2836754103226835, 0.456280063570206, -0.4729678583052501, 0.8958030603517402, -0.5848554212068118, 0.13133734601261593, -0.907255029430857, -0.40872905029660145, 0.7632308294205545, -0.806467584770221, -0.03904820894912353, 0.22593330798517441, 0.5028039475420518, -0.47126341599384514, 0.8779626376441576, -0.23877857630585875, 0.8156357582706195, -0.4519437853252135, 0.8729567166067838, 0.9281730026931825, 0.9300835938256293, 0.3022224884037852, -0.9693796170467379, 0.02597114372781184, 0.4455209735111805, -0.8083353748540822, 0.8423451220434677, -0.5312477420938295, 0.9620724128032019, -0.3855777271297014, 0.9420091318460138, 0.03390553449227807, 0.23978705611794204, -0.704493373335112, -0.6561898305530551, -0.5325428155722955, -0.9229632863489121, 0.6308454040528544, 0.5816617471310086, -0.07079894069289017, 0.9277713936133609, -0.558804949903281, 0.760393041018111, 0.3149902717941129,
-0.14659076404562987, -0.48045242302239477, -0.08885076602291275, -0.5730391973276765, 0.8412093006042181, -0.4950419439822351, -0.7084836569301352, 0.19840788023828804, -0.8684686223580091, -0.3423093646068116, 0.5232607315076492, 0.6472816002469419, 0.026876592319293513, -0.9606167534297738, 0.6722560083550531, -0.9211862850304555, 0.19219835230415128, 0.5486462928181393, 0.17384574347767323, -0.8619336989678725, 0.2278287722263641, -0.4949794572967081, -0.7244602147300145, 0.13443455599528487, 0.1339852391994032, 0.39214999984060794, -0.3009522153912745, 0.8361762546638456, -0.27226818571600786, -0.044165177523560084, 0.7310270779903945, -0.8305277259714021, 0.15153338637992708, 0.9170164973177506, 0.8266877611489798, -0.2805658521910952, -0.904958235199919, -0.09641925332973877, -0.3881858419593984, 0.4834775992230158, 0.4794110488698733, -0.6317738305237615, -0.6964722511271466, -0.8188734153370438, -0.4531648825314796, 0.08074657371645144, 0.5173816088610759, 0.03557646000396941, -0.3987823848347025, -0.11135155242716843, -0.811857685249, 0.5324853445512436, 0.06190090369141443, -0.22038780768659572, 0.9038807875549433, 0.6475096177469908, -0.27910437591460613, -0.7265541214930649, 0.3377598196976177, -0.5655096134430042, 0.13506871310798352, -0.522178813288817, 0.6591703708462711, 0.5790885757761806, -0.13115874525087934, 0.8296242602624648, -0.18445091660887458, 0.7546753386254326, 0.36490890756582095, -0.47546112473618196, 0.11497436942815709, -0.2694165630238263, -0.5907169418432971, -0.13443339849649005, 0.9096097517711672, 0.8576870959366973, 0.8843946793249895, 0.8808800104736692, 0.6343248744551135, 0.41593527696768895, 0.7867368896628861, -0.2825624050604385, 0.8568088042875406, -0.2922070686543605, 0.6153909020493114, -0.34520033437089515, -0.4114787820458685, -0.38219966286128715, -0.7407549976724255, 0.12352342245624981, 0.564189235417768, -0.653007796908265, 0.416805562577341, -0.4386468454561039,
0.005508973882302204, 0.9575392466746317, 0.388489104134504, -0.3401366148956284, -0.8237302617457629, 0.8559652845897694, 0.899823385460754, -0.6162045465101949, -0.0947664049508361, 0.11765173256669148, 0.8209397413651889, -0.5481581238117812, 0.723888111780471, -0.15936405912999385, -0.3110926902642319, -0.8723258855817426, -0.4236329628949165, -0.9082077883149802, 0.3337493514480505, 0.06760060396133483, -0.37604115677920036, 0.8383636295105565, -0.8740738275233875, 0.3649135995798922, -0.6948523306958889, 0.2859263814155142, -0.04100344737438277, -0.979795283677219, 0.3224372388158263, 0.4977191311928437, -0.6022676162720646, 0.38529081394558395, 0.21171878395964594, 0.7395687880988131, -0.10483143250998905, 0.3782466803486071, 0.762749700384084, 0.07576379368504926, -0.2559154329681623, 0.057173429068978265, 0.03405912815096124, 0.835154864123939, 0.890567147733514, 0.3931210860212391, -0.31061803100339436, 0.15328213380125577, 0.3574721123456801, -0.016701333715451794, 0.7877366071213765, 0.15103859228973926, -0.9643689334462051, -0.15263293610731843, 0.6619131217391787, 0.7591377524711991, 0.41084967182094845, 0.6014808443602135, -0.6257981596920585, 0.024101822071507684, -0.3335354968555466, 0.2779085978832576, 0.5999845882841095, -0.9089875224958799, -0.9480992170871321, 0.4064394949695622, -0.8481681211404475, 0.9153884948666868, 0.44868859604091393, -0.6779274621616933, -0.5131147582585538, 0.0735706437912611, -0.3388837659247239, -0.6260887846833716, 0.7951621550329617, -0.8800482346627789, -0.6090314992995891, 0.5175050196333206, 0.4515927282123853, -0.9933513742312774, -0.7143198441282028, -0.7259059884364696, 0.5790338184504042, 0.3664125513646883, -0.5456670916848831, 0.10912741683253535, 0.9423411107688366, 0.5819661822481952, -0.622168900807067, 0.8381154190538118, 0.3406233574940096, -0.16422862176634911, 0.5679973530779296, 0.28810912300691527, -0.3316389827133006, 0.9287339053573074,
-0.7129761238008339, 0.20010554192703678, -0.11590719478216416, -0.4629063540851739, 0.3283500592748714, 0.04567391407110266, -0.8490304343051596, -0.4039333526808391, -0.9625748440259905, 0.583321016563443, 0.9803138424656639, 0.06852681796453663, 0.9795132334319259, 0.23383298799589491, -0.44277964283453053, 0.7999121232803026, -0.30562573714485297, -0.14862771558151833, 0.5296491744581111, 0.03983211936169684, 0.2679806655174226, 0.910117226480158, 0.31205894386188415, 0.7630809408061807, 0.2729181665045506, 0.3130386930017801, -0.3071676384124602, -0.605279639268198, 0.2731853504465065, 0.11517498639466983, 0.8989045344162141, 0.911502116774159, 0.40096759279085314, -0.8851056574800675, 0.5447369269893012, 0.7071573904286412, 0.7078497097733341, 0.22541396873009334, -0.869337477125298, 0.7565103896709011, -0.33732539027925257, 0.650367080429948, -0.06910453443378795, 0.6536333491513298, 0.057700385906840124, -0.6343309304912033, -0.18350305985384519, 0.39846602961232747, -0.7754739043629846, -0.5627150001023626, -0.01939388128611741, 0.01240904457415759, 0.4651153672763495, 0.5736408144421974, 0.3706735551013052, -0.8166087012280261, -0.9682816760226545, 0.49306221295931096, -0.05939868422500805, -0.27119719335227277, -0.2819904616292095, -0.04710320946507829, -0.07635344908434072, -0.4349250646631384, -0.225931260196653, -0.08344339812721313, 0.3113841854440633, -0.9144204474472928, -0.6630125331465302, 0.14852999656769894, -0.08108994290471538, 0.6524177728002065, -0.49743837005028246, 0.12279134908096734, -0.3129327821677703, -0.9541926890572141, 0.42241493268050134, -0.10438719087924864, 0.8257090170559227, 0.37989798482353376, -0.07696194400111955, -0.8508445325361678, 0.48300584031749993, 0.8616972554513214, 0.837152674673828, -0.01541466065224495, -0.27645624050728146, 0.7277754414875592, 0.013280574199320272, 0.8423236328651644, 0.9566228155744558, -0.685150591747407, 0.3247282174149857, -0.07378254656855221,
-0.5970824073308121, -0.001874494069156185, -0.4394923112157898, 0.9374345675023057, -0.9039064347961119, -0.23501723070030245, 0.5557680227144479, 0.9787800066741879, -0.04857771791644416, -0.6672865100297332, -0.5711151539835309, 0.6472816002469419, 0.026876592319293513, -0.30259350418745745, 0.6722560083550531, -0.9211862850304555, -0.5075042600178576, 0.5486462928181393, 0.17384574347767323, -0.8619336989678725, 0.2278287722263641, -0.15292522854846902, -0.7244602147300145, -0.7637215810742322, 0.1339852391994032, 0.39214999984060794, -0.3009522153912745, 0.8361762546638456, -0.27226818571600786, -0.044165177523560084, 0.7310270779903945, -0.8305277259714021, 0.15153338637992708, 0.9170164973177506, 0.8266877611489798, -0.2805658521910952, 0.5263275116841362, -0.3039266995304848, 0.8028195907714819, 0.30906639528037716, 0.5552352485088135, 0.3853037166103117, 0.3351607868950315, -0.42308965786787023, -0.3942621266570734, -0.20444567016365234, 0.42011645633515116, 0.7475113604853076, 0.7620870200398897, -0.05380938735960794, 0.3885724831327444, 0.7422538381875992, -0.5225057936951294, -0.6007743527259195, -0.4004685676594282, 0.7644617546798729, 0.08384441473071158, 0.7128594605414242, 0.8479601529705503, 0.1026983233744394, -0.23963612466389916, 0.6938473027356358, 0.39997726067240347, -0.7035355526089255, -0.15459341385469094, -0.5920838449394084, -0.7402587383367529, -0.4815282103331011, 0.8984028066120835, -0.8522232030164376, -0.038283285516670595, 0.44581186725696376, -0.7587210928773309, -0.8389891683262112, 0.4692545270657502, -0.5586450617341592, -0.15657679434359917, 0.1131637010070401, 0.37177439050539096, -0.4852456988352529, -0.1293592858011965, -0.14068292446687747, -0.12491587731339604, -0.6700236122837995, -0.09451757168498953, 0.6027024002386085, -0.4934788191944115, 0.3511106012833396, 0.673483340798771, 0.4444352968126386, -0.03041299238868378, 0.2833622355269152, 0.759543472472126, -0.5412605729389233,
0.3505548507041072, -0.48045242302239477, 0.015415869862145826, -0.6014576603049875, 0.8412093006042181, -0.4950419439822351, -0.7084836569301352, 0.19840788023828804, -0.8684686223580091, -0.3423093646068116, 0.5232607315076492, -0.3420699393378499, 0.8487938120169136, -0.7339320026959897, 0.9857023689737576, -0.0022453323141160553, 0.9769816205343094, 0.7316724957214653, -0.7386018910281598, -0.1844827921449348, -0.2024236011921301, -0.6733850435641808, 0.7609183049534023, 0.358272315361962, 0.2562133065672494, 0.06001489574336394, 0.5806484646667651, -0.570133611252079, 0.11297980268100072, -0.2348764814796025, 0.5302765669974763, -0.9686710306598303, -0.538842787820003, -0.5797683515673595, 0.2273221714756517, -0.844413870315456, -0.48678598530179773, -0.09641925332973877, -0.3881858419593984, 0.4834775992230158, 0.4794110488698733, -0.6317738305237615, -0.6964722511271466, -0.8188734153370438, -0.4531648825314796, 0.08074657371645144, 0.5173816088610759, 0.03557646000396941, -0.3987823848347025, 0.65526920998409, -0.5577772596369632, 0.5324853445512436, 0.06190090369141443, -0.22038780768659572, 0.9038807875549433, 0.6475096177469908, -0.27910437591460613, -0.7265541214930649, 0.3377598196976177, -0.5655096134430042, 0.13506871310798352, -0.522178813288817, 0.6591703708462711, 0.5790885757761806, 0.3108240806262361, 0.8296242602624648, -0.18445091660887458, 0.7546753386254326, 0.36490890756582095, -0.7302576374662715, 0.11497436942815709, -0.2694165630238263, -0.5045047862682612, -0.13443339849649005, -0.2908346489676481, 0.8576870959366973, -0.47002683765724296, 0.03239465117413309, 0.6343248744551135, 0.41593527696768895, 0.7867368896628861, -0.2825624050604385, 0.8568088042875406, -0.2922070686543605, 0.6153909020493114, -0.014712372403014706, -0.4114787820458685, 0.7177477627388484, 0.04114395564315365, 0.12352342245624981, 0.564189235417768, -0.653007796908265, 0.0947816838622515, -0.4386468454561039,
0.06836914751719725, -0.30422105219045914, 0.120974945295792, 0.28051436300899546, 0.07496116777774864, 0.9301686598533725, 0.3920153603380607, -0.9039961825527709, 0.7487651613651765, -0.5361878895495149, 0.8420677545100881, 0.2464694821247424, 0.0061905907908281765, -0.49751494622433134, 0.0026311863968833116, -0.6599063915703092, -0.26814575006087593, -0.6479986422894606, -0.404174948451437, -0.668833606248127, 0.05495508600412524, -0.35091775399944014, -0.5261568020647278, 0.9654857133763197, 0.769803123777548, -0.32528518852114297, -0.3278533707894853, 0.9544922718210895, -0.11838393245620904, 0.6493401706287205, 0.02704484877707114, 0.08104035318163105, -0.760275021834607, 0.726674963712477, 0.25533920424912626, 0.4412096086230095, -0.15831146155357634, -0.6670445099870799, 0.5740807784389248, 0.5714752036268391, 0.28585401612214145, 0.11753495132329195, 0.25786182122382284, -0.42020889912515536, 0.6358546318707419, 0.15328213380125577, 0.3574721123456801, -0.016701333715451794, -0.43900024629214074, 0.15103859228973926, -0.9643689334462051, -0.15263293610731843, 0.6619131217391787, 0.24943655624780425, 0.41084967182094845, 0.6014808443602135, -0.6257981596920585, 0.024101822071507684, -0.3335354968555466, 0.2779085978832576, -0.1620273627046771, 0.5387754628646797, 0.09201133558777985, -0.9799475495610344, -0.8223936008448203, 0.9153884948666868, 0.44868859604091393, -0.6779274621616933, -0.5131147582585538, 0.14852999656769894, -0.08108994290471538, 0.6524177728002065, -0.36156504374608, 0.12279134908096734, -0.3129327821677703, -0.1301193564934091, 0.09630611205536144, 0.47277087570552334, 0.48487392555335407, 0.037841105350504556, -0.23809675691778476, 0.5011843815476418, -0.5205071075865046, -0.5633211675282772, -0.8112422742663756, -0.12921709708006346, 0.10925252555229004, 0.6246383474348589, -0.37589890055685293, 0.6515421045193559, 0.0668955979704764, 0.6701658583441941, 0.1387111823824465, -0.41131024196679133,
-0.8569112544400128, -0.3712342629207914, 0.666422284773704, -0.14293130128901077, -0.7321656244619223, -0.037504129847941936, -0.8900836232841165, 0.20965503171241595, -0.5594069038548204, -0.47833903201934147, -0.6065929789499063, -0.8308670631290109, 0.6763831700808975, 0.08651354007257006, -0.15212248933279016, -0.6682835992128899, -0.17525826662790567, -0.7763699265197561, -0.6302170745306424, 0.8064081677952966, -0.20032624997051074, -0.18258469117680032, 0.8340460698074461, -0.42034823995526804, 0.24908034994245165, 0.6674606150202091, 0.11749029250838805, 0.7130409481563351, 0.7195112950928184, -0.0011905645154386413, -0.9115856465712824, -0.0011487025872627399, 0.31814291379381565, -0.08618993104613248, -0.17886927176380585, -0.6226703917050322, 0.21121579344252495, -0.02045255797939416, 0.06582480605092478, 0.9857813432145841, 0.3155398913464178, 0.9643435215493783, 0.19176952299971473, -0.7795005574668101, 0.21440530593440976, -0.1624496406780156, -0.24831592560475002, 0.4826906208694879, 0.5916295263608855, 0.8580629106997106, -0.6743994417906978, 0.9914756017547968, 0.7117606044407339, -0.9395423726931571, -0.6288981984201707, 0.05950315403682671, 0.2712707692054057, 0.3170339933329309, 0.14637622999564104, -0.6583758673107329, -0.8868058407593082, -0.9089875224958799, -0.9480992170871321, 0.4064394949695622, -0.8481681211404475, 0.5198177212872246, 0.21431917517812082, 0.24155090540678992, -0.9038221027728495, 0.08241809577065728, 0.303479688702609, -0.6557162465677839, -0.17594358062791748, 0.8508557954222848, -0.7470797383626244, -0.12047536027810613, -0.03775094201748508, -0.08566596007865668, 0.5686157980145536, -0.22870196085436723, -0.20277334183294093, 0.8830957844635456, 0.7917589898214346, 0.6074239166757005, 0.45885181229961125, 0.3986041023838034, -0.9944841783404841, 0.018325034825102282, 0.843963474066318, -0.9722187079177638, -0.1436522906173925, 0.37534766055702495, -0.3004501948698177, -0.3470613300316112,
0.7759531886576867, 0.6077917696112747, -0.8296307130861706, 0.45922279932679655, -0.9877497606358929, 0.6242849187816826, 0.6648543819839088, 0.19378204730662185, 0.6972389588214452, 0.7224340424013027, 0.7990631125860415, 0.7919375365100243, 0.9745228879815375, 0.9148232548969133, 0.8877937002154865, -0.4945746485178806, 0.3045047345878229, 0.16806219646743137, -0.6031954367384946, 0.8370349626372469, 0.2893517988110499, 0.3328492555117679, -0.7241198205322468, -0.5322198842903307, -0.4405182162982859, 0.007189915966732574, -0.2739796062896207, 0.4031603681088298, -0.8226280439011602, -0.22525825072329675, -0.5429143403249843, 0.9600489358241777, 0.7014500504612677, 0.6792278725594423, -0.47678673299685426, -0.4396588023128234, 0.5768880972037558, -0.6518602669217963, -0.7864242729346047, -0.054773838518179296, 0.4960510907587685, 0.9643435215493783, 0.8962795272825144, -0.7795005574668101, 0.21440530593440976, 0.6143514862006103, -0.7908883915914116, 0.07551245597830447, 0.7967382668993652, 0.8797295947544059, -0.6483210533600334, 0.3912700076443101, -0.12189116364368746, 0.7752694589956428, 0.5718360666968787, 0.3280229458190633, -0.3655379586136931, 0.14824556758250806, 0.21122954420977158, 0.37279803680727674, 0.06420887346283144, -0.9733581717377036, 0.6048406295455662, -0.5037200454750166, 0.891580921469689, 0.9338036323685075, 0.5029982491805405, -0.3111360017394671, 0.33391648125899764, 0.5809523616980641, -0.5018985957660633, 0.05845142999916364, 0.9778123193948036, 0.686891728079426, 0.4168051810001254, 0.8733637389267235, 0.6438410008590376, -0.6753751731465809, -0.0705595822284264, 0.5445628097140707, -0.4332007925077881, -0.9591256906728061, -0.27080754301209575, 0.36716883629969455, 0.4782171201503418, -0.7971712430871178, -0.42833871009138824, -0.9554238037919875, -0.749873084890498, -0.650961351616923, -0.8833426989237763, -0.4935827372221151, 0.643851240478319, -0.04347810349173287,
0.06836914751719725, -0.30422105219045914, 0.120974945295792, 0.28051436300899546, 0.07496116777774864, 0.9301686598533725, 0.48761217763621234, 0.48864623024193055, 0.6983285093632705, -0.3959621494585521, 0.37238032582578584, 0.671699808772253, -0.059711071010472905, -0.3585218157977519, -0.6446717912338942, -0.685888470445938, -0.26535631136875093, -0.5539227157290807, 0.6320345169842909, 0.8064081677952966, -0.20032624997051074, -0.18258469117680032, 0.8340460698074461, -0.42034823995526804, 0.24908034994245165, 0.6674606150202091, 0.11749029250838805, 0.7130409481563351, 0.7195112950928184, -0.0011905645154386413, -0.9115856465712824, -0.8471039671665967, 0.31814291379381565, -0.08618993104613248, -0.17886927176380585, -0.6226703917050322, -0.11388631673714489, -0.02045255797939416, 0.06582480605092478, 0.9857813432145841, -0.47250032337517167, 0.11097912501812446, 0.9845978178928649, -0.2926939188837019, 0.2574441634969613, -0.405986884333148, -0.9004436648059815, 0.6344696907574121, -0.568703479076015, 0.17468673616695019, -0.8865826209203611, -0.8874325203598505, -0.4775403176141326, -0.008183821140927972, 0.7329016639617931, 0.055942962865425105, 0.3944639439431019, -0.09262465038950696, -0.24865985597265938, -0.733482326628361, -0.5772929221508858, -0.3464204932381061, 0.10411331537175195, -0.13373570698195225, 0.7521856298640119, -0.45063993394691426, -0.053621223832318377, 0.5045463508717802, 0.36430738282522857, 0.6332154167800139, 0.6771882087724057, 0.4109415783586159, -0.2738415905457052, 0.08021603039220171, 0.31500597611447323, -0.1301193564934091, 0.09630611205536144, 0.47277087570552334, 0.48487392555335407, 0.037841105350504556, -0.23809675691778476, 0.5011843815476418, -0.5205071075865046, -0.5633211675282772, -0.8188374824644455, -0.12921709708006346, 0.10925252555229004, 0.6246383474348589, -0.37589890055685293, 0.47906486924823266, 0.0668955979704764, 0.6701658583441941, 0.1387111823824465, -0.039575718468286114,
0.04027897539825931, 0.6911117210593845, 0.7129485798777977, -0.5607594321819005, 0.8816198112088112, 0.2243192205987039, -0.18763350955932134, 0.3542260114347371, -0.4259382479428391, -0.46981187278809555, 0.41763129225596196, 0.004694269463953127, 0.24894145799135603, 0.8155447761044374, 0.5082732813764101, 0.43687753771120397, -0.8843025308888497, 0.39875534389271894, 0.3556534075400477, 0.21095887891181775, 0.781038054282192, 0.9461896820747508, -0.6580927851520528, 0.10597783667632044, -0.5339671725725925, 0.77219719316497, 0.8196997360062648, -0.21505763311816883, -0.24611126924216586, -0.4284274570622786, -0.9197370464242907, 0.6108837685752222, 0.3591237426843321, -0.39635478464199436, 0.2171164139259687, -0.09758405948114768, 0.3250331595573297, 0.8159589804232765, -0.020801943020239078, -0.06670645478723713, -0.2726082279782045, -0.9154466831163004, 0.5213288589281888, -0.49864410542798376, 0.0033480277657169655, -0.4073637585628207, 0.4424853606023702, -0.7370170488664092, 0.8779844162313588, 0.9885790007713404, 0.05820378683103744, 0.456280063570206, -0.047837658648927306, -0.4534809181634254, -0.9748334299242822, -0.8524224000628773, -0.907255029430857, -0.40872905029660145, 0.7632308294205545, -0.806467584770221, -0.03904820894912353, 0.22593330798517441, 0.5028039475420518, -0.47126341599384514, -0.06173759575574689, -0.23877857630585875, 0.8156357582706195, -0.4519437853252135, -0.47566581947230824, 0.9281730026931825, -0.600832839184148, 0.3022224884037852, -0.9693796170467379, 0.02597114372781184, 0.4455209735111805, 0.5618256437768381, 0.8423451220434677, 0.31326903826038, 0.9620724128032019, -0.3855777271297014, 0.9420091318460138, 0.03390553449227807, 0.23978705611794204, -0.704493373335112, -0.6561898305530551, -0.8289259280683545, -0.9229632863489121, 0.6308454040528544, 0.5816617471310086, -0.702965881250545, 0.9277713936133609, -0.558804949903281, 0.760393041018111, 0.3149902717941129,
0.21198113227353743, -0.03315201172562632, 0.08673549316043783, 0.4132194998304646, -0.03271183414392742, 0.9226206023001611, 0.5156424684086875, 0.9001200734041479, 0.4160281288641392, 0.5144965539972908, 0.3345973569667031, 0.1604890770980052, 0.7172626147840822, -0.808237559596769, 0.23250116886682126, 0.429035854363625, -0.5387206437741341, 0.1793807554175022, -0.7092208562093703, 0.826035648360465, 0.1733598381320467, -0.7930017662292403, -0.08557762909818578, -0.5419701560973065, 0.53646671923814, -0.8793164484879648, -0.012443572887473442, 0.8839389181387773, 0.5539598923400497, -0.5178586491213764, -0.2749656374603149, 0.484977308181995, 0.05273409575162291, 0.7493439023597552, -0.42368424334039556, -0.8228463628843579, 0.4874180826660046, -0.6385059652178717, -0.5375078958680195, 0.11802732801571292, 0.6205727221295136, -0.6742911552679929, 0.31842459627646, -0.415214291588498, 0.6997877247570563, 0.640285912119622, -0.40046360324846053, -0.9614056592324802, 0.6188948942057604, 0.7888887369712163, -0.18305463466581662, 0.540565167315203, -0.4729678583052501, 0.8958030603517402, -0.5848554212068118, 0.13133734601261593, -0.22873264686828287, -0.20526944864158803, -0.7842431534523131, -0.308422545748434, -0.6476543626724067, 0.9582964063093424, 0.5078512787062575, -0.5661296664271995, -0.2572086352586451, -0.8735278407417146, 0.592645604672674, 0.29828088793612295, 0.11926530103673483, 0.1576514533045612, -0.6865218036735863, 0.6042216119911135, 0.7218844377197762, 0.14213936968806906, -0.7270707962631069, -0.018880382192880463, 0.8155817334921174, -0.6989832142444374, 0.18062178853429467, -0.9864868023225011, -0.39185949741388404, -0.5772511396860585, -0.7098255217753024, -0.3459461610494714, 0.3454235926285858, 0.5233901848164979, 0.721020099421229, 0.9345140153199016, 0.9078322148291433, -0.7146206871357872, 0.7205728395846562, -0.48469605237501323, 0.14804702795485225, 0.011555689582106732,
-0.3590234396701375, -0.30422105219045914, -0.7438256443228897, 0.28051436300899546, 0.07496116777774864, 0.9301686598533725, 0.3920153603380607, 0.48864623024193055, 0.6983285093632705, -0.3959621494585521, 0.37238032582578584, 0.671699808772253, -0.059711071010472905, -0.5271124682518822, 0.8574404585732758, -0.006036929089916709, -0.26535631136875093, 0.42620452573504175, -0.6031954367384946, 0.8370349626372469, 0.2893517988110499, 0.3328492555117679, -0.7241198205322468, -0.5322198842903307, -0.4405182162982859, -0.8427422312604351, -0.2739796062896207, -0.979795283677219, 0.3224372388158263, 0.4977191311928437, 0.17557344985508871, 0.38529081394558395, 0.21171878395964594, 0.07990362204547785, -0.10483143250998905, 0.6726687425596556, 0.762749700384084, 0.07576379368504926, -0.2559154329681623, 0.6873791883818281, 0.03405912815096124, 0.835154864123939, 0.890567147733514, 0.3931210860212391, -0.31061803100339436, 0.15328213380125577, 0.3574721123456801, -0.016701333715451794, -0.43900024629214074, 0.6573039247810877, -0.9643689334462051, -0.15263293610731843, 0.9238909316275776, 0.24943655624780425, 0.41084967182094845, 0.6014808443602135, -0.6257981596920585, 0.024101822071507684, -0.3335354968555466, 0.2779085978832576, -0.8868058407593082, -0.9089875224958799, -0.9480992170871321, 0.8880932851364485, -0.8481681211404475, 0.9153884948666868, 0.44868859604091393, -0.6779274621616933, -0.5131147582585538, 0.14852999656769894, -0.08108994290471538, 0.6524177728002065, -0.36156504374608, 0.12279134908096734, -0.3129327821677703, -0.1301193564934091, 0.09630611205536144, 0.47277087570552334, 0.48487392555335407, 0.037841105350504556, 0.9266362504689032, -0.7767086038541595, -0.30982963692367305, 0.4013126661144575, -0.6572675650908983, -0.9201752270034911, -0.42927805123972695, -0.8055047648300666, -0.19091445362914028, 0.6532887299550558, 0.8575822803339255, 0.24098987230343805, -0.9131320298229373, 0.33040786795211075,
0.06836914751719725, -0.30422105219045914, 0.120974945295792, 0.28051436300899546, 0.07496116777774864, 0.9301686598533725, 0.3920153603380607, 0.48864623024193055, 0.6983285093632705, -0.3959621494585521, 0.37238032582578584, 0.671699808772253, -0.059711071010472905, 0.8752497059245326, -0.24923321577460733, 0.6005483753770109, -0.26535631136875093, -0.5539227157290807, -0.6031954367384946, 0.3680137234032568, 0.050310117631035656, 0.722674960138006, -0.7241198205322468, -0.5322198842903307, -0.4405182162982859, -0.8427422312604351, 0.5970504412658353, -0.979795283677219, 0.3224372388158263, 0.4977191311928437, 0.17557344985508871, 0.38529081394558395, 0.21171878395964594, 0.7395687880988131, -0.10483143250998905, 0.3782466803486071, 0.762749700384084, -0.6074057436303235, -0.2559154329681623, 0.6873791883818281, 0.09756084919146946, 0.835154864123939, 0.890567147733514, 0.3931210860212391, -0.31061803100339436, 0.15328213380125577, 0.3574721123456801, -0.016701333715451794, -0.43900024629214074, 0.15103859228973926, -0.9643689334462051, -0.15263293610731843, 0.038177418271170716, 0.24943655624780425, 0.41084967182094845, 0.6014808443602135, -0.6257981596920585, 0.024101822071507684, -0.3335354968555466, 0.2779085978832576, -0.8868058407593082, -0.9089875224958799, -0.9480992170871321, 0.4064394949695622, -0.8481681211404475, 0.6137233769583661, 0.44868859604091393, -0.6779274621616933, -0.5131147582585538, 0.14852999656769894, -0.08108994290471538, 0.6524177728002065, -0.36156504374608, 0.12279134908096734, -0.3129327821677703, -0.1301193564934091, 0.09630611205536144, 0.47277087570552334, -0.7149871209019389, 0.037841105350504556, -0.23809675691778476, 0.5011843815476418, -0.5205071075865046, -0.5633211675282772, -0.8188374824644455, -0.12921709708006346, 0.10925252555229004, 0.6246383474348589, -0.37589890055685293, 0.47906486924823266, 0.0668955979704764, 0.6701658583441941, 0.1387111823824465, 0.27839420137049076,
0.06836914751719725, -0.30422105219045914, 0.120974945295792, 0.28051436300899546, -0.6367989465252928, 0.9301686598533725, 0.3920153603380607, 0.48864623024193055, 0.6983285093632705, 0.2663264708583628, 0.37238032582578584, 0.671699808772253, -0.059711071010472905, 0.8752497059245326, 0.8574404585732758, 0.6005483753770109, -0.26535631136875093, -0.5539227157290807, 0.4035561120887019, 0.8370349626372469, 0.2893517988110499, 0.3328492555117679, -0.7241198205322468, -0.5322198842903307, -0.4405182162982859, -0.8427422312604351, -0.2739796062896207, -0.979795283677219, 0.7995503268921116, 0.4977191311928437, 0.17557344985508871, -0.9240189315794136, 0.21171878395964594, 0.7395687880988131, 0.9026327414688329, 0.3782466803486071, 0.762749700384084, 0.07576379368504926, -0.2559154329681623, 0.6873791883818281, 0.03405912815096124, 0.835154864123939, 0.890567147733514, 0.3931210860212391, -0.31061803100339436, 0.08074657371645144, 0.5173816088610759, 0.03557646000396941, -0.7386885511648955, -0.11135155242716843, -0.811857685249, 0.5324853445512436, 0.06190090369141443, -0.22038780768659572, 0.9038807875549433, 0.6475096177469908, -0.27910437591460613, -0.7265541214930649, 0.3377598196976177, -0.5655096134430042, 0.13506871310798352, -0.522178813288817, 0.6591703708462711, 0.5790885757761806, -0.06173759575574689, -0.23877857630585875, 0.8156357582706195, -0.4519437853252135, -0.47566581947230824, 0.9281730026931825, -0.038722651433258815, -0.5521619665447639, -0.9693796170467379, 0.02597114372781184, 0.4455209735111805, -0.8083353748540822, 0.7388694381906733, -0.5312477420938295, 0.9620724128032019, -0.3855777271297014, 0.9420091318460138, 0.03390553449227807, 0.23978705611794204, -0.704493373335112, -0.6561898305530551, -0.5325428155722955, 0.7130274510042125, -0.22718275565798685, 0.5816617471310086, -0.07079894069289017, 0.9277713936133609, -0.558804949903281, 0.760393041018111, -0.039575718468286114,
