0.27934025038980836, 0.10421705765820266, -0.7188316395862553, 0.3798864256854255, 0.6987951661398508, 0.5118016484751273, 0.32775881536957185, 0.603379722589388, -0.47478170946623766, 0.6448773010346833, -0.3999960481527052, -0.7626609075105577, 0.8514682738244321, -0.554243831437806, 0.7136058142299306, -0.35683726002018323, 0.7556017188931561, 0.08082997070096365, 0.40445158536104064, -0.5008105306367057, -0.6756929800807421, 0.7580083835537736, -0.16712221952745732, 0.6378143424197527, -0.638156230737507, 0.6103801082267586, -0.49690985510629937, -0.7737906351334949, 0.13667966123699204, -0.05973538787703969, 0.5676851700141898, 0.10182171294937592, 0.14369909133400283, -0.5986820931839811, 0.12610670247705902, 0.9467822603824572, 0.2521661437606608, -0.2551687470769808, -0.49625365757989415, -0.8189617153855155, 0.31068660225684486, -0.8707439756212989, -0.2807310109099024, 0.6485958315984386, 0.7615257623853828, 0.06094513241644628, 0.347121389189885, -0.6570900622459757, -0.8132923004832744, 0.3875966105354778, -0.6823879927882481, -0.8534497247688515, 0.00308178150212024, 0.6688208639555835, -0.02669273485474899, -0.2643888211852996, 0.24547382068735257, -0.35084930462577946, -0.011010515814283472, 0.35068192856781133, 0.905560528646637, 0.8070052559500573, 0.6575690004765611, -0.8091380464129958, 0.3711128142421398, -0.7782595393727618, 0.5722545892517943, 0.602464368013913, 0.8906788293616124, 0.3264796402702923, 0.2768589838088438, -0.6907499233082592, 0.6379740363589503, -0.39000663819698445, 0.9540038160719038, 0.3424336393326728, 0.5027416470329089, -0.8388888578926952, 0.5623954584952455, 0.9313623982298012, 0.9366365545737012, 0.9717675360938418, 0.20687466358668338, 0.8309258755518678, 0.2725925651922594, 0.6065699183041311, -0.8289947432810254, -0.7148572005935208, 0.03581413452159721, 0.9711042947834705, -0.17078839082547725, -0.49438637075205993, -0.9410166660570698, 0.466324920718844, 0.10637895099068229, 0.3864338510008971, 0.09687345874263542, 0.47042248372117657, 0.5316244476079395, -0.224316253298239, -0.6847726314495541, 0.47631937360504173, -0.6535181775453331, -0.3709024298700494, -0.5336737685639588, -0.05879447190345055, 0.15579141685731734, 0.1512342730250935, 0.5292610110520346, -0.6273055104726026, 0.710006383402227, 0.4928259037538232, -0.17378100034047295, 0.6406851367707878, 0.9308863490450363, 0.5334588986815831, -0.25388856553563666, -0.2007467736221613, -0.49125612641983896, -0.14135587976153907, -0.20259454795660825, 0.7135251283759969, 0.32190431945458653, -0.6788508430022384, 0.24877424307501728, -0.9699851797189663, -0.1574545649602488, -0.48208811053326706, 0.2750590983020671, 0.6580807918309393, -0.15447292996718853, -0.8943333682041907, 0.30799927227726376, 0.10454641915190854, -0.573747217759571, 0.27074696630935513, 0.6361835735296675, 0.8066381804681162, -0.4799167091060368, 0.5115408283081924, 0.8785878306301764, -0.733917110794235, -0.9202067898503337, -0.7013755677614184, -0.18153575290711976, 0.94114951825057, 0.547436959313583, -0.7963246330668683, -0.7623646417413015, -0.2533191878514136, 0.7676713499804755, -0.8762691427725753, -0.3790047761432984, -0.6248422612495912, -0.9758242367885372, -0.8876149574440493, -0.16300691402951406, 0.5323558865806064, -0.773295799918295, -0.11350031958065032, 0.16894695219466382, 0.2925248291591396, 0.7684146105192386, 0.37017735000488416, 0.5274958514750094, 0.25459590888733086, -0.8478714799714269, -0.5048245547768049, -0.13503086510076812, 0.4035648779254939, -0.9077204901641482, -0.941756627827492, -0.6596984328853275, 0.296805592840901, -0.1814848369359392, 0.900950346526523, -0.2340611492482536, 0.8394954059664517, -0.1879362340930708,
0.27934025038980836, 0.5691351260480151, -0.007860630040343208, 0.3798864256854255, 0.6987951661398508, 0.6114036607751401, 0.2785528848083554, -0.45097307773693496, -0.47478170946623766, 0.6448773010346833, -0.3999960481527052, -0.7626609075105577, -0.773079775161486, -0.554243831437806, -0.47514538591680244, 0.8627016362227888, 0.7578585522821786, 0.08082997070096365, 0.40445158536104064, -0.5008105306367057, -0.6756929800807421, 0.7580083835537736, -0.16712221952745732, -0.21108327894421186, 0.2803882929194419, -0.023998773345041302, -0.49690985510629937, 0.9086964219287252, 0.13667966123699204, 0.22590816447435347, 0.5676851700141898, 0.10182171294937592, 0.14369909133400283, 0.24896936800237457, 0.12610670247705902, 0.9467822603824572, -0.890683966535567, 0.6035317205658508, -0.49625365757989415, -0.8189617153855155, 0.31068660225684486, 0.4569010249894334, -0.2807310109099024, 0.6485958315984386, 0.7615257623853828, -0.05511430951209273, -0.5241398969788449, -0.6570900622459757, -0.8411420259835061, 0.6600701205538517, -0.7617159603392969, -0.29187028818825067, 0.00308178150212024, 0.6688208639555835, 0.8596287403254144, -0.9403274043473644, 0.961853988520567, -0.35084930462577946, -0.011010515814283472, -0.18616723740220298, 0.08948402270450773, 0.14478395050050286, 0.6575690004765611, 0.6240042563822705, -0.26672119586973597, -0.7384319080877424, 0.5722545892517943, 0.15262891044514304, 0.30098747808461734, 0.3264796402702923, 0.2768589838088438, -0.6907499233082592, 0.6379740363589503, 0.308691019196744, -0.49673176391376517, -0.07871796495016392, 0.8325005912212189, -0.40111156435871864, 0.10139375054590127, 0.6442384702859061, -0.5147507022435709, -0.8743443632011829, -0.2918223612585322, 0.5581206032248685, -0.44488463767226816, -0.6154544646017637, -0.7076820258836556, 0.8183454182835852, 0.6441180132128943, 0.9711042947834705, -0.34259325561154386, -0.49438637075205993, -0.2128684034510573, -0.497724331416032, 0.5953727960934583, 0.6019646941330332, 0.03445696493191863, -0.6232127823041631, 0.5316244476079395, 0.9640576284187234, -0.5212923750240899, 0.8446599090013822, -0.2102422709548386, -0.38374280806323813, -0.5336737685639588, 0.7560538760489006, 0.15579141685731734, -0.21644747781778784, 0.5292610110520346, -0.7259148740035144, -0.07956622896050347, 0.4928259037538232, 0.16501519203725556, -0.9479068504569723, 0.45706300218765894, -0.29015470262434295, -0.5532021152663322, 0.8363229110220505, -0.4087662447917093, 0.08709208546652403, 0.7205597953053484, 0.5573588877926545, 0.42753607352954837, 0.6814277925741679, 0.31157717095408355, -0.8692036185733869, -0.11845197678352792, -0.9652020747014123, 0.5147164118929808, 0.9959938117604197, 0.9185422987433851, 0.5013378525132963, 0.3227589099376753, 0.13398280752551361, -0.47479334465844336, -0.3012044883155536, 0.6361835735296675, 0.8066381804681162, -0.4799167091060368, 0.5115408283081924, -0.6648350694475265, -0.733917110794235, -0.940476899964048, 0.401962920924932, -0.7087048566975451, 0.4735827501980967, -0.600810779389229, 0.5215318848218724, 0.180065538291047, 0.863329615870212, -0.984334706009218, 0.8871850654823721, 0.6720446610585404, -0.3396434219444342, 0.974616344612584, -0.4050372571816794, 0.028890820957665264, 0.6557884540606607, 0.7284976498728992, 0.3088518926753132, 0.49856082906943233, 0.721802425009161, 0.38861058435341667, 0.7933587830915296, 0.47004641222152266, 0.6344215048017219, -0.9912819069676184, 0.2848813502345813, -0.930835235799651, -0.3968165097072798, -0.5109404209718651, -0.9424338254309053, -0.23900530467957393, -0.04938514197240873, -0.8547431354121096, 0.15548513482087167, -0.5919941344301636, -0.9018943801877741, -0.39158228955006313,
0.4079482381939865, 0.07532874284475244, 0.2214635008303425, 0.604434284984759, 0.46979044693973093, -0.7977081842913731, 0.6117615132005176, 0.603379722589388, -0.05311661032743853, 0.08643095589328853, 0.8861064777860017, -0.42995063989496396, 0.07436299246366596, -0.45389572224663244, 0.8378454562715427, 0.9152175983872413, -0.3890740121288727, -0.3502315186948233, 0.6068471421383601, 0.3247958482550073, -0.5546233505362672, 0.6934312680504258, -0.5585885465857878, -0.6842747393578887, 0.024818063167178606, -0.05319679505017039, -0.7447408364365702, -0.43890027797554043, 0.13667966123699204, -0.27925754952479753, 0.5676851700141898, -0.06565757361209967, -0.833964088607809, -0.5986820931839811, 0.12610670247705902, 0.08894614455009964, 0.05436090979941466, -0.2551687470769808, -0.49625365757989415, -0.8189617153855155, 0.31068660225684486, -0.8707439756212989, -0.2807310109099024, 0.6485958315984386, 0.7615257623853828, -0.05511430951209273, 0.4407189948148962, -0.6570900622459757, -0.8411420259835061, 0.9335325778304517, -0.7617159603392969, -0.29187028818825067, 0.2002878527169749, 0.6688208639555835, 0.8596287403254144, -0.9403274043473644, 0.961853988520567, -0.35084930462577946, -0.011010515814283472, 0.94282863420737, 0.39992238320545237, 0.14478395050050286, 0.6575690004765611, 0.8280946093298271, -0.26672119586973597, -0.7384319080877424, 0.5722545892517943, 0.602464368013913, 0.8906788293616124, 0.3264796402702923, -0.9416437832851108, -0.6907499233082592, 0.6379740363589503, 0.308691019196744, -0.49673176391376517, -0.07871796495016392, 0.8325005912212189, -0.40111156435871864, 0.10139375054590127, -0.4394954967875815, -0.5147507022435709, -0.8743443632011829, -0.11107259018827964, -0.8103820530048187, -0.16006770297304262, -0.8287704451759186, 0.4527038918499853, -0.9736531070857577, -0.09430671718815598, 0.5245085163536989, -0.8547634685013501, -0.4815699877883912, 0.368036816086976, 0.017841384082745604, 0.6650712190469092, 0.7025788665515975, 0.4160831275110308, -0.8170665889733566, -0.7203728606919069, -0.4896795666938307, -0.5410156181797585, -0.8194102454935794, -0.3580781487818263, 0.8347726973123277, -0.5336737685639588, 0.4495196884126216, 0.15579141685731734, 0.03220748354876468, 0.5292610110520346, 0.7641750393521403, 0.710006383402227, 0.12554843968197127, -0.05328818544121372, 0.5520095248810049, -0.6980703973142679, -0.3746440866251002, 0.6676616723769297, -0.4877844417668591, 0.3308120162177077, -0.7452471200529609, 0.9709107131927801, -0.7579174594178169, 0.2464453899871355, -0.5978215590072093, 0.3347070492351223, -0.5824921046737557, -0.8349422115349476, -0.09289030882582816, 0.06325801700071199, 0.7162892349237, -0.4826210552570387, -0.6594213446549388, 0.30799927227726376, 0.16579146439738635, -0.573747217759571, -0.9715487423206688, 0.3638785165405094, 0.3616875304312781, -0.7081684865690392, -0.017687567445785923, -0.06278378873964474, 0.8284076046599331, 0.7363205783830562, 0.3725092908110288, 0.3568647095379549, 0.8761604022278675, 0.7251937783262861, -0.7963246330668683, 0.0813703407094788, 0.2976139418639703, 0.45098985683948545, 0.972949495961734, 0.19664057201170015, 0.9785391265042989, 0.8105183141144099, -0.3542101395613433, 0.028890820957665264, -0.35039566016734747, 0.8644821395835713, 0.5108388903460477, 0.36979292394706986, 0.32789380519777667, -0.9905959302074869, 0.07028425974075514, -0.9005306911995687, 0.6344215048017219, -0.9303704353588083, 0.2848813502345813, 0.34697907775682224, -0.3406689450558278, -0.14450557915944962, -0.7956076408460839, -0.23900530467957393, -0.7305593837587776, 0.9233192131968162, 0.15548513482087167, -0.9038800533704023, -0.9018943801877741, -0.39158228955006313,
-0.5374103652527054, 0.26290785580662246, 0.12993389952493972, 0.06312255965903169, 0.3933076535302178, -0.6154647324722125, 0.4834820847492274, -0.45097307773693496, -0.47478170946623766, 0.6448773010346833, -0.3999960481527052, -0.7626609075105577, 0.8514682738244321, -0.554243831437806, 0.7136058142299306, -0.35683726002018323, 0.7556017188931561, 0.08082997070096365, -0.15057299934668023, -0.5008105306367057, -0.6756929800807421, 0.7580083835537736, -0.16712221952745732, 0.6378143424197527, -0.638156230737507, 0.6103801082267586, -0.49690985510629937, -0.13544982910994485, 0.1604483341701115, 0.49444987521465644, 0.5448752660131926, -0.09177253918297867, -0.11654259483055984, 0.12515252449168446, -0.5851306272005601, 0.42283064447139584, 0.9695492941475043, 0.5316189369157098, 0.7033111236921163, 0.5309626674701888, 0.819519525456033, -0.5058781672395953, -0.9235202339229287, -0.9159601403599267, -0.7225750546948513, -0.33335799575074954, 0.347121389189885, -0.6570900622459757, 0.4320833380602558, -0.854295215640597, -0.6823879927882481, -0.8534497247688515, 0.00308178150212024, 0.6688208639555835, -0.02669273485474899, -0.2643888211852996, 0.24547382068735257, -0.35084930462577946, -0.011010515814283472, 0.35068192856781133, 0.905560528646637, 0.8070052559500573, 0.6575690004765611, -0.8091380464129958, 0.3711128142421398, -0.7782595393727618, 0.5722545892517943, 0.602464368013913, 0.8906788293616124, 0.3264796402702923, 0.2768589838088438, 0.7246419343223849, 0.6379740363589503, -0.39000663819698445, 0.9540038160719038, 0.3424336393326728, 0.5027416470329089, -0.8388888578926952, 0.5623954584952455, 0.9313623982298012, 0.9366365545737012, 0.9717675360938418, 0.7439671817259745, 0.8309258755518678, 0.10480226702937956, 0.9283084448982086, 0.011285596023677513, -0.7148572005935208, 0.31165922275561075, 0.9711042947834705, -0.34259325561154386, -0.49438637075205993, -0.9410166660570698, -0.5398612129865965, 0.10637895099068229, 0.3864338510008971, 0.09687345874263542, 0.47042248372117657, -0.9528004415155216, 0.15541454332143978, -0.21606017036905234, 0.47631937360504173, -0.2102422709548386, -0.3709024298700494, -0.5336737685639588, -0.9639693734889319, 0.15579141685731734, 0.03220748354876468, 0.5292610110520346, -0.6273055104726026, -0.07956622896050347, 0.4928259037538232, -0.17378100034047295, 0.6406851367707878, 0.9308863490450363, 0.5334588986815831, -0.25388856553563666, 0.11416179674210403, -0.4045006127686779, -0.05257710377647817, -0.20259454795660825, 0.7135251283759969, 0.32190431945458653, -0.6788508430022384, 0.24877424307501728, -0.9699851797189663, -0.1574545649602488, -0.48208811053326706, 0.2750590983020671, 0.6580807918309393, -0.15447292996718853, 0.8125342556102535, -0.019955301179293006, 0.10454641915190854, 0.31014583109697047, 0.27074696630935513, 0.6361835735296675, 0.8066381804681162, -0.4799167091060368, 0.4203049901237115, 0.8785878306301764, -0.733917110794235, -0.940476899964048, -0.53367702783064, -0.991809803286877, 0.022444487690759907, -0.2304130947973344, -0.7963246330668683, -0.7623646417413015, 0.38393313331129786, 0.21410798369793116, -0.8142051756054514, 0.17069324837540267, -0.020089947010972775, -0.9758242367885372, -0.8876149574440493, -0.16300691402951406, -0.05240201775356357, -0.773295799918295, -0.11350031958065032, 0.16894695219466382, -0.6779227023611525, 0.7684146105192386, 0.37017735000488416, 0.5274958514750094, 0.25459590888733086, -0.8723913721587688, 0.9452187174837745, -0.38544822600802164, 0.4035648779254939, -0.9077204901641482, -0.941756627827492, -0.6596984328853275, 0.296805592840901, -0.1814848369359392, 0.900950346526523, -0.8383020573534572, -0.39996024021083043, 0.3143393372959531,
-0.5374103652527054, 0.26290785580662246, 0.12993389952493972, 0.06312255965903169, 0.3933076535302178, -0.4834118484970875, 0.32775881536957185, 0.603379722589388, -0.05311661032743853, 0.08643095589328853, -0.7165908068940203, -0.42995063989496396, 0.07436299246366596, -0.45389572224663244, 0.8378454562715427, -0.3629237180332452, -0.3890740121288727, -0.3502315186948233, 0.6068471421383601, -0.03672930292425036, -0.5546233505362672, 0.6934312680504258, -0.5585885465857878, -0.6842747393578887, 0.024818063167178606, -0.05319679505017039, -0.7447408364365702, -0.13544982910994485, 0.1604483341701115, 0.958649715908992, 0.5448752660131926, -0.09177253918297867, -0.11654259483055984, 0.12515252449168446, -0.5851306272005601, 0.42283064447139584, 0.9695492941475043, 0.5316189369157098, 0.7033111236921163, 0.5309626674701888, 0.819519525456033, -0.5058781672395953, -0.9235202339229287, 0.6485958315984386, 0.7615257623853828, -0.33335799575074954, 0.4407189948148962, -0.6570900622459757, -0.8411420259835061, 0.32898722141549297, -0.7617159603392969, -0.29187028818825067, 0.5052648413473542, 0.6688208639555835, -0.8280358306620528, -0.9403274043473644, 0.961853988520567, -0.35084930462577946, -0.011010515814283472, -0.18616723740220298, 0.833421721094312, 0.14478395050050286, 0.6575690004765611, 0.6240042563822705, 0.695418702139398, -0.7384319080877424, 0.15400377586513803, -0.5853300861875934, 0.8906788293616124, 0.3264796402702923, 0.2768589838088438, -0.6907499233082592, 0.6379740363589503, 0.308691019196744, -0.6693914063460953, -0.07871796495016392, 0.8325005912212189, -0.40111156435871864, 0.10139375054590127, -0.9121056718511986, -0.5147507022435709, -0.8743443632011829, -0.11107259018827964, -0.8103820530048187, -0.16006770297304262, -0.8287704451759186, 0.4527038918499853, -0.9736531070857577, -0.09430671718815598, -0.07634042042435385, -0.8547634685013501, 0.009067548424425587, 0.368036816086976, -0.9812737755618761, -0.05012913025408339, 0.7025788665515975, -0.7556129930848821, -0.8170665889733566, 0.5316244476079395, -0.8567401809854429, -0.21606017036905234, -0.8863642203436115, -0.2102422709548386, -0.9673231141233438, -0.5336737685639588, -0.9639693734889319, 0.15579141685731734, 0.03220748354876468, 0.302154415335554, 0.8257878986415075, -0.07956622896050347, 0.4928259037538232, -0.17378100034047295, 0.6406851367707878, 0.9308863490450363, 0.5334588986815831, -0.25388856553563666, 0.11416179674210403, -0.49125612641983896, -0.14135587976153907, -0.20259454795660825, 0.7135251283759969, 0.32190431945458653, -0.6788508430022384, 0.5551184855675193, -0.2186749276194675, -0.1574545649602488, -0.48208811053326706, -0.026330723649343968, 0.6580807918309393, -0.15447292996718853, -0.8943333682041907, 0.30799927227726376, 0.10454641915190854, -0.573747217759571, 0.27074696630935513, -0.848097665001831, -0.1948249092008516, 0.6967181254920933, -0.5664153954091922, 0.623180798155889, -0.19011222814032513, -0.20957374800942485, -0.28936248555888944, 0.5800416169834599, 0.4735827501980967, -0.834710895512583, 0.2544815532398741, 0.180065538291047, -0.910827100195861, 0.5230315463672117, 0.8871850654823721, -0.640710472302993, -0.9761198316534274, -0.5429952180907558, 0.8899917738994332, 0.4040679207620519, 0.25901657666009426, -0.7713806901489992, 0.6753238092239495, 0.49856082906943233, 0.8044679892611388, 0.48733338687686834, 0.45086859244416555, -0.8014410011730542, 0.6344215048017219, 0.6323279143894511, 0.8475106755290096, -0.03913265780247088, -0.9555152687408552, 0.17423370711014363, 0.5543300487321983, 0.29525890706459723, -0.5569217121673389, -0.4772044116542191, 0.9200197598162101, 0.6636399203823191, 0.07039240495990162, -0.061372881362504295,
-0.5374103652527054, 0.26290785580662246, 0.12993389952493972, 0.06312255965903169, 0.3933076535302178, 0.012708582408425206, 0.32775881536957185, -0.21553603509675212, -0.21498527403044898, -0.8529599727832438, 0.8861064777860017, -0.833219153694531, 0.7120353277249007, -0.45389572224663244, 0.37253395324600413, -0.9908785950182779, -0.3074391586923073, 0.6017632008560678, 0.5622128798505934, -7.684191405930019E-4, -0.7115286892986679, -0.6887426447979754, -0.5434590482565165, 0.546599094995772, 0.06650201146085788, -0.023998773345041302, -0.35875625708872727, -0.32917993837033466, -0.8149337824784626, 0.49444987521465644, 0.5448752660131926, -0.7598997087799402, 0.7945995436321891, 0.12515252449168446, -0.5851306272005601, -0.2001601136605915, 0.9954375383463647, 0.7426549533047302, 0.9656199302745263, -0.08368709590177703, 0.819519525456033, -0.5058781672395953, 0.5675268589789677, 0.6485958315984386, -0.5493955680852305, 0.5310260562228604, 0.4407189948148962, -0.8735933476656896, 0.4320833380602558, -0.854295215640597, -0.6823879927882481, -0.29187028818825067, 0.7810417723076264, 0.6688208639555835, -0.02669273485474899, -0.2643888211852996, -0.7962698637059638, -0.35084930462577946, -0.2130779153090956, 0.35068192856781133, 0.8017926086594895, 0.8070052559500573, 0.6575690004765611, -0.8091380464129958, 0.430789642516308, 0.43666515330019573, 0.5722545892517943, 0.602464368013913, 0.8906788293616124, 0.3264796402702923, 0.24727868011891196, -0.6907499233082592, 0.6379740363589503, -0.39000663819698445, -0.03231625461587839, 0.3424336393326728, 0.5027416470329089, 0.9392660654191463, 0.5623954584952455, 0.9313623982298012, 0.9366365545737012, 0.9717675360938418, 0.7891993093151195, 0.8309258755518678, 0.10480226702937956, 0.9283084448982086, -0.1275547839715181, -0.4958889578456358, 0.31165922275561075, 0.9711042947834705, -0.34259325561154386, -0.49438637075205993, -0.2128684034510573, -0.40643532425965745, 0.5953727960934583, 0.6019646941330332, 0.03445696493191863, 0.7744898970113558, 0.5316244476079395, 0.15541454332143978, -0.21606017036905234, 0.8446599090013822, -0.2102422709548386, -0.38374280806323813, -0.5336737685639588, 0.7560538760489006, -0.03632328257904849, -0.21644747781778784, -0.6147587323387971, -0.6273055104726026, -0.07956622896050347, 0.4928259037538232, 0.16501519203725556, -0.9479068504569723, -0.6980703973142679, -0.3746440866251002, -0.5532021152663322, 0.8363229110220505, -0.4087662447917093, 0.8397143228742188, 0.7205597953053484, 0.5573588877926545, 0.42753607352954837, 0.6814277925741679, 0.31157717095408355, -0.8692036185733869, 0.9982144425163935, -0.7907778833856345, -0.7153179306365138, -0.2854336331855425, -0.36854193345473685, 0.5013378525132963, -0.9436687456946717, 0.13398280752551361, -0.8390408967309184, -0.9715487423206688, 0.3638785165405094, 0.3616875304312781, 0.31216093174518744, -0.36531280364865615, -0.06278378873964474, -0.733917110794235, 0.7363205783830562, 0.3725092908110288, 0.3568647095379549, 0.8761604022278675, 0.7251937783262861, 0.873610652760725, 0.929160314227752, 0.863329615870212, -0.7072664079894961, 0.8700089806398537, -0.7244543067949545, -0.3396434219444342, 0.974616344612584, -0.3542101395613433, 0.028890820957665264, 0.6557884540606607, 0.8644821395835713, 0.5108388903460477, 0.36979292394706986, 0.32789380519777667, -0.9905959302074869, 0.07028425974075514, 0.48544182431726646, 0.6344215048017219, -0.9303704353588083, 0.2848813502345813, -0.34130597233275495, -0.10534432678845085, 0.2508568548993473, 0.5095381604326601, -0.5020210131361256, 0.3776894533479258, -0.9736985055811935, -0.6126795002596555, -0.2955650944519561, 0.26029721017710483, -0.23763268397556714,
-0.5374103652527054, 0.26290785580662246, 0.12993389952493972, 0.3648067646504234, 0.48969618864685915, -0.6154647324722125, 0.4834820847492274, -0.45097307773693496, -0.47478170946623766, 0.6448773010346833, -0.3999960481527052, -0.7626609075105577, 0.8514682738244321, -0.554243831437806, 0.7136058142299306, 0.8627016362227888, 0.7992326644835406, 0.08082997070096365, 0.40445158536104064, -0.5008105306367057, -0.6756929800807421, 0.7580083835537736, -0.16712221952745732, 0.6378143424197527, -0.638156230737507, -0.023998773345041302, -0.49690985510629937, 0.9086964219287252, 0.17510721969933307, 0.22590816447435347, 0.9806201496167437, 0.7547242981525291, -0.11654259483055984, -0.11249085594730701, -0.5851306272005601, 0.42283064447139584, 0.44154869935041097, 0.5316189369157098, 0.9656199302745263, -0.08368709590177703, 0.819519525456033, -0.5058781672395953, 0.5675268589789677, 0.745085866802317, 0.7615257623853828, -0.33335799575074954, 0.4407189948148962, -0.6570900622459757, 0.4320833380602558, -0.854295215640597, -0.6823879927882481, -0.612984014373041, 0.00308178150212024, 0.6688208639555835, -0.02669273485474899, -0.34680643785045095, 0.24547382068735257, -0.35084930462577946, -0.011010515814283472, 0.35068192856781133, 0.8017926086594895, 0.8070052559500573, 0.6575690004765611, -0.8091380464129958, 0.430789642516308, -0.7782595393727618, 0.5722545892517943, -0.1156841008280487, 0.8906788293616124, 0.3264796402702923, 0.2768589838088438, -0.6907499233082592, 0.6379740363589503, 0.308691019196744, -0.49673176391376517, -0.07871796495016392, 0.8325005912212189, -0.40111156435871864, 0.10139375054590127, -0.9121056718511986, -0.5147507022435709, -0.8743443632011829, -0.11107259018827964, -0.8103820530048187, 0.10480226702937956, 0.9283084448982086, 0.409336115502128, -0.7148572005935208, 0.31165922275561075, 0.9711042947834705, -0.34259325561154386, -0.49438637075205993, -0.9410166660570698, 0.466324920718844, 0.10637895099068229, 0.7568634984623572, 0.09687345874263542, 0.23866167847149922, 0.5316244476079395, -0.2408489864440484, -0.21606017036905234, -0.8194102454935794, -0.21554489642663466, -0.9144846183121957, 0.7998314470223724, -0.9151765289302363, 0.15579141685731734, 0.03220748354876468, 0.5292610110520346, -0.6273055104726026, -0.07956622896050347, 0.4928259037538232, -0.17378100034047295, -0.40131745387529016, 0.2959513547295367, -0.2576094054234299, 0.7717287467458418, -0.8512519916482648, 0.31355327750325657, -0.7494788313558458, 0.3394630323980672, -0.9630257844036487, 0.2464453899871355, -0.10672579885539557, 0.31157717095408355, 0.5716097846558372, 0.9982144425163935, -0.6707243380760848, 0.798488193170876, -0.2854336331855425, -0.36854193345473685, 0.5013378525132963, -0.9436687456946717, 0.13398280752551361, -0.8390408967309184, -0.9715487423206688, 0.3638785165405094, 0.9289966526457738, 0.31216093174518744, -0.017687567445785923, -0.06278378873964474, -0.733917110794235, 0.7363205783830562, 0.3725092908110288, 0.3568647095379549, 0.8761604022278675, 0.7251937783262861, 0.873610652760725, 0.929160314227752, 0.863329615870212, -0.7072664079894961, 0.49483726856322896, -0.7244543067949545, -0.3396434219444342, 0.974616344612584, -0.3542101395613433, 0.028890820957665264, 0.6557884540606607, 0.8644821395835713, 0.5108388903460477, 0.476065616055527, 0.32789380519777667, -0.9905959302074869, 0.07028425974075514, 0.48544182431726646, 0.8923030897617636, -0.9303704353588083, 0.2848813502345813, 0.7512759550403112, -0.10534432678845085, 0.45066485716618887, 0.5095381604326601, -0.5020210131361256, 0.3776894533479258, -0.9736985055811935, -0.6126795002596555, -0.2955650944519561, 0.03150697205653641, -0.23763268397556714,
0.27934025038980836, 0.10421705765820266, -0.007860630040343208, 0.3798864256854255, 0.6987951661398508, 0.6114036607751401, 0.2785528848083554, -0.4973415292853012, 0.14996658258163253, -0.15154736276805147, 0.7221503147177031, -0.9254590365451276, -0.8638196533073363, -0.6064569658980219, 0.8093826145377732, 0.8627016362227888, 0.7992326644835406, 0.08082997070096365, 0.40445158536104064, -0.5008105306367057, -0.6756929800807421, 0.7580083835537736, -0.16712221952745732, 0.6378143424197527, -0.638156230737507, -0.023998773345041302, -0.49690985510629937, 0.9086964219287252, -0.33720465566684465, 0.22590816447435347, 0.9806201496167437, 0.5627192432667572, 0.7506151556291605, -0.11249085594730701, -0.5851306272005601, 0.42283064447139584, 0.44154869935041097, 0.5316189369157098, 0.9656199302745263, -0.08368709590177703, 0.819519525456033, -0.5058781672395953, 0.5675268589789677, 0.6485958315984386, 0.7615257623853828, -0.33335799575074954, 0.4407189948148962, -0.6570900622459757, 0.4320833380602558, -0.854295215640597, -0.6823879927882481, -0.612984014373041, 0.00308178150212024, 0.6688208639555835, -0.02669273485474899, -0.8791999129004058, 0.24547382068735257, -0.35084930462577946, -0.011010515814283472, 0.35068192856781133, 0.8017926086594895, 0.556459990701949, 0.6575690004765611, -0.8091380464129958, 0.430789642516308, -0.7782595393727618, 0.5722545892517943, 0.602464368013913, 0.04690470056170626, 0.3264796402702923, 0.24727868011891196, 0.28383006788798415, 0.6379740363589503, -0.39000663819698445, 0.9540038160719038, 0.3424336393326728, 0.5027416470329089, 0.9392660654191463, 0.5623954584952455, 0.9313623982298012, 0.9366365545737012, 0.9717675360938418, -0.509990167549347, 0.4630377404952064, 0.10480226702937956, -0.9551799879110359, 0.8956366179040449, -0.4958889578456358, 0.31165922275561075, 0.9711042947834705, -0.34259325561154386, -0.49438637075205993, -0.2128684034510573, -0.40643532425965745, 0.5953727960934583, 0.6019646941330332, 0.03445696493191863, -0.6232127823041631, 0.5316244476079395, 0.9640576284187234, -0.21606017036905234, 0.8446599090013822, -0.2102422709548386, 0.6725404305624292, -0.5336737685639588, -0.6151277748419433, 0.15579141685731734, -0.21644747781778784, 0.5292610110520346, -0.7259148740035144, 0.6200178040669249, 0.15163584924353546, 0.2453732769684771, -0.9479068504569723, -0.6980703973142679, -0.3825133784336987, -0.5908908580273469, 0.8363229110220505, -0.4087662447917093, 0.8397143228742188, 0.7205597953053484, 0.5573588877926545, 0.42753607352954837, 0.6814277925741679, 0.31157717095408355, -0.8692036185733869, 0.9982144425163935, -0.9652020747014123, 0.5147164118929808, -0.4300828977477342, 0.9185422987433851, 0.5013378525132963, 0.3227589099376753, 0.13398280752551361, -0.47479334465844336, -0.3012044883155536, 0.6361835735296675, -0.23942638437022712, -0.4799167091060368, 0.5115408283081924, -0.6648350694475265, -0.733917110794235, 0.7308802398709948, -0.53367702783064, -0.7087048566975451, 0.4735827501980967, -0.600810779389229, 0.5215318848218724, 0.180065538291047, 0.2976139418639703, 0.7676713499804755, 0.972949495961734, 0.19664057201170015, 0.9785391265042989, 0.8105183141144099, -0.484568389783099, -0.5313131842940075, 0.6557884540606607, 0.23684066197005094, 0.3088518926753132, 0.49856082906943233, 0.721802425009161, 0.38861058435341667, 0.7933587830915296, 0.47004641222152266, 0.6344215048017219, -0.9912819069676184, 0.2848813502345813, -0.930835235799651, -0.3968165097072798, -0.16566235895523196, -0.9424338254309053, 0.4716578818988202, -0.04938514197240873, -0.8728227100957267, 0.5841181593073226, -0.5919941344301636, -0.6910360872644281, 0.18805920544584231,
-0.5374103652527054, 0.26290785580662246, 0.12993389952493972, 0.06312255965903169, -0.0710134920930412, -0.4834118484970875, 0.12912094010595876, 0.603379722589388, -0.47478170946623766, 0.6448773010346833, -0.3999960481527052, -0.7626609075105577, 0.8514682738244321, -0.554243831437806, 0.40918860337347196, -0.35683726002018323, 0.7556017188931561, 0.08082997070096365, 0.40445158536104064, -0.5008105306367057, -0.6756929800807421, 0.7580083835537736, -0.16712221952745732, 0.6378143424197527, -0.8823333107352276, 0.6103801082267586, -0.49690985510629937, -0.7737906351334949, 0.13667966123699204, 0.13183689366793327, 0.5676851700141898, 0.10182171294937592, 0.14369909133400283, -0.5986820931839811, 0.12610670247705902, 0.9467822603824572, 0.2521661437606608, -0.2551687470769808, -0.49625365757989415, -0.8189617153855155, 0.31068660225684486, -0.8707439756212989, -0.2807310109099024, 0.6485958315984386, 0.7615257623853828, 0.8069848178757171, 0.347121389189885, -0.6570900622459757, 0.4320833380602558, -0.854295215640597, -0.6823879927882481, -0.8534497247688515, 0.00308178150212024, -0.02802493357267677, -0.02669273485474899, -0.2643888211852996, 0.24547382068735257, -0.35084930462577946, -0.011010515814283472, 0.35068192856781133, 0.905560528646637, 0.8213841437304223, 0.6575690004765611, -0.8091380464129958, 0.3711128142421398, -0.7782595393727618, 0.5722545892517943, 0.602464368013913, 0.8906788293616124, 0.3264796402702923, -0.6754842613505143, -0.6907499233082592, 0.6379740363589503, -0.39000663819698445, 0.9540038160719038, 0.3424336393326728, 0.5027416470329089, -0.8388888578926952, 0.5623954584952455, 0.9313623982298012, 0.9366365545737012, 0.9717675360938418, 0.7891993093151195, 0.8309258755518678, 0.10480226702937956, 0.9283084448982086, 0.409336115502128, -0.7148572005935208, 0.31165922275561075, 0.9711042947834705, -0.34259325561154386, 0.8181720822866123, -0.9410166660570698, 0.466324920718844, 0.10637895099068229, 0.3864338510008971, 0.3825089796519152, 0.47042248372117657, 0.5316244476079395, 0.11786159259604312, -0.21606017036905234, 0.47631937360504173, -0.2102422709548386, -0.3709024298700494, -0.5336737685639588, -0.9639693734889319, 0.15579141685731734, 0.03220748354876468, 0.5292610110520346, -0.6273055104726026, -0.07956622896050347, 0.9084319179396765, -0.17378100034047295, -0.3061155239345845, 0.2959513547295367, -0.2576094054234299, 0.7717287467458418, -0.8512519916482648, 0.31355327750325657, -0.7494788313558458, 0.3394630323980672, -0.9630257844036487, 0.2464453899871355, -0.5978215590072093, 0.8586341003873768, -0.2504889970463857, 0.9982144425163935, 0.9821546031404678, -0.33689545085438444, -0.2854336331855425, -0.4019739301092409, -0.5451007897388527, 0.8958216257106537, 0.13398280752551361, -0.8390408967309184, -0.9715487423206688, 0.3638785165405094, 0.3616875304312781, 0.31216093174518744, -0.017687567445785923, -0.06278378873964474, -0.733917110794235, 0.7363205783830562, 0.3725092908110288, 0.3568647095379549, 0.8761604022278675, 0.7251937783262861, 0.873610652760725, 0.929160314227752, 0.863329615870212, -0.7072664079894961, 0.8700089806398537, -0.7244543067949545, -0.3396434219444342, 0.974616344612584, -0.3542101395613433, 0.028890820957665264, 0.009728321071541313, 0.8644821395835713, 0.5108388903460477, 0.49856082906943233, 0.8044679892611388, 0.48733338687686834, -0.6507405367956305, -0.8014410011730542, 0.6344215048017219, 0.6323279143894511, 0.2848813502345813, -0.03913265780247088, -0.9555152687408552, 0.17423370711014363, 0.5543300487321983, 0.29525890706459723, -0.5569217121673389, -0.4772044116542191, -0.6126795002596555, 0.6636399203823191, 0.07039240495990162, -0.061372881362504295,
0.27934025038980836, 0.10421705765820266, -0.007860630040343208, 0.3798864256854255, -0.8121141598021879, 0.5118016484751273, 0.2785528848083554, -0.4973415292853012, 0.14996658258163253, 0.6183112081233988, 0.31502684024744165, 0.567507389444224, -0.8638196533073363, -0.6064569658980219, 0.5888008894756038, 0.1695978759149832, -0.04064929767177983, 0.6203768019720819, 0.6068471421383601, 0.09765297531473904, -0.5546233505362672, 0.23654823035673012, -0.965790239265395, 0.6378143424197527, 0.8701303084131446, 0.6379264423505207, 0.6201826155569248, 0.21176820806994567, 0.842283968713387, -0.09004195479411559, -0.09780088502756756, -0.9579512027505428, -0.20202487004291947, 0.5572991110042027, -0.5851306272005601, -0.2001601136605915, 0.36657724157850136, 0.7426549533047302, 0.5246157631581483, 0.8981960983564399, 0.3541064609212612, 0.3039085495117988, -0.29173314350897406, 0.7989391325297259, -0.9808312057668263, -0.25408516699038586, 0.4524815954412207, -0.90785669190888, -0.6050496833770498, -0.5567682182646547, 0.43980684506265266, -0.5268763627829074, 0.535816020546493, 0.5310245963230746, 0.23221921111259114, 0.2636764589925138, -0.7581671946163646, 0.9724915563418164, 0.16476418608672194, 0.37034845354163926, -0.39458593915370876, 0.21757532442961414, -0.14583474229953874, -0.17950249424898845, 0.6644493137396406, -0.7384319080877424, -0.10621081797625731, -0.18604013342283698, -0.4890113718356872, 0.3299385581136165, 0.7069304328388495, -0.44098467814078957, 0.21068152220543457, 0.39401840099612406, 0.4845641179168838, 0.5177845273981423, -0.3028578661892456, -0.5252204889370147, 0.5623954584952455, 0.9313623982298012, 0.9366365545737012, 0.9717675360938418, 0.7891993093151195, 0.8309258755518678, 0.10480226702937956, -0.9551799879110359, 0.8956366179040449, -0.4958889578456358, 0.31165922275561075, 0.9711042947834705, -0.34259325561154386, 0.5150798581289782, -0.2128684034510573, -0.40643532425965745, 0.5953727960934583, 0.6019646941330332, -0.847631168580038, -0.6232127823041631, 0.5316244476079395, 0.9640576284187234, -0.21606017036905234, 0.8446599090013822, -0.2102422709548386, 0.6725404305624292, -0.5336737685639588, -0.6151277748419433, 0.15579141685731734, -0.21644747781778784, 0.5292610110520346, -0.7259148740035144, -0.07956622896050347, 0.4928259037538232, 0.16501519203725556, -0.9479068504569723, -0.6980703973142679, -0.3825133784336987, -0.5532021152663322, 0.8363229110220505, -0.4087662447917093, 0.8397143228742188, 0.7205597953053484, 0.5573588877926545, 0.42753607352954837, 0.6814277925741679, 0.31157717095408355, 0.6031998512057191, 0.9982144425163935, -0.9652020747014123, 0.13507210562172456, -0.4300828977477342, 0.9185422987433851, 0.5013378525132963, -0.5589755439220827, 0.13398280752551361, -0.47479334465844336, -0.3012044883155536, 0.6361835735296675, -0.23942638437022712, -0.4799167091060368, 0.5115408283081924, -0.6648350694475265, -0.733917110794235, 0.7308802398709948, -0.53367702783064, -0.7087048566975451, 0.4735827501980967, -0.600810779389229, 0.5215318848218724, 0.180065538291047, 0.863329615870212, -0.984334706009218, 0.8871850654823721, -0.08262519629740295, -0.3396434219444342, 0.7863240620884615, -0.005599980679031891, 0.24872502187156265, -0.9852903783926148, 0.927035301371024, -0.5224920384525544, 0.49856082906943233, 0.32789380519777667, 0.7942165302066915, 0.10421447603906797, 0.5274958514750094, 0.25459590888733086, -0.8832399960693311, -0.5048245547768049, -0.38544822600802164, 0.4828495417511325, -0.9077204901641482, -0.21790704989910004, -0.6596984328853275, 0.296805592840901, -0.1814848369359392, 0.900950346526523, 0.8652100698054721, -0.39996024021083043, -0.1879362340930708,
-0.5374103652527054, 0.26290785580662246, 0.12993389952493972, 0.06312255965903169, 0.7742416185842602, 0.20046780307057088, 0.4834820847492274, -0.45097307773693496, -0.7535882725319472, 0.6448773010346833, -0.3999960481527052, -0.7626609075105577, 0.8514682738244321, -0.554243831437806, 0.7136058142299306, 0.8627016362227888, 0.7992326644835406, 0.08082997070096365, 0.40445158536104064, -0.5008105306367057, -0.6756929800807421, 0.7580083835537736, -0.16712221952745732, 0.6378143424197527, -0.638156230737507, -0.023998773345041302, -0.49690985510629937, 0.9086964219287252, 0.17510721969933307, 0.22590816447435347, 0.9806201496167437, 0.5627192432667572, -0.1444077655417657, -0.11249085594730701, -0.5851306272005601, 0.42283064447139584, 0.44154869935041097, 0.9159549187738785, 0.7033111236921163, 0.5309626674701888, 0.819519525456033, -0.5058781672395953, -0.9235202339229287, 0.6485958315984386, 0.7615257623853828, -0.33335799575074954, 0.4407189948148962, -0.6570900622459757, 0.4320833380602558, -0.854295215640597, -0.6823879927882481, -0.612984014373041, 0.00308178150212024, 0.6688208639555835, -0.02669273485474899, -0.34680643785045095, 0.24547382068735257, -0.35084930462577946, -0.011010515814283472, 0.35068192856781133, 0.8017926086594895, 0.8070052559500573, 0.6575690004765611, -0.8091380464129958, 0.430789642516308, -0.7782595393727618, 0.5722545892517943, 0.602464368013913, -0.8213585924580207, 0.30551483641196797, 0.24727868011891196, -0.6907499233082592, 0.6379740363589503, -0.39000663819698445, 0.9540038160719038, 0.3424336393326728, 0.5027416470329089, 0.9392660654191463, 0.5623954584952455, 0.9313623982298012, -0.3712393341633109, 0.9717675360938418, -0.5166169903052866, -0.5764986532535086, 0.10480226702937956, -0.4619244666958784, 0.409336115502128, -0.7148572005935208, 0.31165922275561075, 0.9711042947834705, -0.34259325561154386, -0.49438637075205993, -0.9410166660570698, 0.466324920718844, 0.10637895099068229, 0.7568634984623572, 0.09687345874263542, 0.47042248372117657, 0.5316244476079395, -0.2408489864440484, -0.21606017036905234, 0.8446599090013822, -0.2102422709548386, -0.3709024298700494, 0.7998314470223724, -0.9151765289302363, 0.15579141685731734, 0.03220748354876468, 0.5292610110520346, -0.6273055104726026, -0.07956622896050347, 0.4928259037538232, -0.17378100034047295, -0.40131745387529016, 0.2959513547295367, -0.2576094054234299, 0.7717287467458418, -0.8512519916482648, 0.31355327750325657, -0.7342680371559174, 0.3394630323980672, -0.9630257844036487, 0.2464453899871355, -0.5235695847907103, 0.31157717095408355, 0.5716097846558372, 0.9982144425163935, -0.7907778833856345, -0.7153179306365138, -0.2854336331855425, -0.36854193345473685, 0.5013378525132963, -0.9436687456946717, 0.13398280752551361, -0.5369595285682021, -0.9715487423206688, 0.3638785165405094, 0.3616875304312781, -0.6487791616313838, -0.017687567445785923, -0.06278378873964474, -0.733917110794235, 0.7363205783830562, 0.3725092908110288, 0.3568647095379549, 0.8761604022278675, 0.7251937783262861, 0.873610652760725, 0.929160314227752, 0.863329615870212, -0.7072664079894961, 0.8700089806398537, -0.7244543067949545, -0.3396434219444342, 0.974616344612584, -0.3542101395613433, 0.028890820957665264, 0.6557884540606607, 0.8644821395835713, 0.5108388903460477, 0.36979292394706986, 0.32789380519777667, -0.9905959302074869, 0.07028425974075514, -0.09879227334709384, 0.6344215048017219, -0.9303704353588083, 0.2848813502345813, -0.34130597233275495, -0.10534432678845085, -0.20135351408556534, 0.5095381604326601, -0.5020210131361256, 0.3776894533479258, -0.9736985055811935, -0.6126795002596555, -0.2955650944519561, 0.03150697205653641, -0.23763268397556714,
0.27934025038980836, 0.10421705765820266, -0.007860630040343208, 0.3798864256854255, 0.6987951661398508, 0.6114036607751401, 0.2785528848083554, -0.4973415292853012, 0.14996658258163253, -0.15154736276805147, -0.15384316530311848, -0.9254590365451276, 0.19145480392945946, -0.6064569658980219, 0.5888008894756038, 0.8627016362227888, 0.7992326644835406, 0.08082997070096365, 0.40445158536104064, -0.5008105306367057, -0.6756929800807421, 0.7580083835537736, 0.20060402563751345, 0.6378143424197527, -0.638156230737507, -0.023998773345041302, -0.49690985510629937, 0.9086964219287252, 0.17510721969933307, 0.22590816447435347, 0.23334952167789091, 0.5627192432667572, -0.11654259483055984, -0.11249085594730701, 0.419930514730549, 0.42283064447139584, 0.44154869935041097, 0.5316189369157098, 0.9656199302745263, -0.08368709590177703, 0.819519525456033, -0.5058781672395953, 0.5675268589789677, 0.6485958315984386, 0.7615257623853828, -0.33335799575074954, 0.4407189948148962, -0.6570900622459757, 0.13599523827225335, -0.854295215640597, -0.6823879927882481, -0.612984014373041, 0.00308178150212024, 0.6688208639555835, -0.02669273485474899, 0.3274473524209438, 0.24547382068735257, -0.42573036886514015, -0.011010515814283472, 0.35068192856781133, 0.8017926086594895, 0.8070052559500573, 0.6575690004765611, -0.8091380464129958, 0.430789642516308, -0.7782595393727618, 0.5722545892517943, 0.602464368013913, 0.8906788293616124, 0.3264796402702923, 0.24727868011891196, -0.6907499233082592, 0.6379740363589503, 0.5188988790025608, -0.49673176391376517, -0.07871796495016392, 0.8325005912212189, -0.40111156435871864, 0.10139375054590127, -0.9121056718511986, 0.09295961755423976, 0.10834438876012742, -0.5277633749673503, -0.8103820530048187, -0.16006770297304262, -0.8287704451759186, -0.8934713740530138, -0.9736531070857577, -0.09430671718815598, -0.07634042042435385, -0.8547634685013501, 0.009067548424425587, 0.368036816086976, -0.9812737755618761, -0.05012913025408339, 0.7025788665515975, -0.7556129930848821, -0.8170665889733566, 0.5316244476079395, 0.15541454332143978, -0.21606017036905234, 0.47631937360504173, -0.2102422709548386, -0.3709024298700494, -0.5336737685639588, -0.9639693734889319, -0.09822531794081191, 0.03220748354876468, 0.5292610110520346, 0.8257878986415075, -0.07956622896050347, 0.4928259037538232, -0.17378100034047295, 0.6406851367707878, 0.9308863490450363, 0.5334588986815831, -0.13471503587749778, 0.11416179674210403, -0.49125612641983896, -0.14135587976153907, -0.20259454795660825, 0.7135251283759969, 0.32190431945458653, -0.6788508430022384, 0.24877424307501728, -0.9699851797189663, -0.1574545649602488, -0.48208811053326706, 0.2750590983020671, -0.8877425545696627, -0.15447292996718853, -0.9073883668592357, 0.30799927227726376, 0.10454641915190854, -0.3974034887445068, -0.8147258153974479, -0.025281902741149942, 0.31776667697777117, -0.22768681415157754, -0.5489637400517977, 0.6890718505793294, 0.20279457849190585, -0.14019926683794148, 0.9163608549111211, 0.47289954708330284, 0.22472429538438865, -0.6666994187764055, 0.5758980703160412, 0.0813703407094788, 0.2976139418639703, 0.7676713499804755, 0.972949495961734, -0.640710472302993, 0.48840123109172606, -0.5429952180907558, -0.3542101395613433, 0.028890820957665264, 0.6557884540606607, 0.23684066197005094, 0.3088518926753132, 0.49856082906943233, 0.721802425009161, 0.38861058435341667, 0.7933587830915296, 0.47004641222152266, 0.6344215048017219, -0.9912819069676184, 0.2848813502345813, -0.930835235799651, -0.3968165097072798, -0.5109404209718651, -0.9424338254309053, -0.23900530467957393, -0.04938514197240873, -0.8728227100957267, 0.15548513482087167, -0.5919941344301636, -0.9018943801877741, -0.39158228955006313,
0.27934025038980836, 0.10421705765820266, -0.007860630040343208, -0.440352712769855, 0.6987951661398508, 0.6114036607751401, 0.2785528848083554, -0.5879042138591506, 0.14996658258163253, -0.15154736276805147, 0.31502684024744165, -0.7117913791968657, -0.8638196533073363, -0.6064569658980219, 0.5888008894756038, 0.7878799955440947, -0.04064929767177983, -0.3502315186948233, 0.6068471421383601, 0.09765297531473904, -0.4432560404734973, 0.7580083835537736, -0.16712221952745732, 0.08393759116605493, -0.638156230737507, -0.023998773345041302, -0.49690985510629937, 0.9086964219287252, 0.13667966123699204, 0.6059709143623313, 0.5448752660131926, -0.7598997087799402, -0.11654259483055984, -0.11249085594730701, 0.12859259617599195, 0.2156909041199011, -0.8778047764148773, -0.016691012471633737, -0.15383754190271004, 0.348595399844255, -0.7811226137780141, -0.5058781672395953, 0.5675268589789677, -0.9990493917702139, 0.7615257623853828, -0.3603001915371511, 0.4407189948148962, -0.41424365488048354, -0.9626326181536242, -0.31031212324270263, -0.6823879927882481, -0.29187028818825067, 0.00308178150212024, 0.6688208639555835, -0.4637989378321121, -0.2643888211852996, 0.24547382068735257, -0.35084930462577946, -0.011010515814283472, 0.35068192856781133, -0.39458593915370876, 0.21757532442961414, -0.14583474229953874, -0.17950249424898845, 0.6644493137396406, -0.7384319080877424, -0.10621081797625731, -0.18604013342283698, -0.4890113718356872, 0.3299385581136165, 0.7069304328388495, -0.2764276617529777, 0.21068152220543457, 0.39401840099612406, 0.1379479686149372, 0.5177845273981423, -0.3028578661892456, 0.5183256725416687, -0.6750347231075744, 0.1760177117422954, -0.8512644976711863, -0.8743443632011829, -0.020795543375035974, 0.5397953239996547, 0.5812571156289059, -0.9292386552307068, -0.09045543572671155, -0.33293906831814857, 0.8312899620663856, 0.30312695791840527, 0.7149697166022659, 0.212063264609196, -0.08505879826003526, 0.9348956177765195, 0.6353033842384928, 0.913821819511822, 0.39734837676883616, 0.8465672887474778, -0.01945859027724306, 0.07463264501645561, 0.7394621209427314, 0.8446599090013822, -0.21554489642663466, -0.9572016158525452, -0.5336737685639588, 0.7560538760489006, 0.621331205705703, 0.03220748354876468, -0.9532143251288112, -0.6273055104726026, -0.07956622896050347, -0.1660072716882921, -0.17378100034047295, 0.8043594280249626, -0.2646480233607249, -0.35665845722687806, 0.5254423551299912, 0.7120643731280247, 0.6189620442628692, 0.36995290165290595, 0.8433204747127976, 0.14025579008060962, 0.5261436440209388, -0.5978215590072093, 0.6851815147680258, 0.8944363662148593, -0.25633379118474675, 0.6086755340220569, -0.011466414248096912, 0.9959938117604197, 0.9185422987433851, 0.9310036011847733, 0.42574762719247805, 0.4685632166530507, -0.47479334465844336, -0.577913575604327, -0.003920410959914911, -0.3997545193296619, -0.06365943821301334, -0.5489637400517977, -0.06278378873964474, -0.733917110794235, 0.7363205783830562, -0.9521974092971848, 0.3568647095379549, -0.1564948509631583, 0.7251937783262861, -0.7963246330668683, -0.43685058623175177, 0.9794231549171859, 0.8926164334091411, 0.14324363990915967, -0.7547329108671337, -0.4451831308209464, -0.2866497126573495, -0.38054412904507773, 0.5486926527620186, 0.6557884540606607, 0.23684066197005094, -0.5966163225282219, 0.49856082906943233, 0.32789380519777667, 0.7942165302066915, 0.07028425974075514, -0.36725404774189685, 0.25459590888733086, -0.8478714799714269, -0.5048245547768049, -0.38544822600802164, 0.15549074560549792, -0.9077204901641482, -0.941756627827492, -0.6596984328853275, 0.296805592840901, -0.1814848369359392, 0.900950346526523, -0.2340611492482536, 0.22447002001970495, -0.1879362340930708,
-0.5374103652527054, 0.157988342315724, 0.07422521372130819, 0.06312255965903169, 0.3933076535302178, -0.6154647324722125, 0.4834820847492274, -0.6182599276546363, -0.47478170946623766, 0.6448773010346833, -0.3999960481527052, -0.7626609075105577, 0.8514682738244321, -0.554243831437806, 0.7136058142299306, -0.35683726002018323, 0.7556017188931561, 0.08082997070096365, 0.40445158536104064, -0.5008105306367057, -0.6756929800807421, 0.7580083835537736, -0.16712221952745732, 0.05767140748137889, -0.638156230737507, 0.6103801082267586, -0.49690985510629937, -0.13544982910994485, -0.13008946437739088, 0.49444987521465644, 0.5448752660131926, -0.09177253918297867, -0.11654259483055984, 0.12515252449168446, 0.22834698262794606, 0.42283064447139584, 0.9695492941475043, 0.5316189369157098, 0.7033111236921163, 0.5309626674701888, 0.819519525456033, -0.5058781672395953, -0.8396572151025337, 0.6485958315984386, 0.7615257623853828, -0.33335799575074954, -0.059277012019023134, -0.6570900622459757, 0.4320833380602558, -0.854295215640597, -0.6823879927882481, -0.8534497247688515, 0.00308178150212024, 0.6688208639555835, -0.02669273485474899, -0.2643888211852996, 0.24547382068735257, -0.35084930462577946, -0.011010515814283472, 0.35068192856781133, 0.1884724952350465, 0.8070052559500573, 0.6575690004765611, -0.8091380464129958, 0.3711128142421398, -0.7782595393727618, 0.5722545892517943, 0.602464368013913, 0.8906788293616124, 0.3264796402702923, 0.2768589838088438, -0.6907499233082592, 0.6379740363589503, -0.39000663819698445, 0.9540038160719038, 0.3424336393326728, -0.6456816807203685, -0.8388888578926952, 0.5623954584952455, 0.9313623982298012, 0.9366365545737012, 0.9717675360938418, 0.7891993093151195, 0.8309258755518678, 0.10480226702937956, 0.9283084448982086, 0.409336115502128, 0.9589636379059072, 0.31165922275561075, 0.9711042947834705, -0.34259325561154386, -0.49438637075205993, -0.9410166660570698, -0.5398612129865965, 0.10637895099068229, 0.3864338510008971, 0.09687345874263542, 0.47042248372117657, 0.5316244476079395, 0.15541454332143978, -0.21606017036905234, 0.47631937360504173, -0.2102422709548386, -0.3709024298700494, -0.5336737685639588, -0.9639693734889319, 0.15579141685731734, 0.03220748354876468, -0.8676395827244643, -0.6273055104726026, -0.07956622896050347, 0.4928259037538232, -0.17378100034047295, 0.6406851367707878, -0.6980703973142679, -0.3746440866251002, 0.6676616723769297, 0.32096097272251845, 0.3308120162177077, -0.7452471200529609, 0.8277110530867349, -0.7579174594178169, 0.2464453899871355, -0.5978215590072093, 0.8586341003873768, -0.2504889970463857, 0.9982144425163935, 0.9821546031404678, -0.33689545085438444, -0.2854336331855425, -0.36854193345473685, -0.5451007897388527, 0.16445844819058042, 0.13398280752551361, -0.8390408967309184, 0.27074696630935513, 0.10224362333254278, 0.3616875304312781, -0.7081684865690392, -0.017687567445785923, -0.06278378873964474, 0.8284076046599331, 0.7363205783830562, 0.3725092908110288, 0.3568647095379549, 0.8761604022278675, 0.7251937783262861, -0.7963246330668683, 0.0813703407094788, 0.2976139418639703, 0.7676713499804755, 0.972949495961734, 0.19664057201170015, 0.005253260979849017, 0.8105183141144099, -0.8876149574440493, -0.16300691402951406, 0.5323558865806064, -0.773295799918295, -0.11350031958065032, 0.16894695219466382, -0.852668775798284, 0.7684146105192386, 0.37017735000488416, 0.5274958514750094, 0.25459590888733086, -0.8478714799714269, -0.5048245547768049, -0.38544822600802164, 0.4035648779254939, -0.9077204901641482, -0.941756627827492, -0.6596984328853275, 0.296805592840901, -0.1814848369359392, 0.900950346526523, -0.8383020573534572, -0.39996024021083043, -0.23763268397556714,
-0.5374103652527054, 0.26290785580662246, 0.12993389952493972, 0.6271696443309673, 0.7742416185842602, -0.6154647324722125, 0.4834820847492274, -0.45097307773693496, -0.47478170946623766, 0.6448773010346833, -0.7847920932186161, -0.7626609075105577, 0.8514682738244321, -0.554243831437806, 0.7136058142299306, 0.8627016362227888, 0.7992326644835406, 0.08082997070096365, 0.40445158536104064, -0.5008105306367057, -0.6756929800807421, 0.7580083835537736, -0.16712221952745732, 0.6378143424197527, -0.638156230737507, -0.023998773345041302, -0.49690985510629937, 0.9086964219287252, 0.17510721969933307, 0.22590816447435347, 0.9806201496167437, 0.5627192432667572, -0.11654259483055984, -0.11249085594730701, -0.41971128272343794, 0.42283064447139584, 0.44154869935041097, 0.3767043928365381, 0.9656199302745263, -0.08368709590177703, 0.819519525456033, -0.5058781672395953, 0.5675268589789677, 0.6485958315984386, 0.7615257623853828, -0.33335799575074954, 0.4407189948148962, -0.6570900622459757, 0.4320833380602558, -0.854295215640597, -0.6823879927882481, -0.612984014373041, 0.00308178150212024, 0.6688208639555835, -0.02669273485474899, -0.34680643785045095, 0.24547382068735257, -0.35084930462577946, -0.011010515814283472, 0.35068192856781133, 0.8017926086594895, 0.8070052559500573, 0.6575690004765611, -0.8091380464129958, 0.430789642516308, -0.7782595393727618, 0.5722545892517943, 0.5720062706362534, 0.8906788293616124, 0.3264796402702923, 0.24727868011891196, -0.6907499233082592, -0.35920446046549803, -0.39000663819698445, 0.9540038160719038, 0.3424336393326728, 0.5027416470329089, 0.9392660654191463, 0.5623954584952455, 0.9313623982298012, 0.9366365545737012, 0.27354816187208364, -0.5166169903052866, 0.8309258755518678, 0.10480226702937956, 0.9283084448982086, 0.409336115502128, -0.7148572005935208, 0.31165922275561075, 0.9711042947834705, -0.34259325561154386, -0.49438637075205993, -0.9410166660570698, 0.466324920718844, 0.10637895099068229, 0.7568634984623572, 0.09687345874263542, 0.47042248372117657, 0.5316244476079395, -0.2408489864440484, -0.21606017036905234, 0.8446599090013822, -0.2102422709548386, -0.45349618950935633, 0.7998314470223724, -0.9151765289302363, 0.15579141685731734, 0.03220748354876468, -0.8308948363894122, 0.35822777931455385, -0.07956622896050347, 0.4928259037538232, -0.17378100034047295, -0.40131745387529016, 0.2959513547295367, -0.2576094054234299, 0.7717287467458418, -0.8512519916482648, 0.31355327750325657, -0.7494788313558458, 0.3394630323980672, -0.9630257844036487, 0.2464453899871355, -0.5978215590072093, 0.8586341003873768, -0.2504889970463857, 0.9982144425163935, 0.9821546031404678, -0.33689545085438444, -0.2854336331855425, -0.36854193345473685, -0.5451007897388527, 0.16445844819058042, 0.13398280752551361, -0.8390408967309184, -0.9715487423206688, 0.3638785165405094, -0.6104214810350235, 0.31216093174518744, -0.017687567445785923, -0.06278378873964474, -0.733917110794235, 0.7363205783830562, 0.3725092908110288, 0.3568647095379549, 0.8761604022278675, -0.8518581435897807, 0.873610652760725, 0.929160314227752, 0.863329615870212, -0.7072664079894961, 0.8700089806398537, -0.7244543067949545, -0.3396434219444342, 0.974616344612584, 0.2021469525347681, 0.028890820957665264, 0.6557884540606607, 0.8644821395835713, 0.5108388903460477, 0.36979292394706986, 0.32789380519777667, -0.9905959302074869, 0.5545003189746707, 0.48544182431726646, 0.6344215048017219, -0.9303704353588083, 0.2848813502345813, -0.34130597233275495, -0.10534432678845085, -0.1794624419885511, 0.5095381604326601, -0.5020210131361256, 0.3776894533479258, -0.9736985055811935, -0.6126795002596555, -0.2955650944519561, 0.03150697205653641, -0.23763268397556714,
0.5561554507937134, 0.7150697254471003, 0.47174426429871374, -0.7864851492242255, 0.11641680511531916, 0.47205236572048737, -0.6807854790417893, -0.7271717362451648, -0.9361067638155525, 0.5280130756007126, -0.0781251684750075, -0.26042790740288924, -0.7791596552723423, 0.1699216658434446, 0.5330147005822974, -0.6661047429450444, -0.6963442443834904, 0.6101983384825451, -0.7991837205113994, 0.37310268702167626, -0.22853556267857256, 0.18372471110689537, 0.7755790326495247, -0.4923153037425294, -0.6251778641668477, -0.023998773345041302, -0.35875625708872727, -0.13544982910994485, 0.21054929413920376, -0.09004195479411559, 0.654827140041581, -0.9579512027505428, -0.20202487004291947, 0.12515252449168446, -0.5851306272005601, 0.21118918463900727, -0.4666830479358024, 0.6644317916581826, 0.5246157631581483, 0.2096126542595529, 0.3541064609212612, 0.3039085495117988, -0.29173314350897406, -0.8076915242399978, -0.9808312057668263, 0.9686877514588212, 0.4524815954412207, -0.90785669190888, -0.646317765812201, 0.014400618126995113, 0.7280109889626383, -0.5268763627829074, -0.7027782446605444, 0.5310245963230746, 0.23221921111259114, 0.2636764589925138, -0.7581671946163646, 0.9724915563418164, 0.16476418608672194, 0.37034845354163926, -0.008946442229256224, 0.10276031691323806, -0.14583474229953874, -0.17950249424898845, 0.6644493137396406, -0.7384319080877424, -0.10621081797625731, -0.18604013342283698, -0.4890113718356872, 0.3299385581136165, 0.7069304328388495, -0.6907499233082592, -0.7853825964041292, -0.39000663819698445, 0.9540038160719038, 0.3424336393326728, 0.733532198388382, 0.9392660654191463, 0.5623954584952455, 0.9313623982298012, 0.9366365545737012, 0.9717675360938418, -0.5166169903052866, 0.8309258755518678, 0.10480226702937956, 0.3070488600148775, 0.409336115502128, -0.7148572005935208, 0.31165922275561075, 0.9711042947834705, -0.34259325561154386, -0.49438637075205993, -0.9410166660570698, 0.466324920718844, 0.10637895099068229, 0.7568634984623572, 0.09687345874263542, 0.47042248372117657, 0.5316244476079395, -0.2408489864440484, -0.21606017036905234, -0.8194102454935794, -0.21554489642663466, -0.9144846183121957, 0.7998314470223724, -0.9151765289302363, -0.8676838780011316, 0.03220748354876468, -0.6236941682878485, -0.7936041757351211, 0.48541658580589164, -0.3293444450933578, 0.18279207845071754, -0.40131745387529016, -0.18732804164864403, -0.3746440866251002, -0.8631652143180764, 0.4463817047922476, 0.01507060760321588, 0.7982836881264155, -0.9502824217543333, -0.7579174594178169, 0.5261436440209388, -0.5978215590072093, -0.5977993324242088, -0.39358648006626606, -0.6849882896268915, 0.14585881987820937, 0.5147164118929808, -0.5227196535342951, 0.7667140650556685, 0.5013378525132963, 0.15689776042032322, 0.13398280752551361, 0.6602217899379905, -0.577913575604327, -0.003920410959914911, -0.3997545193296619, -0.06365943821301334, -0.5489637400517977, 0.6890718505793294, -0.28739170911401724, -0.14019926683794148, 0.9163608549111211, 0.47289954708330284, 0.22472429538438865, -0.6666994187764055, -0.7963246330668683, 0.0813703407094788, 0.2976139418639703, 0.7676713499804755, 0.972949495961734, -0.640710472302993, 0.48840123109172606, -0.5429952180907558, -0.25728718949486895, 0.8671652420391742, -0.470126230179178, 0.8644821395835713, 0.5108388903460477, 0.9862359620807974, 0.32789380519777667, -0.9905959302074869, 0.07028425974075514, 0.47004641222152266, -0.1455415459955285, -0.5283964986350447, -0.7908113097484373, 0.7920339883484318, 0.47283943822157215, -0.7589357774605854, 0.6112851934122026, 0.7992028568805263, 0.5173133268445516, -0.15623864888107253, 0.900950346526523, 0.026756756872988507, -0.7824503243501117, -0.906776058087857,
-0.5374103652527054, 0.26290785580662246, 0.12993389952493972, 0.06312255965903169, 0.3933076535302178, -0.6154647324722125, 0.32775881536957185, 0.603379722589388, -0.9692757341748146, -0.8529599727832438, 0.8861064777860017, -0.833219153694531, 0.5403997145962611, -0.45389572224663244, 0.37253395324600413, -0.9908785950182779, -0.3074391586923073, -0.07785093187372705, 0.5622128798505934, -7.684191405930019E-4, -0.7115286892986679, -0.6297551399685202, -0.5434590482565165, -0.7978188770247681, 0.06650201146085788, 0.5523908172799967, -0.35875625708872727, -0.13544982910994485, -0.8149337824784626, 0.49444987521465644, 0.5448752660131926, -0.7598997087799402, -0.11654259483055984, 0.12515252449168446, -0.5851306272005601, 0.42283064447139584, 0.9695492941475043, 0.5316189369157098, 0.6970558116998933, 0.961265902502259, 0.5869005366886804, -0.41445171398588565, -0.9080721180951317, 0.6485958315984386, 0.7615257623853828, 0.9609654762852011, 0.9299573057833515, -0.6570900622459757, -0.7048664477271556, -0.854295215640597, 0.08941822812023248, -0.29187028818825067, 0.00308178150212024, 0.6688208639555835, 0.8596287403254144, -0.3642406533173552, 0.7092254617819649, -0.35084930462577946, -0.011010515814283472, 0.832994278420166, -0.9167271865544484, -0.7344270321612758, -0.9867314980370208, -0.27317577663860515, 0.6644493137396406, 0.7023472721223185, -0.872700731200915, -0.5183597223138339, 0.033502757262847904, 0.3299385581136165, -0.6201907350112934, -0.44098467814078957, 0.9662073761209662, 0.39401840099612406, 0.33443151530285653, 0.42864813971671256, 0.88419010984968, -0.5252204889370147, 0.10139375054590127, -0.9121056718511986, -0.5147507022435709, -0.8743443632011829, -0.11107259018827964, -0.8103820530048187, -0.16006770297304262, -0.8287704451759186, 0.8402177800343686, -0.9736531070857577, -0.09430671718815598, -0.07634042042435385, -0.8547634685013501, 0.009067548424425587, 0.368036816086976, -0.9812737755618761, -0.05012913025408339, 0.7025788665515975, -0.6021698243513103, -0.8170665889733566, 0.5316244476079395, 0.15541454332143978, 0.020547602775372376, 0.47631937360504173, -0.2102422709548386, -0.3709024298700494, -0.5336737685639588, -0.9639693734889319, 0.15579141685731734, 0.03220748354876468, 0.5292610110520346, 0.8257878986415075, -0.07956622896050347, 0.4928259037538232, -0.17378100034047295, 0.6406851367707878, 0.9308863490450363, 0.5334588986815831, -0.25388856553563666, 0.11416179674210403, -0.49125612641983896, -0.36727277076933507, -0.20259454795660825, 0.7135251283759969, 0.32190431945458653, -0.6788508430022384, 0.24877424307501728, -0.9699851797189663, 0.48856494452131694, -0.48208811053326706, 0.2750590983020671, -0.8877425545696627, -0.15447292996718853, -0.9073883668592357, 0.30799927227726376, 0.10454641915190854, -0.3974034887445068, -0.0013248234914857715, -0.025281902741149942, 0.31776667697777117, -0.22768681415157754, -0.5489637400517977, 0.6890718505793294, -0.28739170911401724, -0.14019926683794148, 0.9163608549111211, 0.47289954708330284, 0.22472429538438865, -0.6666994187764055, 0.5758980703160412, 0.0813703407094788, 0.2976139418639703, 0.7676713499804755, 0.972949495961734, -0.640710472302993, 0.48840123109172606, 0.056842765874171475, -0.5453185417946544, 0.8671652420391742, -0.470126230179178, -0.5980426632872364, 0.5108388903460477, 0.9862359620807974, 0.32789380519777667, 0.7450999396622378, 0.07028425974075514, 0.47004641222152266, 0.6344215048017219, -0.9303704353588083, 0.2848813502345813, 0.08184544027972973, -0.10534432678845085, -0.20135351408556534, -0.7033562689773201, -0.5020210131361256, -0.5569217121673389, -0.11692218947640476, -0.6126795002596555, -0.48081632286180853, 0.07039240495990162, -0.23763268397556714,
-0.8807113552833321, 0.26290785580662246, 0.47174426429871374, -0.20887754323912588, 0.11641680511531916, 0.2133282596363213, -0.6807854790417893, -0.7271717362451648, -0.22195587982066267, 0.5280130756007126, -0.0781251684750075, -0.3062748757459022, -0.3310596220576627, -0.40673748587855707, 0.7189691423226343, -0.6661047429450444, -0.6963442443834904, 5.087798984151348E-4, -0.7617163865995216, 0.37310268702167626, 0.41488183741439744, -0.8503439797204355, 0.7755790326495247, 0.6378143424197527, 0.06650201146085788, 0.2513800279973937, -0.35875625708872727, -0.13544982910994485, 0.7338452309769237, -0.09004195479411559, -0.01169020349011296, 0.10182171294937592, 0.14369909133400283, -0.5986820931839811, 0.12610670247705902, 0.9467822603824572, 0.9613722933036599, -0.9314625524891971, -0.49625365757989415, -0.8189617153855155, 0.31068660225684486, -0.8707439756212989, -0.2807310109099024, -0.8508218041459688, 0.8985159252381116, 0.7460349884154911, 0.9314720965618268, 0.2463977945309932, -0.7746546480773044, -0.5572709263253945, -0.8486109646847624, 0.2307421647231871, 0.44494626120280434, 0.6744893506177803, 0.9538667594857149, -0.9403274043473644, 0.961853988520567, -0.35084930462577946, 0.08031172640022066, -0.18616723740220298, -0.1268368392803778, 0.14478395050050286, 0.6575690004765611, 0.6240042563822705, -0.9201353382572279, -0.7384319080877424, -0.10621081797625731, -0.18604013342283698, 0.31035802784542366, 0.3299385581136165, 0.09417136570238283, -0.44098467814078957, 0.21068152220543457, 0.7043346590828874, 0.1379479686149372, 0.5177845273981423, -0.6523546561377198, -0.8388888578926952, 0.5623954584952455, 0.9313623982298012, 0.9366365545737012, 0.9717675360938418, 0.7439671817259745, 0.8309258755518678, 0.10480226702937956, 0.9283084448982086, 0.409336115502128, -0.7148572005935208, 0.31165922275561075, 0.9711042947834705, 0.4814570751728533, -0.49438637075205993, -0.9410166660570698, -0.5398612129865965, 0.10637895099068229, 0.3864338510008971, 0.09687345874263542, 0.47042248372117657, 0.5316244476079395, 0.15541454332143978, -0.18354582464405467, 0.47631937360504173, -0.2102422709548386, -0.3709024298700494, -0.5336737685639588, -0.9639693734889319, 0.15579141685731734, 0.03220748354876468, 0.5292610110520346, 0.789084240806464, -0.07956622896050347, 0.4928259037538232, -0.17378100034047295, 0.6406851367707878, 0.9308863490450363, 0.5334588986815831, -0.25388856553563666, -0.9743624880927992, -0.053294899836550336, -0.05257710377647817, -0.20259454795660825, 0.7135251283759969, 0.32190431945458653, -0.6788508430022384, 0.24877424307501728, -0.9699851797189663, -0.6930198529936067, -0.48208811053326706, 0.2750590983020671, 0.6580807918309393, -0.15447292996718853, 0.8125342556102535, 0.30799927227726376, 0.10454641915190854, -0.573747217759571, 0.27074696630935513, 0.6361835735296675, 0.8066381804681162, -0.4799167091060368, 0.4203049901237115, 0.8785878306301764, -0.733917110794235, -0.09612469383076494, -0.53367702783064, -0.8180984615358855, -0.30793140850750844, -0.2304130947973344, -0.7963246330668683, -0.7623646417413015, 0.38393313331129786, 0.7676713499804755, -0.8142051756054514, 0.17069324837540267, -0.020089947010972775, -0.9758242367885372, -0.2062418245560782, -0.16300691402951406, 0.5323558865806064, -0.773295799918295, -0.11350031958065032, 0.06015896593260717, -0.2681551070710746, 0.7684146105192386, 0.37017735000488416, 0.5274958514750094, 0.25459590888733086, -0.8478714799714269, -0.5048245547768049, 0.7771659046466217, 0.4035648779254939, -0.9077204901641482, -0.941756627827492, -0.390997330182425, -0.5569217121673389, -0.15500610795956815, -0.6126795002596555, 0.6636399203823191, 0.43698290569873843, -0.23763268397556714,
0.4079482381939865, 0.2641270874428605, 0.7029817826977545, -0.8938648453687552, 0.4974333136925546, -0.35907334041075467, 0.8254865408071339, -0.45097307773693496, -0.47478170946623766, 0.6448773010346833, -0.3999960481527052, -0.7626609075105577, -0.2527544905586243, -0.554243831437806, 0.25107466832520475, 0.8627016362227888, 0.7578585522821786, 0.08082997070096365, 0.40445158536104064, -0.5008105306367057, -0.6756929800807421, 0.3243577847492891, -0.16712221952745732, -0.21108327894421186, -0.638156230737507, -0.023998773345041302, -0.49690985510629937, 0.9086964219287252, 0.13667966123699204, 0.22590816447435347, 0.5676851700141898, 0.10182171294937592, 0.14369909133400283, -0.5986820931839811, 0.12610670247705902, 0.9467822603824572, 0.6510648879764387, 0.6035317205658508, -0.49625365757989415, -0.8189617153855155, 0.31068660225684486, 0.4569010249894334, 0.6011246400241355, 0.6485958315984386, 0.7615257623853828, -0.05511430951209273, 0.4407189948148962, -0.6570900622459757, -0.8411420259835061, 0.6600701205538517, -0.7617159603392969, -0.29187028818825067, 0.00308178150212024, 0.6688208639555835, 0.8596287403254144, -0.9403274043473644, 0.961853988520567, -0.35084930462577946, -0.011010515814283472, -0.18616723740220298, 0.08948402270450773, 0.14478395050050286, 0.6575690004765611, 0.6240042563822705, -0.26672119586973597, -0.7384319080877424, -0.7364103737869361, 0.602464368013913, 0.30098747808461734, 0.3264796402702923, 0.2768589838088438, -0.018700123921150613, 0.6379740363589503, 0.308691019196744, -0.5438599338361929, -0.21385410180634445, 0.8325005912212189, -0.40111156435871864, 0.10139375054590127, -0.06324845637185272, -0.5147507022435709, -0.8743443632011829, -0.2918223612585322, 0.5581206032248685, -0.44488463767226816, -0.6154544646017637, -0.7076820258836556, 0.8183454182835852, 0.31165922275561075, 0.9711042947834705, -0.34259325561154386, -0.49438637075205993, -0.2128684034510573, -0.40643532425965745, 0.5953727960934583, 0.6019646941330332, 0.03445696493191863, -0.6232127823041631, 0.5316244476079395, 0.3765399500786373, -0.21606017036905234, 0.8446599090013822, -0.2102422709548386, -0.38374280806323813, -0.5336737685639588, -0.6512677074390489, 0.15579141685731734, -0.21644747781778784, 0.5292610110520346, -0.7259148740035144, -0.07956622896050347, 0.4928259037538232, 0.16501519203725556, -0.9479068504569723, 0.45706300218765894, -0.29015470262434295, -0.5532021152663322, 0.8363229110220505, -0.4087662447917093, 0.8397143228742188, 0.7205597953053484, 0.5573588877926545, 0.42753607352954837, 0.7159633550778588, 0.31157717095408355, -0.8692036185733869, 0.9982144425163935, -0.9652020747014123, 0.5147164118929808, 0.9959938117604197, -0.21316809896441025, 0.8986269821477328, 0.3227589099376753, 0.13398280752551361, -0.47479334465844336, -0.3012044883155536, 0.6361835735296675, 0.8066381804681162, -0.4799167091060368, 0.5115408283081924, -0.6648350694475265, -0.733917110794235, -0.940476899964048, 0.401962920924932, -0.7087048566975451, 0.4735827501980967, -0.600810779389229, 0.5215318848218724, 0.180065538291047, 0.863329615870212, -0.984334706009218, 0.8871850654823721, -0.08262519629740295, -0.3396434219444342, 0.974616344612584, -0.3542101395613433, 0.731258897511363, -0.9852903783926148, -0.03472653762407485, -0.5224920384525544, 0.5405712427999125, 0.5569693126231099, -0.45139083766136623, 0.13923307653839645, 0.5065488263480036, -0.03904156468844722, -0.9845797594689147, 0.8604805607530546, -0.34130597233275495, -0.10534432678845085, -0.20135351408556534, -0.03680982844796743, -0.7195529057850161, -0.04938514197240873, -0.8728227100957267, 0.15548513482087167, -0.5919941344301636, -0.22078136259302683, -0.39158228955006313,
-0.5374103652527054, 0.26290785580662246, 0.6908027281530977, 0.06312255965903169, 0.7742416185842602, -0.6154647324722125, 0.4834820847492274, -0.45097307773693496, -0.47478170946623766, 0.6448773010346833, -0.3999960481527052, -0.7626609075105577, 0.8514682738244321, 0.902668696482364, 0.7136058142299306, 0.8627016362227888, 0.7992326644835406, 0.08082997070096365, 0.40445158536104064, -0.5008105306367057, -0.6756929800807421, 0.7580083835537736, -0.16712221952745732, 0.6378143424197527, -0.638156230737507, -0.023998773345041302, -0.49690985510629937, 0.9086964219287252, 0.17510721969933307, 0.22590816447435347, 0.9806201496167437, 0.5627192432667572, -0.11654259483055984, -0.11249085594730701, -0.5851306272005601, 0.42283064447139584, 0.44154869935041097, 0.5316189369157098, 0.9656199302745263, -0.5693534661345543, 0.819519525456033, -0.5058781672395953, 0.5675268589789677, 0.6485958315984386, 0.7615257623853828, -0.33335799575074954, 0.4407189948148962, -0.6570900622459757, 0.4320833380602558, -0.854295215640597, -0.6823879927882481, -0.612984014373041, 0.00308178150212024, -0.11739376399713941, -0.02669273485474899, 0.3076681889160031, 0.24547382068735257, -0.35084930462577946, -0.011010515814283472, 0.35068192856781133, 0.8017926086594895, 0.8070052559500573, 0.6575690004765611, -0.8091380464129958, 0.430789642516308, -0.42371046248102573, 0.5722545892517943, 0.602464368013913, 0.8906788293616124, 0.3264796402702923, -0.5481113280415035, 0.5190415973965008, 0.6379740363589503, -0.39000663819698445, 0.9540038160719038, 0.3424336393326728, 0.5027416470329089, 0.9392660654191463, 0.5623954584952455, 0.9313623982298012, 0.9366365545737012, 0.9717675360938418, -0.5166169903052866, 0.4705027854643986, 0.10480226702937956, 0.9283084448982086, 0.409336115502128, -0.7148572005935208, 0.31165922275561075, 0.9711042947834705, -0.34259325561154386, -0.49438637075205993, -0.9410166660570698, 0.466324920718844, 0.10637895099068229, 0.7568634984623572, 0.09687345874263542, 0.47042248372117657, 0.5316244476079395, -0.2408489864440484, -0.21606017036905234, 0.8446599090013822, 0.30385057405316407, -0.3709024298700494, 0.7751082678537426, 0.6466596567859964, -0.842303446368369, 0.189923879101342, -0.6236941682878485, 0.7389150421763926, 0.6375559092899079, -0.1660072716882921, -0.17378100034047295, 0.233688304266505, -0.2646480233607249, -0.35665845722687806, -0.053034620390646214, 0.7120643731280247, 0.6189620442628692, -0.32348698609085114, 0.024539812858459076, -0.7579174594178169, 0.5261436440209388, -0.5978215590072093, -0.8534505070031655, 0.8944363662148593, -0.25633379118474675, 0.6086755340220569, -0.6083139024242135, 0.9959938117604197, 0.9185422987433851, 0.9310036011847733, 0.42574762719247805, 0.4685632166530507, -0.47479334465844336, -0.577913575604327, -0.27822291980805436, -0.3453883166985756, -0.06365943821301334, 0.12602806989531423, -0.06278378873964474, -0.733917110794235, 0.7363205783830562, -0.08894106237583732, 0.3568647095379549, 0.004759199640393286, 0.7251937783262861, -0.037758834567996225, -0.43685058623175177, 0.9794231549171859, 0.8926164334091411, 0.14324363990915967, -0.7547329108671337, -0.4451831308209464, 0.3747797753276767, -0.38054412904507773, 0.5486926527620186, 0.6557884540606607, 0.23684066197005094, -0.41381439323050406, 0.49856082906943233, 0.32789380519777667, 0.7942165302066915, 0.07028425974075514, 0.5274958514750094, 0.25459590888733086, -0.8478714799714269, -0.5048245547768049, -0.38544822600802164, -0.34848140982480946, -0.9077204901641482, 0.2699059635531271, -0.6596984328853275, 0.296805592840901, -0.1814848369359392, -0.6126795002596555, -0.2955650944519561, 0.03150697205653641, -0.23763268397556714,
0.27934025038980836, 0.10421705765820266, -0.007860630040343208, 0.3798864256854255, 0.6987951661398508, 0.6114036607751401, 0.2785528848083554, -0.45097307773693496, -0.47478170946623766, 0.6448773010346833, -0.3999960481527052, -0.7626609075105577, -0.773079775161486, -0.554243831437806, 0.25107466832520475, 0.8627016362227888, 0.7578585522821786, 0.08082997070096365, 0.40445158536104064, -0.5008105306367057, -0.6756929800807421, 0.7580083835537736, -0.16712221952745732, -0.21108327894421186, -0.638156230737507, -0.023998773345041302, -0.49690985510629937, 0.9086964219287252, 0.13667966123699204, 0.22590816447435347, 0.5676851700141898, 0.10182171294937592, 0.14369909133400283, -0.5986820931839811, 0.12610670247705902, 0.9467822603824572, -0.890683966535567, 0.6035317205658508, -0.49625365757989415, -0.8189617153855155, 0.31068660225684486, 0.4569010249894334, -0.2807310109099024, 0.6485958315984386, 0.7615257623853828, -0.05511430951209273, 0.4407189948148962, -0.6570900622459757, -0.9425301997671844, 0.6600701205538517, -0.7617159603392969, -0.5268763627829074, -0.7027782446605444, 0.5310245963230746, 0.23221921111259114, 0.2636764589925138, -0.7581671946163646, 0.9724915563418164, 0.16476418608672194, 0.37034845354163926, -0.008946442229256224, 0.21757532442961414, -0.14583474229953874, -0.17950249424898845, 0.6644493137396406, -0.7384319080877424, -0.10621081797625731, -0.18604013342283698, -0.4890113718356872, 0.3299385581136165, 0.7069304328388495, -0.6907499233082592, 0.6379740363589503, -0.39000663819698445, 0.9540038160719038, 0.3424336393326728, 0.733532198388382, 0.9392660654191463, 0.5623954584952455, 0.9313623982298012, 0.9366365545737012, 0.9717675360938418, -0.5166169903052866, 0.8309258755518678, 0.10480226702937956, 0.9283084448982086, 0.409336115502128, -0.7148572005935208, 0.31165922275561075, 0.9711042947834705, -0.34259325561154386, -0.49438637075205993, -0.9410166660570698, 0.466324920718844, 0.10637895099068229, 0.7568634984623572, 0.09687345874263542, 0.47042248372117657, 0.5316244476079395, -0.2408489864440484, -0.21606017036905234, -0.8194102454935794, -0.21554489642663466, -0.4378064415068583, 0.7998314470223724, -0.9151765289302363, 0.15579141685731734, 0.03220748354876468, -0.6236941682878485, -0.7936041757351211, 0.48541658580589164, -0.3293444450933578, 0.18279207845071754, -0.40131745387529016, -0.18732804164864403, -0.3746440866251002, -0.8631652143180764, 0.5576649179360522, 0.01507060760321588, 0.7982836881264155, 0.024539812858459076, -0.7579174594178169, 0.5261436440209388, -0.5978215590072093, -0.5977993324242088, -0.39358648006626606, -0.6849882896268915, 0.14585881987820937, -0.8861319225552253, 0.7439933755909929, 0.7667140650556685, 0.5013378525132963, 0.15689776042032322, 0.13398280752551361, -0.47479334465844336, -0.577913575604327, -0.003920410959914911, -0.3997545193296619, -0.06365943821301334, -0.5489637400517977, 0.6890718505793294, -0.28739170911401724, -0.14019926683794148, 0.9163608549111211, 0.47289954708330284, 0.22472429538438865, -0.6666994187764055, -0.7963246330668683, 0.0813703407094788, 0.2976139418639703, 0.7676713499804755, 0.972949495961734, -0.640710472302993, 0.48840123109172606, -0.5429952180907558, -0.25728718949486895, 0.8671652420391742, -0.470126230179178, 0.8644821395835713, 0.5108388903460477, 0.49856082906943233, 0.721802425009161, 0.38861058435341667, 0.7933587830915296, 0.47004641222152266, 0.6344215048017219, -0.9912819069676184, 0.2848813502345813, -0.930835235799651, -0.3968165097072798, -0.5109404209718651, -0.9424338254309053, -0.23900530467957393, -0.04938514197240873, -0.8753297363158861, 0.15548513482087167, -0.5919941344301636, -0.9018943801877741, -0.39158228955006313,
0.5561554507937134, 0.7150697254471003, 0.47174426429871374, -0.7864851492242255, 0.11641680511531916, 0.47205236572048737, -0.6807854790417893, -0.7271717362451648, -0.9361067638155525, 0.5280130756007126, -0.0781251684750075, -0.26042790740288924, -0.7791596552723423, 0.1699216658434446, 0.5330147005822974, -0.6661047429450444, -0.6963442443834904, 0.6101983384825451, -0.7991837205113994, 0.37310268702167626, -0.22853556267857256, 0.18372471110689537, 0.7755790326495247, -0.4923153037425294, -0.6251778641668477, -0.023998773345041302, -0.35875625708872727, -0.13544982910994485, 0.21054929413920376, -0.09004195479411559, 0.654827140041581, -0.9579512027505428, -0.20202487004291947, 0.12515252449168446, -0.5851306272005601, 0.21118918463900727, -0.4666830479358024, 0.6644317916581826, 0.5246157631581483, 0.2096126542595529, 0.3541064609212612, 0.3039085495117988, -0.29173314350897406, -0.8076915242399978, -0.9808312057668263, 0.9686877514588212, 0.4524815954412207, -0.90785669190888, -0.646317765812201, 0.014400618126995113, 0.7280109889626383, -0.29187028818825067, 0.00308178150212024, 0.6688208639555835, 0.8596287403254144, -0.9403274043473644, 0.961853988520567, -0.35084930462577946, -0.011010515814283472, -0.18616723740220298, 0.08948402270450773, 0.14478395050050286, 0.6575690004765611, 0.6240042563822705, -0.26672119586973597, -0.7384319080877424, 0.5722545892517943, 0.602464368013913, 0.30098747808461734, 0.3264796402702923, 0.2768589838088438, -0.6907499233082592, 0.6379740363589503, 0.308691019196744, -0.49673176391376517, -0.07871796495016392, 0.8325005912212189, -0.40111156435871864, 0.10139375054590127, 0.6442384702859061, -0.5147507022435709, 0.8141270288084277, -0.2918223612585322, 0.5581206032248685, -0.44488463767226816, -0.6154544646017637, -0.7076820258836556, 0.8183454182835852, 0.31165922275561075, 0.9711042947834705, -0.34259325561154386, -0.49438637075205993, -0.2128684034510573, -0.497724331416032, 0.5953727960934583, 0.6019646941330332, 0.03445696493191863, -0.6232127823041631, 0.5316244476079395, 0.9640576284187234, -0.21606017036905234, 0.8446599090013822, -0.2102422709548386, -0.38374280806323813, -0.5336737685639588, 0.7560538760489006, 0.15579141685731734, -0.21644747781778784, 0.5292610110520346, -0.7259148740035144, -0.07956622896050347, 0.4928259037538232, 0.16501519203725556, -0.9479068504569723, 0.45706300218765894, -0.29015470262434295, -0.5532021152663322, 0.8363229110220505, -0.4087662447917093, 0.08709208546652403, 0.7205597953053484, 0.5573588877926545, 0.1872567035722239, 0.6814277925741679, 0.31157717095408355, -0.8692036185733869, 0.9982144425163935, -0.9652020747014123, -0.8458808382252556, 0.9959938117604197, 0.9185422987433851, 0.5013378525132963, 0.3227589099376753, 0.13398280752551361, -0.47479334465844336, 0.6017333812682855, 0.6361835735296675, 0.8066381804681162, -0.4799167091060368, 0.5115408283081924, -0.6648350694475265, -0.733917110794235, -0.940476899964048, 0.401962920924932, -0.7087048566975451, 0.4735827501980967, -0.600810779389229, 0.5215318848218724, 0.180065538291047, 0.863329615870212, -0.984334706009218, -0.6552658508592193, 0.6720446610585404, -0.3396434219444342, 0.974616344612584, -0.3542101395613433, 0.028890820957665264, 0.6557884540606607, 0.7284976498728992, 0.3088518926753132, 0.9862359620807974, 0.32789380519777667, -0.9905959302074869, 0.07028425974075514, 0.47004641222152266, -0.4565157193670901, -0.5283964986350447, -0.7908113097484373, 0.7920339883484318, 0.47283943822157215, -0.7589357774605854, 0.6112851934122026, 0.7992028568805263, 0.5173133268445516, -0.15623864888107253, 0.900950346526523, 0.026756756872988507, -0.7824503243501117, -0.906776058087857,
-0.5374103652527054, 0.26290785580662246, 0.12993389952493972, 0.06312255965903169, 0.3933076535302178, 0.012708582408425206, 0.32775881536957185, 0.9718746137846455, -0.21498527403044898, -0.8529599727832438, 0.8861064777860017, -0.833219153694531, 0.5403997145962611, -0.45389572224663244, 0.37253395324600413, 0.023612719017033212, -0.3074391586923073, 0.6017632008560678, 0.5622128798505934, -0.9055382403873746, -0.7115286892986679, -0.8688506159332627, -0.5434590482565165, -0.7978188770247681, 0.06650201146085788, -0.9287191585997083, -0.8907825369860427, -0.13544982910994485, 0.1604483341701115, 0.49444987521465644, 0.5448752660131926, -0.09177253918297867, -0.8147651557807076, 0.11789530579602525, -0.22926546558377736, -0.2001601136605915, 0.9954375383463647, 0.7426549533047302, 0.9656199302745263, -0.08368709590177703, 0.819519525456033, -0.5058781672395953, 0.5675268589789677, 0.6485958315984386, 0.7615257623853828, -0.33335799575074954, 0.4407189948148962, -0.8735933476656896, 0.4320833380602558, -0.854295215640597, -0.6823879927882481, -0.29187028818825067, 0.00308178150212024, 0.6688208639555835, -0.714397969534116, -0.2643888211852996, 0.24547382068735257, -0.35084930462577946, -0.011010515814283472, 0.35068192856781133, 0.8017926086594895, 0.6762191458210842, -0.6165023066311499, -0.8091380464129958, 0.430789642516308, -0.07548827682360693, 0.5722545892517943, 0.602464368013913, 0.8906788293616124, 0.3264796402702923, -0.8968007134885005, 0.03941310026118372, 0.6379740363589503, -0.39000663819698445, 0.9540038160719038, 0.3424336393326728, -0.6456816807203685, -0.8388888578926952, 0.5623954584952455, 0.9313623982298012, 0.9366365545737012, 0.9717675360938418, 0.7891993093151195, 0.8309258755518678, 0.10480226702937956, -0.9551799879110359, 0.8956366179040449, -0.4958889578456358, 0.31165922275561075, 0.9711042947834705, -0.34259325561154386, -0.49438637075205993, -0.2128684034510573, -0.40643532425965745, 0.5953727960934583, -0.5988161605447626, 0.09687345874263542, 0.47042248372117657, 0.5316244476079395, 0.970523143108383, -0.21606017036905234, 0.8446599090013822, -0.2102422709548386, -0.3709024298700494, 0.7998314470223724, -0.9151765289302363, 0.15579141685731734, 0.03220748354876468, 0.5292610110520346, -0.6273055104726026, -0.07956622896050347, 0.4928259037538232, -0.17378100034047295, -0.40131745387529016, -0.363982602784104, -0.3825133784336987, -0.5532021152663322, 0.8363229110220505, -0.4087662447917093, 0.8397143228742188, 0.7205597953053484, 0.5573588877926545, 0.42753607352954837, 0.6814277925741679, 0.31157717095408355, -0.8692036185733869, 0.9982144425163935, -0.9652020747014123, 0.3120429355434182, -0.4300828977477342, 0.9185422987433851, 0.5013378525132963, 0.3227589099376753, 0.13398280752551361, -0.47479334465844336, -0.3012044883155536, 0.6361835735296675, -0.23942638437022712, -0.4799167091060368, -0.14621280100439038, -0.6648350694475265, -0.5050538116855916, 0.7308802398709948, -0.53367702783064, -0.7087048566975451, 0.4735827501980967, 0.13671875452175697, 0.5215318848218724, 0.180065538291047, 0.863329615870212, -0.984334706009218, 0.8871850654823721, -0.08262519629740295, -0.3396434219444342, 0.974616344612584, -0.3236433322838974, 0.24872502187156265, -0.9852903783926148, 0.927035301371024, -0.5224920384525544, 0.5405712427999125, -0.888324731386045, -0.45139083766136623, 0.44512296646066685, 0.5065488263480036, -0.03904156468844722, -0.9845797594689147, 0.8604805607530546, -0.34130597233275495, -0.10534432678845085, -0.6929191833575172, 0.3062948915461021, -0.5020210131361256, -0.5569217121673389, -0.11692218947640476, -0.6126795002596555, -0.48081632286180853, 0.07039240495990162, -0.23763268397556714,
-0.5374103652527054, 0.26290785580662246, 0.07422521372130819, 0.06312255965903169, 0.3933076535302178, -0.6154647324722125, 0.4834820847492274, -0.45097307773693496, -0.47478170946623766, 0.6448773010346833, -0.3999960481527052, -0.7626609075105577, 0.8514682738244321, -0.554243831437806, 0.7136058142299306, -0.35683726002018323, 0.7556017188931561, 0.08082997070096365, 0.40445158536104064, -0.5008105306367057, -0.6756929800807421, 0.7580083835537736, -0.16712221952745732, 0.05767140748137889, -0.638156230737507, 0.6103801082267586, -0.49690985510629937, -0.13544982910994485, -0.13008946437739088, 0.49444987521465644, 0.5448752660131926, -0.09177253918297867, -0.11654259483055984, 0.12515252449168446, -0.5851306272005601, 0.42283064447139584, 0.9695492941475043, 0.5316189369157098, 0.7033111236921163, 0.5309626674701888, 0.819519525456033, -0.5058781672395953, -0.9235202339229287, 0.6485958315984386, 0.7615257623853828, -0.33335799575074954, -0.059277012019023134, -0.6570900622459757, 0.4320833380602558, -0.854295215640597, -0.6823879927882481, -0.8534497247688515, 0.00308178150212024, 0.6688208639555835, -0.02669273485474899, -0.2643888211852996, 0.24547382068735257, -0.35084930462577946, -0.011010515814283472, 0.35068192856781133, 0.1884724952350465, 0.8070052559500573, 0.6575690004765611, -0.8091380464129958, 0.3711128142421398, -0.7782595393727618, 0.5722545892517943, 0.602464368013913, 0.8906788293616124, 0.3264796402702923, 0.2768589838088438, -0.6907499233082592, 0.6379740363589503, -0.39000663819698445, 0.9540038160719038, 0.3424336393326728, 0.5027416470329089, 0.9392660654191463, 0.5623954584952455, 0.9313623982298012, 0.9366365545737012, 0.9717675360938418, 0.7891993093151195, 0.8309258755518678, 0.10480226702937956, 0.9283084448982086, 0.409336115502128, 0.9589636379059072, 0.31165922275561075, 0.9711042947834705, -0.34259325561154386, -0.49438637075205993, -0.9410166660570698, -0.5398612129865965, 0.10637895099068229, 0.3864338510008971, -0.0957471293122314, -0.43696614935134903, -0.5803956414373952, 0.15541454332143978, -0.21606017036905234, 0.47631937360504173, -0.2102422709548386, -0.3709024298700494, -0.5336737685639588, -0.9639693734889319, 0.15579141685731734, 0.03220748354876468, 0.5292610110520346, -0.6273055104726026, -0.07956622896050347, 0.4928259037538232, -0.17378100034047295, 0.6406851367707878, -0.6980703973142679, -0.3746440866251002, 0.6676616723769297, 0.32096097272251845, 0.3308120162177077, 0.7657017514636226, 0.8277110530867349, -0.7579174594178169, 0.2464453899871355, -0.5978215590072093, 0.8586341003873768, -0.2504889970463857, 0.9982144425163935, 0.9821546031404678, -0.33689545085438444, -0.2854336331855425, -0.36854193345473685, -0.5451007897388527, 0.16445844819058042, 0.13398280752551361, -0.8390408967309184, 0.27074696630935513, 0.10224362333254278, 0.3616875304312781, -0.7081684865690392, -0.017687567445785923, -0.06278378873964474, 0.8284076046599331, 0.7363205783830562, 0.3725092908110288, 0.3568647095379549, 0.8761604022278675, 0.7251937783262861, -0.7963246330668683, 0.0813703407094788, 0.2976139418639703, 0.7676713499804755, 0.972949495961734, 0.19664057201170015, 0.005253260979849017, 0.8105183141144099, -0.8876149574440493, -0.16300691402951406, 0.5415396113300663, -0.773295799918295, -0.11350031958065032, 0.16894695219466382, -0.6779227023611525, 0.7684146105192386, 0.37017735000488416, 0.5274958514750094, 0.25459590888733086, -0.8478714799714269, -0.5048245547768049, -0.38544822600802164, 0.4035648779254939, -0.9077204901641482, -0.941756627827492, -0.6596984328853275, 0.296805592840901, -0.1814848369359392, 0.900950346526523, -0.8383020573534572, -0.39996024021083043, -0.23763268397556714,
-0.5374103652527054, 0.26290785580662246, 0.12993389952493972, 0.6271696443309673, 0.7742416185842602, -0.6154647324722125, -0.9177703458804964, -0.45097307773693496, -0.47478170946623766, 0.6448773010346833, -0.7847920932186161, -0.7626609075105577, 0.8514682738244321, -0.554243831437806, 0.7136058142299306, 0.8627016362227888, -0.10815860110025288, 0.08082997070096365, 0.07464978436145686, -0.5008105306367057, -0.6756929800807421, 0.7580083835537736, -0.16712221952745732, 0.6378143424197527, -0.638156230737507, -0.023998773345041302, -0.49690985510629937, 0.9086964219287252, 0.17510721969933307, 0.22590816447435347, 0.9806201496167437, 0.5627192432667572, -0.11654259483055984, -0.11249085594730701, -0.41971128272343794, 0.42283064447139584, 0.44154869935041097, 0.3767043928365381, 0.9656199302745263, -0.08368709590177703, 0.819519525456033, -0.5058781672395953, 0.5675268589789677, 0.6485958315984386, 0.7615257623853828, -0.33335799575074954, 0.4407189948148962, -0.6570900622459757, 0.4320833380602558, -0.854295215640597, -0.6823879927882481, -0.612984014373041, 0.00308178150212024, 0.6688208639555835, -0.02669273485474899, -0.34680643785045095, 0.24547382068735257, -0.35084930462577946, -0.011010515814283472, 0.35068192856781133, 0.8017926086594895, 0.8070052559500573, 0.6575690004765611, -0.8091380464129958, 0.430789642516308, -0.7782595393727618, 0.5722545892517943, 0.602464368013913, 0.8906788293616124, 0.3264796402702923, 0.24727868011891196, -0.6907499233082592, -0.35920446046549803, -0.39000663819698445, 0.9540038160719038, 0.3424336393326728, 0.5027416470329089, 0.9392660654191463, 0.5623954584952455, 0.9313623982298012, 0.9366365545737012, 0.9717675360938418, -0.5166169903052866, -0.6710002700774833, 0.10480226702937956, 0.9283084448982086, 0.409336115502128, -0.7148572005935208, 0.31165922275561075, 0.9711042947834705, -0.34259325561154386, -0.49438637075205993, -0.9410166660570698, 0.466324920718844, 0.5953727960934583, 0.6019646941330332, -0.847631168580038, -0.6232127823041631, 0.5316244476079395, 0.9640576284187234, -0.21606017036905234, 0.8446599090013822, -0.2102422709548386, 0.6725404305624292, -0.5336737685639588, -0.6151277748419433, 0.15579141685731734, -0.21644747781778784, 0.5292610110520346, -0.7259148740035144, -0.07956622896050347, 0.4928259037538232, 0.16501519203725556, -0.9479068504569723, -0.6980703973142679, -0.3825133784336987, -0.5532021152663322, 0.8363229110220505, 0.31355327750325657, -0.7494788313558458, 0.3394630323980672, -0.9630257844036487, 0.2464453899871355, -0.5978215590072093, 0.8586341003873768, -0.2504889970463857, 0.9982144425163935, 0.9821546031404678, 0.43230293826272503, -0.2854336331855425, -0.36854193345473685, -0.5451007897388527, 0.16445844819058042, 0.13398280752551361, -0.8390408967309184, -0.9715487423206688, 0.3638785165405094, -0.6104214810350235, 0.31216093174518744, -0.017687567445785923, -0.06278378873964474, -0.733917110794235, 0.7363205783830562, 0.3725092908110288, 0.3568647095379549, 0.8761604022278675, -0.8518581435897807, 0.873610652760725, 0.929160314227752, 0.863329615870212, -0.7072664079894961, 0.8700089806398537, -0.7244543067949545, -0.3396434219444342, 0.974616344612584, 0.2021469525347681, 0.028890820957665264, 0.6557884540606607, 0.8644821395835713, 0.5108388903460477, 0.36979292394706986, 0.32789380519777667, -0.9905959302074869, 0.5545003189746707, 0.48544182431726646, 0.6344215048017219, -0.9303704353588083, 0.2848813502345813, -0.34130597233275495, -0.10534432678845085, -0.1794624419885511, 0.5095381604326601, -0.5020210131361256, 0.3776894533479258, -0.9736985055811935, -0.6126795002596555, -0.2955650944519561, 0.03150697205653641, -0.23763268397556714,
0.27934025038980836, 0.10421705765820266, -0.007860630040343208, 0.3798864256854255, -0.8121141598021879, 0.5118016484751273, 0.2785528848083554, -0.4973415292853012, 0.14996658258163253, 0.6183112081233988, 0.31502684024744165, 0.567507389444224, -0.8638196533073363, -0.6064569658980219, 0.5888008894756038, 0.9374060723483641, -0.04064929767177983, 0.6203768019720819, 0.6068471421383601, 0.09765297531473904, -0.5546233505362672, 0.23654823035673012, -0.965790239265395, 0.6378143424197527, 0.8701303084131446, 0.6379264423505207, 0.6201826155569248, -0.44559465038298995, 0.842283968713387, -0.09004195479411559, -0.09780088502756756, -0.9579512027505428, -0.20202487004291947, -0.9681519352288157, -0.5851306272005601, -0.2001601136605915, 0.9954375383463647, 0.7426549533047302, 0.5246157631581483, 0.8981960983564399, 0.3541064609212612, 0.3039085495117988, -0.29173314350897406, 0.7989391325297259, -0.9808312057668263, -0.006558402408664454, 0.4524815954412207, -0.90785669190888, -0.6050496833770498, -0.5567682182646547, 0.43980684506265266, -0.5268763627829074, 0.535816020546493, 0.5310245963230746, 0.23221921111259114, 0.2636764589925138, -0.7581671946163646, 0.9724915563418164, 0.16476418608672194, 0.37034845354163926, -0.39458593915370876, 0.21757532442961414, -0.14583474229953874, -0.17950249424898845, 0.6644493137396406, -0.7384319080877424, -0.10621081797625731, -0.18604013342283698, -0.4890113718356872, 0.3299385581136165, 0.7069304328388495, -0.44098467814078957, 0.21068152220543457, 0.39401840099612406, 0.4845641179168838, 0.5177845273981423, -0.3028578661892456, -0.5252204889370147, 0.5623954584952455, 0.9313623982298012, 0.9366365545737012, 0.9717675360938418, 0.7891993093151195, 0.8309258755518678, 0.10480226702937956, -0.9551799879110359, 0.8956366179040449, -0.4958889578456358, 0.31165922275561075, 0.9711042947834705, -0.34259325561154386, -0.49438637075205993, -0.2128684034510573, -0.40643532425965745, 0.10637895099068229, 0.7568634984623572, 0.09687345874263542, 0.47042248372117657, 0.5316244476079395, -0.2408489864440484, -0.21606017036905234, 0.8446599090013822, -0.2102422709548386, -0.45349618950935633, 0.7998314470223724, -0.9151765289302363, 0.15579141685731734, 0.03220748354876468, 0.5292610110520346, 0.35822777931455385, -0.07956622896050347, 0.4928259037538232, -0.17378100034047295, -0.40131745387529016, 0.2959513547295367, -0.2576094054234299, 0.7717287467458418, -0.8512519916482648, -0.4087662447917093, 0.8397143228742188, 0.7205597953053484, 0.5573588877926545, 0.42753607352954837, 0.6814277925741679, 0.31157717095408355, 0.6031998512057191, 0.9982144425163935, -0.9652020747014123, 0.5147164118929808, -0.4300828977477342, 0.9185422987433851, 0.5013378525132963, -0.5589755439220827, 0.13398280752551361, -0.47479334465844336, -0.3012044883155536, 0.6361835735296675, -0.23942638437022712, -0.4799167091060368, 0.5115408283081924, -0.6648350694475265, -0.27200691920384745, 0.7308802398709948, -0.53367702783064, -0.7087048566975451, 0.4735827501980967, -0.600810779389229, 0.5215318848218724, 0.180065538291047, 0.863329615870212, -0.984334706009218, 0.8871850654823721, -0.08262519629740295, -0.3396434219444342, 0.7863240620884615, 0.5797397370129242, 0.24872502187156265, -0.9852903783926148, 0.927035301371024, -0.5224920384525544, 0.49856082906943233, 0.32789380519777667, 0.7942165302066915, 0.07028425974075514, 0.5274958514750094, 0.25459590888733086, -0.8478714799714269, -0.5048245547768049, -0.38544822600802164, 0.4828495417511325, -0.9077204901641482, -0.941756627827492, -0.6596984328853275, 0.296805592840901, -0.6324055827388184, 0.900950346526523, 0.8652100698054721, -0.39996024021083043, -0.1879362340930708,
