-0.11868559439851945, -0.8116193329099548, 0.719013906544623, 0.6746354322371855, -0.7471801643649121, 0.15650192887816483, 0.9635122220990255, -0.9211365836418959, 0.018730289040956194, 0.6365750537638326, -0.48629794188662734, 0.455492576818056, -0.2315348577432763, -0.9894051378273216, 0.7536369146641336, 0.842331162533851, 0.9547951720953776, -0.308647309649585, 0.7130361335754147, -0.748553331318444, 0.3445134343389342, -0.42750377382209526, 0.5637339400474921, 0.13741296325193444, -0.7618155234587509, -0.926127230683579, 0.3836773640889988, 0.790736432528022, -5.851383074142458E-4, -0.7845226558112433, -0.02419540471409376, -0.3645453173438271, -0.7249177632116734, 0.5453273533468934, -0.5732843015515567, 0.9848638627823803, 0.5069464134495079, -0.49380374902085516, -0.16184010144149186, 0.08890815608337865, 0.8362464592973378, -0.9715850657726819, 0.41926629046308683, 0.2879710498589012, -0.2668614552420523, 0.109319143715918, 0.7901954555841135, -0.2689469540831657, 0.8761539563021987, 0.4336590876697459, 0.27842034876494925, 0.3452978308091301, -0.9340924890224773, -0.7686934821841298, 0.41635973986760844, -0.43538312444861194, 0.9425221199587703, -0.9275976969135775, 0.9628242272022633, -0.14714671482225627, -0.2752985651510884, 0.3500777538777189, -0.32718608831426166, -0.18784845875161027, 0.695899444578729, 0.5770653322667652, -0.3314650726163839, 0.6110038028675018, 0.25264299967147164, -0.6776701179615514, -0.3802941900425143, 0.09667618842999692, 0.4328202696508703, 0.359718779305219, -0.3016550514144922, 0.11124938269876927, -0.5758017291214523, 0.6143255624014059, -0.7522042935738218, 0.3594673525631231, 0.7507205744191625, -0.6381955874325735, -0.22633312878223077, 0.3701420058171947, 0.6827726503935436, -0.2800629391661875, 0.3441350503428915, 0.6772349668554956, 0.1952628232284903, 0.3090396744770403, 0.9499355438032464, 0.5699568113439939, -0.6428985116099721, 0.5890840919526636,
0.7736942063747192, 0.7819847675985488, 0.58563460180919, 0.33844587889937955, 0.7794325058654705, -0.8106575361925912, 1.0794474731820172, 0.8380535235211949, -1.1839241337875697, -0.26713623901719885, 0.23967854901623434, 0.22245796159466463, 0.018059367051418012, 0.16492563108421007, -0.7996417690371096, -0.8485096271383383, 0.8248016972199161, 0.9796896956880006, 0.7248529450692253, 0.13091365010540212, -0.0383860365211638, -0.42806259880737846, -0.6108445345281657, -0.8701798410580346, 0.6854522777508284, 0.06343458490608539, 0.20582128175019987, 0.8806185704381964, -0.9706715169989821, -0.6989838221344211, 0.298158422061151, 0.18135079279686978, 0.003160906352623726, 0.7391985378342769, 0.22022776723654247, 0.7500876554069515, 0.49464877217001607, -0.21218706620346625, 0.4930996197524107, 0.40290320001006674, -0.8546297007492075, -0.18757628754494413, 0.9541241871734905, 0.9152987780933551, -0.9395378958954599, -1.4208665296452967, 0.5990921680637561, -0.8652279569876816, 0.6164139942844049, 0.561229321572559, -0.20648913067601743, -1.0238481079244828, -0.10693369033147138, -0.6432115099722137, -0.11998445871003649, 0.19736173303194104, 0.655338633997693, -0.9506065889933523, -0.035648415077768315, 0.4672051654802403, -0.9679780590338651, -0.7937910961855411, -0.013338828112504392, -0.4985790789654474, 0.6256149899415852, 0.5524007201525535, 1.1051151546971745, -0.12026511757289368, -0.43043247444305444, -0.3502671210082904, -0.7630447042666066, -0.3954862555437769, -0.04513826456070667, -0.7498924464149206, -0.929280426809697, 0.278439126394943, 0.7946646220795596, -0.8507031588824481, -0.25338990129170674, -0.774545771541587, -0.5987624917351112, 0.4223908203211976, -0.09844322340355506, -0.08063907493449178, 0.5501716662154376, 0.1673278095854669, 0.8860752898827852, 0.9349578942306378, -0.4602424721911211, -0.30612608078287823, 0.3420636396789799, 0.8095361887411506, -0.6287184096780266, 0.2637781377755316,
0.7155061848782639, 0.8181221953066573, 0.58563460180919, 0.325842914414746, 0.6713479752159135, -0.8106575361925912, 1.0794474731820172, 0.844653805807082, -1.1839241337875697, -0.2813481779442613, 0.24027920664057337, 0.2383696165530701, 0.016763587646657113, 0.15372065874179072, -0.7996417690371096, -0.8485096271383383, 0.8248016972199161, 0.9796896956880006, 0.7248529450692253, 0.12591413145225472, -0.03905576933631663, -0.42806259880737846, -0.5573501498637248, -0.8943525841004087, 0.6854522777508284, 0.06343458490608539, 0.19834694490882435, 0.8806185704381964, -0.9706715169989821, -0.714142532104505, 0.29934230543585616, 0.18135079279686978, 0.003160906352623726, 0.7391985378342769, 0.2343729455970314, 0.7500876554069515, 0.5447344742137873, -0.21218706620346625, 0.4930996197524107, 0.40290320001006674, -0.8546297007492075, -0.18757628754494413, 0.8872513779257206, 0.9152987780933551, -0.9395378958954599, -1.4208665296452967, 0.5990921680637561, -0.8652279569876816, 0.6164139942844049, 0.561229321572559, -0.20648913067601743, -1.0962747752392985, -0.11372039235388161, -0.6432115099722137, -0.13044470885863413, 0.19736173303194104, 0.655338633997693, -0.9506065889933523, -0.03631585242024229, 0.4672051654802403, -0.8832536466171048, -0.7560595564602518, -0.012747476531978134, -0.4895583843282126, 0.6543249943056039, 0.5026215545384857, 1.0244202959510447, -0.1131258377287395, -0.4170728171277087, -0.38324073140340054, -0.664689458992658, -0.4316453415020686, -0.04513826456070667, -0.7498924464149206, -0.929280426809697, 0.278439126394943, 0.7126409391708257, -0.8507031588824481, -0.25338990129170674, -0.774545771541587, -0.6353727468260882, 0.4223908203211976, -0.09844322340355506, -0.08063907493449178, 0.5501716662154376, 0.17031422115566103, 0.8860752898827852, 0.9349578942306378, -0.4602424721911211, -0.30612608078287823, 0.32033695748265, 0.757932529989351, -0.6287184096780266, 0.2637781377755316,
0.7736942063747192, 0.7860606687470472, 0.58563460180919, 0.31852048157780427, 0.7605512792041594, -0.8106575361925912, 1.0794474731820172, 0.844653805807082, -1.1839241337875697, -0.26713623901719885, 0.24027920664057337, 0.21865308726929159, 0.0184294270721352, 0.15808481414533815, -0.7866408575735806, -0.7978385610461325, 0.8877648870353001, 1.038804061493084, 0.7248529450692253, 0.12591413145225472, -0.038992564321774316, -0.42806259880737846, -0.5573501498637248, -0.8701798410580346, 0.6854522777508284, 0.06343458490608539, 0.20729108763588316, 0.8806185704381964, -0.9706715169989821, -0.6989838221344211, 0.2825538968093025, 0.18135079279686978, 0.003160906352623726, 0.7169328065722526, 0.2343729455970314, 0.7500876554069515, 0.5447344742137873, -0.21218706620346625, 0.4930996197524107, 0.40290320001006674, -0.8457768849028536, -0.18757628754494413, 0.8872513779257206, 0.9612989712751512, -0.9395378958954599, -1.4208665296452967, 0.5990921680637561, -0.8652279569876816, 0.6164139942844049, 0.561229321572559, -0.20648913067601743, -1.1323489107975375, -0.10693369033147138, -0.6978698736338732, -0.13044470885863413, 0.19736173303194104, 0.655338633997693, -0.9506065889933523, -0.035648415077768315, 0.4672051654802403, -0.9679780590338651, -0.7772386723078009, -0.013338828112504392, -0.45508250270384293, 0.6256149899415852, 0.5392090133414472, 1.1051151546971745, -0.11619715017628475, -0.4170728171277087, -0.4001274381919274, -0.7239196341433055, -0.3954862555437769, -0.04513826456070667, -0.7498924464149206, -0.929280426809697, 0.27594906175849143, 0.779501161745993, -0.8507031588824481, -0.28561021992430036, -0.8205300385003503, -0.6353727468260882, 0.4757667325896645, -0.10565508513315917, -0.0859165199896709, 0.5367920035845354, 0.16738370664477556, 0.8860752898827852, 0.9349578942306378, -0.4602424721911211, -0.33393824952917944, 0.3420636396789799, 0.8095361887411506, -0.6287184096780266, 0.2637781377755316,
0.7736942063747192, 0.7819847675985488, 0.58563460180919, 0.33844587889937955, 0.730412869392335, -0.8106575361925912, 1.0794474731820172, 0.8453549744749931, -1.1839241337875697, -0.2813481779442613, 0.24027920664057337, 0.22245796159466463, 0.018059367051418012, 0.15372065874179072, -0.7891508673240061, -0.8080543526553635, 0.8248016972199161, 0.904653341127511, 0.7326558687002365, 0.12591413145225472, -0.03905576933631663, -0.42806259880737846, -0.5573501498637248, -0.7867745527682939, 0.6854522777508284, 0.0705282162478551, 0.22501374426868948, 0.8806185704381964, -0.9706715169989821, -0.714142532104505, 0.29934230543585616, 0.18135079279686978, 0.0028278076937749423, 0.7391985378342769, 0.21887664419142025, 0.7500876554069515, 0.5230673280689244, -0.2205268541692587, 0.5003890096606439, 0.4424241949714584, -0.7959335997402989, -0.18757628754494413, 0.851736635166281, 0.9152987780933551, -0.9395378958954599, -1.3226635078721976, 0.6041992536620079, -0.8652279569876816, 0.6513603550123325, 0.6094260001010336, -0.19774237657597626, -1.0462853348022676, -0.10693369033147138, -0.6432115099722137, -0.13044470885863413, 0.19736173303194104, 0.6601189392862282, -0.9506065889933523, -0.035648415077768315, 0.43478780047527144, -0.9679780590338651, -0.7772386723078009, -0.013338828112504392, -0.4985790789654474, 0.6426364253455993, 0.5524007201525535, 1.1916709475001344, -0.11619715017628475, -0.43043247444305444, -0.41280479818143895, -0.6523849637042947, -0.3954862555437769, -0.048096936533673626, -0.7498924464149206, -0.929280426809697, 0.25988522188627894, 0.7765174474769686, -0.8507031588824481, -0.25338990129170674, -0.774545771541587, -0.6353727468260882, 0.4223908203211976, -0.09844322340355506, -0.08063907493449178, 0.5501716662154376, 0.1823319953280031, 0.8333334178643967, 1.016869402267548, -0.4602424721911211, -0.30612608078287823, 0.366262719999097, 0.8095361887411506, -0.6287184096780266, 0.2637781377755316,
0.7736942063747192, 0.7819847675985488, 0.58563460180919, 0.33844587889937955, 0.730412869392335, -0.8106575361925912, 1.0794474731820172, 0.844653805807082, -1.216119715940646, -0.2813481779442613, 0.24027920664057337, 0.22245796159466463, 0.018059367051418012, 0.15372065874179072, -0.8254179901458867, -0.8232267776263934, 0.8814226535393188, 1.086582100856943, 0.7218261639683653, 0.13216143181096723, -0.03905576933631663, -0.47194230197642323, -0.5573501498637248, -0.8701798410580346, 0.6854522777508284, 0.06313336909431022, 0.20582128175019987, 0.8806185704381964, -0.9706715169989821, -0.7114773973765487, 0.2825538968093025, 0.16702959357465005, 0.0033580035622670762, 0.7391985378342769, 0.2343729455970314, 0.7500876554069515, 0.5260754918860386, -0.21218706620346625, 0.522552009778499, 0.40733449108035025, -0.9046361508272843, -0.18757628754494413, 0.8872513779257206, 0.9152987780933551, -0.9395378958954599, -1.5300682098537304, 0.5809277344338065, -0.8652279569876816, 0.6343177310860613, 0.561229321572559, -0.20648913067601743, -1.0962747752392985, -0.10693369033147138, -0.6432115099722137, -0.11998445871003649, 0.19662505730469962, 0.655338633997693, -0.8512245159218379, -0.03677544606592798, 0.43808949986773543, -0.8832536466171048, -0.7715799245353081, -0.013338828112504392, -0.49038107482070137, 0.5403074614882487, 0.5392090133414472, 1.1051151546971745, -0.1258043526840131, -0.4170728171277087, -0.38324073140340054, -0.7181492272931035, -0.380433180785575, -0.04513826456070667, -0.7498924464149206, -0.929280426809697, 0.278439126394943, 0.8422403127245782, -0.8908579862652598, -0.25338990129170674, -0.774545771541587, -0.6353727468260882, 0.4223908203211976, -0.09844322340355506, -0.08063907493449178, 0.5501716662154376, 0.1673278095854669, 0.8340637036287621, 0.9349578942306378, -0.4602424721911211, -0.30612608078287823, 0.3420636396789799, 0.8614878743779503, -0.6287184096780266, 0.2637781377755316,
0.7736942063747192, 0.7860606687470472, 0.58563460180919, 0.33844587889937955, 0.730412869392335, -0.8106575361925912, 1.0794474731820172, 0.844653805807082, -1.1839241337875697, -0.2813481779442613, 0.24027920664057337, 0.22245796159466463, 0.01632010612398073, 0.15372065874179072, -0.8295269983645455, -0.801271141753504, 0.8248016972199161, 0.904653341127511, 0.7507578273157683, 0.12591413145225472, -0.03905576933631663, -0.42806259880737846, -0.5573501498637248, -0.8339790282238425, 0.6854522777508284, 0.0705282162478551, 0.20582128175019987, 0.8806185704381964, -0.9706715169989821, -0.714142532104505, 0.29934230543585616, 0.18135079279686978, 0.003160906352623726, 0.7383048760203941, 0.2343729455970314, 0.7500876554069515, 0.5447344742137873, -0.19996568783367524, 0.522552009778499, 0.4424241949714584, -0.8656812422236216, -0.18757628754494413, 0.8872513779257206, 0.9152987780933551, -0.9395378958954599, -1.3226635078721976, 0.6041992536620079, -0.8652279569876816, 0.5983692988940631, 0.5684060235063122, -0.20648913067601743, -1.0962747752392985, -0.10693369033147138, -0.6432115099722137, -0.11998445871003649, 0.19662505730469962, 0.655338633997693, -0.9470786821047622, -0.041693374025624626, 0.4672051654802403, -0.9021929767213062, -0.7155549509764043, -0.012747476531978134, -0.4909692917011917, 0.6102051361893449, 0.5524007201525535, 1.1051151546971745, -0.11619715017628475, -0.4170728171277087, -0.38324073140340054, -0.7239196341433055, -0.3954862555437769, -0.04513826456070667, -0.6956962300538847, -0.9761365938301761, 0.26826918098483193, 0.7126409391708257, -0.8507031588824481, -0.25667192374782455, -0.774545771541587, -0.677867054895924, 0.4223908203211976, -0.09190628498253547, -0.07803706355812738, 0.5501716662154376, 0.16802519614648806, 0.91861041879017, 0.9349578942306378, -0.4602424721911211, -0.30612608078287823, 0.3420636396789799, 0.8095361887411506, -0.6287184096780266, 0.2637781377755316,
0.7736942063747192, 0.8711932290279057, 0.58563460180919, 0.325842914414746, 0.730412869392335, -0.8185568864405155, 1.0794474731820172, 0.844653805807082, -1.1839241337875697, -0.2813481779442613, 0.24027920664057337, 0.22245796159466463, 0.018059367051418012, 0.15372065874179072, -0.8254179901458867, -0.8232267776263934, 0.8248016972199161, 1.086582100856943, 0.7218261639683653, 0.13318947942552817, -0.03898407446771685, -0.42806259880737846, -0.5573501498637248, -0.8701798410580346, 0.6351518969039295, 0.06343458490608539, 0.20582128175019987, 0.8806185704381964, -0.9706715169989821, -0.6989838221344211, 0.2825538968093025, 0.18135079279686978, 0.003160906352623726, 0.7391985378342769, 0.2343729455970314, 0.7500876554069515, 0.5447344742137873, -0.21218706620346625, 0.4930996197524107, 0.40290320001006674, -0.8546297007492075, -0.18757628754494413, 0.8872513779257206, 0.9152987780933551, -0.9395378958954599, -1.4208665296452967, 0.5990921680637561, -0.8652279569876816, 0.6164139942844049, 0.5338944025312987, -0.20648913067601743, -1.0962747752392985, -0.10693369033147138, -0.6432115099722137, -0.13044470885863413, 0.1968558354718031, 0.655338633997693, -0.9506065889933523, -0.0361899526319035, 0.4614982611156351, -0.8832536466171048, -0.7560595564602518, -0.012747476531978134, -0.4895583843282126, 0.6543249943056039, 0.5524007201525535, 1.1051151546971745, -0.11619715017628475, -0.4170728171277087, -0.38324073140340054, -0.664689458992658, -0.4316453415020686, -0.043131005466830255, -0.7498924464149206, -0.929280426809697, 0.2910718046187714, 0.7126409391708257, -0.8507031588824481, -0.25338990129170674, -0.774545771541587, -0.6353727468260882, 0.4223908203211976, -0.09844322340355506, -0.08063907493449178, 0.563961852563948, 0.1673278095854669, 0.8860752898827852, 0.9349578942306378, -0.43758152768886144, -0.3398635614724388, 0.3420636396789799, 0.8423745884061096, -0.6287184096780266, 0.27138966965660627,
0.7736942063747192, 0.8711932290279057, 0.58563460180919, 0.325842914414746, 0.730412869392335, -0.8185568864405155, 1.0794474731820172, 0.844653805807082, -1.1839241337875697, -0.2813481779442613, 0.24027920664057337, 0.22245796159466463, 0.0177664595019855, 0.15372065874179072, -0.8422746929255404, -0.7470991269108518, 0.8248016972199161, 1.086582100856943, 0.7218261639683653, 0.13318947942552817, -0.03898407446771685, -0.42806259880737846, -0.5573501498637248, -0.8701798410580346, 0.7055768099903413, 0.057585485227521695, 0.1872295050654359, 0.8806185704381964, -0.9706715169989821, -0.714142532104505, 0.29934230543585616, 0.18135079279686978, 0.003160906352623726, 0.7391985378342769, 0.2343729455970314, 0.7500876554069515, 0.5260754918860386, -0.21218706620346625, 0.522552009778499, 0.40733449108035025, -0.9337688509875207, -0.18757628754494413, 0.8872513779257206, 0.9152987780933551, -0.8512457736054003, -1.5300682098537304, 0.5443133960612891, -0.8652279569876816, 0.6343177310860613, 0.561229321572559, -0.20648913067601743, -1.0962747752392985, -0.10693369033147138, -0.6432115099722137, -0.11998445871003649, 0.19662505730469962, 0.6916645607021346, -0.8675141822354988, -0.035648415077768315, 0.4672051654802403, -0.8832536466171048, -0.7772386723078009, -0.013338828112504392, -0.44153973819414727, 0.5570030836824513, 0.5392090133414472, 1.1051151546971745, -0.11619715017628475, -0.4170728171277087, -0.38324073140340054, -0.7239196341433055, -0.3954862555437769, -0.04513826456070667, -0.7498924464149206, -0.8513973797893973, 0.278439126394943, 0.7825284016255278, -0.870046444871637, -0.289799178449638, -0.8205300385003503, -0.6119334626545163, 0.5367819164523264, -0.10565508513315917, -0.0859165199896709, 0.563961852563948, 0.1673278095854669, 0.8860752898827852, 0.9349578942306378, -0.43758152768886144, -0.3398635614724388, 0.3420636396789799, 0.8448537692694268, -0.6287184096780266, 0.27138966965660627,
0.7422093845760314, 0.8711932290279057, 0.58563460180919, 0.325842914414746, 0.7683325384837306, -0.8106575361925912, 1.0794474731820172, 0.844653805807082, -1.1839241337875697, -0.30805924544607544, 0.24027920664057337, 0.22245796159466463, 0.018059367051418012, 0.1416115787125051, -0.7853556716475507, -0.8232267776263934, 0.8248016972199161, 1.086582100856943, 0.7218261639683653, 0.13216143181096723, -0.03936938595381348, -0.5365894725492387, -0.5064215159059025, -0.8973176218753005, 0.6351518969039295, 0.06343458490608539, 0.20582128175019987, 0.8806185704381964, -0.9706715169989821, -0.6989838221344211, 0.2643868308617279, 0.18135079279686978, 0.003160906352623726, 0.7391985378342769, 0.2343729455970314, 0.7500876554069515, 0.5447344742137873, -0.21218706620346625, 0.4930996197524107, 0.40290320001006674, -0.8546297007492075, -0.18757628754494413, 0.8872513779257206, 0.9152987780933551, -0.9395378958954599, -1.4208665296452967, 0.5990921680637561, -0.8652279569876816, 0.6164139942844049, 0.561229321572559, -0.20648913067601743, -1.0962747752392985, -0.10693369033147138, -0.6432115099722137, -0.13044470885863413, 0.19736173303194104, 0.655338633997693, -0.9506065889933523, -0.03631585242024229, 0.4672051654802403, -0.8832536466171048, -0.7560595564602518, -0.013338828112504392, -0.4811907434373898, 0.6256149899415852, 0.5392090133414472, 1.1051151546971745, -0.11619715017628475, -0.4170728171277087, -0.4001274381919274, -0.7239196341433055, -0.3954862555437769, -0.04513826456070667, -0.7498924464149206, -0.929280426809697, 0.278439126394943, 0.779501161745993, -0.8507031588824481, -0.28561021992430036, -0.8745556434290572, -0.6304310035466243, 0.5220828362588327, -0.10565508513315917, -0.0859165199896709, 0.5367920035845354, 0.18329580924782088, 0.8860752898827852, 0.9349578942306378, -0.4289059201625803, -0.33393824952917944, 0.3420636396789799, 0.748711389094039, -0.6287184096780266, 0.27138966965660627,
0.7736942063747192, 0.8408193005704406, 0.6186907955120996, 0.325842914414746, 0.730412869392335, -0.8185568864405155, 1.0794474731820172, 0.844653805807082, -1.1839241337875697, -0.2813481779442613, 0.24027920664057337, 0.22245796159466463, 0.018059367051418012, 0.15372065874179072, -0.8254179901458867, -0.8232267776263934, 0.8248016972199161, 1.086582100856943, 0.7218261639683653, 0.13318947942552817, -0.03898407446771685, -0.42806259880737846, -0.5573501498637248, -0.8701798410580346, 0.5913308920268439, 0.06343458490608539, 0.20582128175019987, 0.8806185704381964, -0.9706715169989821, -0.6989838221344211, 0.2825538968093025, 0.18135079279686978, 0.003160906352623726, 0.7391985378342769, 0.2343729455970314, 0.7500876554069515, 0.5447344742137873, -0.21218706620346625, 0.4930996197524107, 0.40290320001006674, -0.8546297007492075, -0.18757628754494413, 0.8872513779257206, 0.9255428661492436, -0.9395378958954599, -1.3226635078721976, 0.598637276867789, -0.8652279569876816, 0.6343177310860613, 0.561229321572559, -0.20920809038477342, -1.1666496007586216, -0.11257184780728803, -0.6432115099722137, -0.12923547992967088, 0.19736173303194104, 0.655338633997693, -0.9506065889933523, -0.035648415077768315, 0.4672051654802403, -0.9526243977970525, -0.7772386723078009, -0.013338828112504392, -0.4231880278933737, 0.6256149899415852, 0.5392090133414472, 1.1051151546971745, -0.11376810312104052, -0.4170728171277087, -0.4001274381919274, -0.7591821173379089, -0.3954862555437769, -0.048744946633092846, -0.7530023460875346, -0.929280426809697, 0.2634339356137033, 0.7354619762250318, -0.8507031588824481, -0.28561021992430036, -0.86157352850093, -0.6353727468260882, 0.5220828362588327, -0.11093373775495863, -0.0859165199896709, 0.5367920035845354, 0.1673278095854669, 0.9466333117515773, 0.9349578942306378, -0.4602424721911211, -0.33393824952917944, 0.3420636396789799, 0.748711389094039, -0.6287184096780266, 0.27138966965660627,
0.7736942063747192, 0.8711932290279057, 0.58563460180919, 0.325842914414746, 0.7605512792041594, -0.8195631576828994, 1.0794474731820172, 0.844653805807082, -1.258745054741621, -0.2813481779442613, 0.22150512392839963, 0.22245796159466463, 0.018059367051418012, 0.15051122976026912, -0.7853556716475507, -0.8232267776263934, 0.8248016972199161, 1.086582100856943, 0.7049606917512733, 0.13216143181096723, -0.03936938595381348, -0.5365894725492387, -0.5573501498637248, -0.8701798410580346, 0.6943367379381578, 0.06343458490608539, 0.20582128175019987, 0.8806185704381964, -0.9706715169989821, -0.714142532104505, 0.29934230543585616, 0.18135079279686978, 0.0029820153069337403, 0.7391985378342769, 0.2343729455970314, 0.7500876554069515, 0.5447344742137873, -0.20081706913088143, 0.5278135745395532, 0.40290320001006674, -1.0181021331311415, -0.18757628754494413, 0.8872513779257206, 0.9152987780933551, -0.9395378958954599, -1.3102681970100585, 0.5990921680637561, -0.8652279569876816, 0.6164139942844049, 0.561229321572559, -0.20648913067601743, -1.0962747752392985, -0.10693369033147138, -0.6432115099722137, -0.13111559399802772, 0.19736173303194104, 0.655338633997693, -0.9506065889933523, -0.03631585242024229, 0.4614982611156351, -0.8832536466171048, -0.7560595564602518, -0.012747476531978134, -0.4895583843282126, 0.6543249943056039, 0.5524007201525535, 1.1051151546971745, -0.11619715017628475, -0.4170728171277087, -0.38324073140340054, -0.664689458992658, -0.43263801965063525, -0.043131005466830255, -0.7498924464149206, -0.929280426809697, 0.278439126394943, 0.7126409391708257, -0.8507031588824481, -0.25338990129170674, -0.774545771541587, -0.6353727468260882, 0.4223908203211976, -0.09844322340355506, -0.08063907493449178, 0.563961852563948, 0.1673278095854669, 0.8860752898827852, 0.9349578942306378, -0.43758152768886144, -0.3398635614724388, 0.3420636396789799, 0.8448537692694268, -0.6287184096780266, 0.27138966965660627,
0.7736942063747192, 0.7860606687470472, 0.58563460180919, 0.3158822843899231, 0.7605512792041594, -0.8106575361925912, 1.0794474731820172, 0.844653805807082, -1.1839241337875697, -0.26713623901719885, 0.2629193106606025, 0.21865308726929159, 0.0184294270721352, 0.15240630424349635, -0.7866408575735806, -0.7978385610461325, 0.8877648870353001, 0.9796896956880006, 0.7248529450692253, 0.12591413145225472, -0.038992564321774316, -0.42806259880737846, -0.5573501498637248, -0.8148789939331061, 0.6854522777508284, 0.06343458490608539, 0.20582128175019987, 0.8806185704381964, -0.9706715169989821, -0.6989838221344211, 0.2999608159769469, 0.18135079279686978, 0.003160906352623726, 0.7169328065722526, 0.2343729455970314, 0.7675095448771748, 0.5447344742137873, -0.21394883866706627, 0.4930996197524107, 0.40290320001006674, -0.8457768849028536, -0.18757628754494413, 0.8872513779257206, 0.9612989712751512, -0.9395378958954599, -1.4208665296452967, 0.5990921680637561, -0.8652279569876816, 0.6164139942844049, 0.6111532093640333, -0.20648913067601743, -1.1323489107975375, -0.10693369033147138, -0.6978698736338732, -0.13044470885863413, 0.19736173303194104, 0.655338633997693, -0.9506065889933523, -0.035648415077768315, 0.4672051654802403, -0.9679780590338651, -0.7772386723078009, -0.013338828112504392, -0.45508250270384293, 0.6256149899415852, 0.5392090133414472, 1.172700165502774, -0.11619715017628475, -0.4170728171277087, -0.4001274381919274, -0.7239196341433055, -0.3954862555437769, -0.04513826456070667, -0.7201007868809407, -0.929280426809697, 0.27594906175849143, 0.779501161745993, -0.8507031588824481, -0.25338990129170674, -0.8205300385003503, -0.6353727468260882, 0.4757667325896645, -0.10565508513315917, -0.0814776292715124, 0.5367920035845354, 0.16738370664477556, 0.8860752898827852, 0.9349578942306378, -0.4602424721911211, -0.33393824952917944, 0.3420636396789799, 0.8095361887411506, -0.6287184096780266, 0.2637781377755316,
0.7575670458241056, 0.8711932290279057, 0.58563460180919, 0.325842914414746, 0.730412869392335, -0.8185568864405155, 1.0794474731820172, 0.844653805807082, -1.1839241337875697, -0.2813481779442613, 0.24027920664057337, 0.22245796159466463, 0.018059367051418012, 0.15372065874179072, -0.8254179901458867, -0.8232267776263934, 0.8248016972199161, 1.086582100856943, 0.7218261639683653, 0.13318947942552817, -0.03898407446771685, -0.42806259880737846, -0.5573501498637248, -0.8701798410580346, 0.6351518969039295, 0.06343458490608539, 0.20582128175019987, 0.8806185704381964, -0.9706715169989821, -0.6989838221344211, 0.2825538968093025, 0.18135079279686978, 0.003160906352623726, 0.7391985378342769, 0.2343729455970314, 0.7500876554069515, 0.5447344742137873, -0.21218706620346625, 0.4930996197524107, 0.40290320001006674, -0.8546297007492075, -0.1818547791682872, 0.8872513779257206, 0.9152987780933551, -0.9395378958954599, -1.403124298512026, 0.5990921680637561, -0.8652279569876816, 0.6164139942844049, 0.561229321572559, -0.20648913067601743, -1.0962747752392985, -0.10693369033147138, -0.6432115099722137, -0.13044470885863413, 0.19736173303194104, 0.655338633997693, -0.9506065889933523, -0.03631585242024229, 0.4614982611156351, -0.8832536466171048, -0.7560595564602518, -0.012747476531978134, -0.4895583843282126, 0.6543249943056039, 0.5524007201525535, 1.1051151546971745, -0.11619715017628475, -0.4170728171277087, -0.38324073140340054, -0.664689458992658, -0.4316453415020686, -0.043131005466830255, -0.7498924464149206, -0.929280426809697, 0.278439126394943, 0.7126409391708257, -0.8507031588824481, -0.28561021992430036, -0.774545771541587, -0.61064838853526, 0.4223908203211976, -0.1048271533904819, -0.08063907493449178, 0.563961852563948, 0.1673278095854669, 0.8860752898827852, 0.9349578942306378, -0.43758152768886144, -0.3398635614724388, 0.3420636396789799, 0.8448537692694268, -0.6287184096780266, 0.27138966965660627,
0.7736942063747192, 0.7819847675985488, 0.58563460180919, 0.33844587889937955, 0.730412869392335, -0.8106575361925912, 1.0794474731820172, 0.9117993487352954, -1.1839241337875697, -0.2813481779442613, 0.2291573988926888, 0.22245796159466463, 0.016685418728568487, 0.15372065874179072, -0.7891508673240061, -0.8080543526553635, 0.8248016972199161, 0.904653341127511, 0.7326558687002365, 0.12591413145225472, -0.03905576933631663, -0.42806259880737846, -0.5883644821310712, -0.7867745527682939, 0.6854522777508284, 0.0705282162478551, 0.20582128175019987, 0.8806185704381964, -0.9036260504383928, -0.714142532104505, 0.29934230543585616, 0.19296205825315896, 0.003160906352623726, 0.7391985378342769, 0.2343729455970314, 0.7500876554069515, 0.5447344742137873, -0.19996568783367524, 0.522552009778499, 0.4424241949714584, -0.8798032768946078, -0.18757628754494413, 0.8872513779257206, 0.9152987780933551, -0.9395378958954599, -1.3226635078721976, 0.6041992536620079, -0.8652279569876816, 0.5983692988940631, 0.5684060235063122, -0.20127785571134948, -1.1323489107975375, -0.10693369033147138, -0.6496136292285941, -0.13044470885863413, 0.17370945762802514, 0.655338633997693, -0.9506065889933523, -0.035648415077768315, 0.4672051654802403, -0.9679780590338651, -0.7937910961855411, -0.01328256458317109, -0.4985790789654474, 0.6256149899415852, 0.5524007201525535, 1.1051151546971745, -0.11619715017628475, -0.43043247444305444, -0.38324073140340054, -0.7239196341433055, -0.3954862555437769, -0.04513826456070667, -0.7498924464149206, -0.929280426809697, 0.25988522188627894, 0.7765174474769686, -0.8507031588824481, -0.25338990129170674, -0.774545771541587, -0.6353727468260882, 0.4223908203211976, -0.09844322340355506, -0.08843574666000623, 0.5501716662154376, 0.1823319953280031, 0.8860752898827852, 1.016869402267548, -0.4602424721911211, -0.30612608078287823, 0.366262719999097, 0.8095361887411506, -0.6287184096780266, 0.2637781377755316,
0.7736942063747192, 0.7819847675985488, 0.58563460180919, 0.33844587889937955, 0.730412869392335, -0.7800442832486915, 1.0794474731820172, 0.844653805807082, -1.1106610362620917, -0.2813481779442613, 0.24027920664057337, 0.22245796159466463, 0.018059367051418012, 0.15372065874179072, -0.8295269983645455, -0.8080543526553635, 0.8248016972199161, 0.904653341127511, 0.7507578273157683, 0.12591413145225472, -0.03905576933631663, -0.42806259880737846, -0.5573501498637248, -0.7867745527682939, 0.6854522777508284, 0.0705282162478551, 0.22501374426868948, 0.8806185704381964, -0.9706715169989821, -0.714142532104505, 0.29934230543585616, 0.18159208296134832, 0.0028278076937749423, 0.7391985378342769, 0.2343729455970314, 0.7500876554069515, 0.5230673280689244, -0.2205268541692587, 0.5003890096606439, 0.4424241949714584, -0.7959335997402989, -0.18757628754494413, 0.851736635166281, 0.9152987780933551, -0.9395378958954599, -1.3226635078721976, 0.6041992536620079, -0.8652279569876816, 0.6513603550123325, 0.561229321572559, -0.19774237657597626, -1.0462853348022676, -0.10693369033147138, -0.6432115099722137, -0.13044470885863413, 0.19736173303194104, 0.6601189392862282, -0.9506065889933523, -0.035648415077768315, 0.43478780047527144, -0.9679780590338651, -0.7772386723078009, -0.013338828112504392, -0.4985790789654474, 0.6426364253455993, 0.5524007201525535, 1.1916709475001344, -0.11619715017628475, -0.43043247444305444, -0.41280479818143895, -0.6523849637042947, -0.40240450902807995, -0.04513826456070667, -0.7498924464149206, -0.9973823299115162, 0.278439126394943, 0.7334701947693641, -0.8507031588824481, -0.25338990129170674, -0.774545771541587, -0.6353727468260882, 0.4223908203211976, -0.09844322340355506, -0.08063907493449178, 0.5501716662154376, 0.1673278095854669, 0.8860752898827852, 0.9349578942306378, -0.4602424721911211, -0.30612608078287823, 0.33481766892942805, 0.8095361887411506, -0.6287184096780266, 0.2637781377755316,
0.7736942063747192, 0.7819847675985488, 0.58563460180919, 0.33844587889937955, 0.730412869392335, -0.7800442832486915, 1.0794474731820172, 0.844653805807082, -1.1106610362620917, -0.2813481779442613, 0.24027920664057337, 0.22245796159466463, 0.018059367051418012, 0.15372065874179072, -0.8295269983645455, -0.8080543526553635, 0.8248016972199161, 0.904653341127511, 0.7507578273157683, 0.12591413145225472, -0.03905576933631663, -0.42806259880737846, -0.5573501498637248, -0.7867745527682939, 0.6854522777508284, 0.0676373659308333, 0.22501374426868948, 0.8806185704381964, -0.9706715169989821, -0.714142532104505, 0.29934230543585616, 0.18135079279686978, 0.0028278076937749423, 0.7391985378342769, 0.2343729455970314, 0.7500876554069515, 0.5230673280689244, -0.2205268541692587, 0.5003890096606439, 0.4424241949714584, -0.7959335997402989, -0.18757628754494413, 0.851736635166281, 0.9152987780933551, -0.9395378958954599, -1.3226635078721976, 0.5990921680637561, -0.8652279569876816, 0.6164139942844049, 0.561229321572559, -0.20648913067601743, -1.1323489107975375, -0.10693369033147138, -0.6978698736338732, -0.13044470885863413, 0.19736173303194104, 0.655338633997693, -0.9506065889933523, -0.035648415077768315, 0.4672051654802403, -0.9679780590338651, -0.7772386723078009, -0.013338828112504392, -0.4985790789654474, 0.6426364253455993, 0.5524007201525535, 1.1916709475001344, -0.11619715017628475, -0.43043247444305444, -0.41280479818143895, -0.6523849637042947, -0.3954862555437769, -0.04513826456070667, -0.7498924464149206, -0.9973823299115162, 0.278439126394943, 0.7765174474769686, -0.8507031588824481, -0.25338990129170674, -0.774545771541587, -0.6353727468260882, 0.4223908203211976, -0.09844322340355506, -0.08063907493449178, 0.5501716662154376, 0.1673278095854669, 0.8860752898827852, 0.9349578942306378, -0.4602424721911211, -0.30612608078287823, 0.3420636396789799, 0.8095361887411506, -0.6287184096780266, 0.2637781377755316,
0.7736942063747192, 0.7860606687470472, 0.58563460180919, 0.3158822843899231, 0.7605512792041594, -0.8106575361925912, 1.0794474731820172, 0.844653805807082, -1.1839241337875697, -0.26713623901719885, 0.24027920664057337, 0.21865308726929159, 0.0184294270721352, 0.15240630424349635, -0.7866408575735806, -0.7978385610461325, 0.8877648870353001, 0.9796896956880006, 0.7248529450692253, 0.13173177655174673, -0.038992564321774316, -0.42806259880737846, -0.5573501498637248, -0.8701798410580346, 0.6854522777508284, 0.06343458490608539, 0.20582128175019987, 0.8806185704381964, -0.9706715169989821, -0.6989838221344211, 0.2744460971212612, 0.18135079279686978, 0.003160906352623726, 0.7169328065722526, 0.2343729455970314, 0.7500876554069515, 0.5447344742137873, -0.21218706620346625, 0.4930996197524107, 0.40290320001006674, -0.8457768849028536, -0.18757628754494413, 0.8872513779257206, 0.9612989712751512, -0.9395378958954599, -1.4208665296452967, 0.6041992536620079, -0.8652279569876816, 0.6513603550123325, 0.561229321572559, -0.19774237657597626, -1.0462853348022676, -0.10693369033147138, -0.6432115099722137, -0.13044470885863413, 0.19736173303194104, 0.6601189392862282, -0.9506065889933523, -0.03813313877487518, 0.43478780047527144, -1.0010233118509013, -0.7772386723078009, -0.013338828112504392, -0.45508250270384293, 0.6256149899415852, 0.5392090133414472, 1.1051151546971745, -0.11619715017628475, -0.4170728171277087, -0.372227454698651, -0.7239196341433055, -0.3954862555437769, -0.046984549660332414, -0.7498924464149206, -0.929280426809697, 0.27594906175849143, 0.779501161745993, -0.8507031588824481, -0.25338990129170674, -0.8205300385003503, -0.6353727468260882, 0.4757667325896645, -0.10565508513315917, -0.0859165199896709, 0.5014523483124957, 0.16738370664477556, 0.8860752898827852, 0.9349578942306378, -0.4602424721911211, -0.33393824952917944, 0.3420636396789799, 0.8095361887411506, -0.6287184096780266, 0.2637781377755316,
0.7736942063747192, 0.8711932290279057, 0.58563460180919, 0.325842914414746, 0.730412869392335, -0.8185568864405155, 1.0794474731820172, 0.844653805807082, -1.1839241337875697, -0.2813481779442613, 0.24027920664057337, 0.22245796159466463, 0.018059367051418012, 0.15372065874179072, -0.8254179901458867, -0.8232267776263934, 0.8248016972199161, 1.086582100856943, 0.7218261639683653, 0.13318947942552817, -0.03898407446771685, -0.42806259880737846, -0.5573501498637248, -0.8701798410580346, 0.5867201405843483, 0.06343458490608539, 0.20582128175019987, 0.8806185704381964, -0.9706715169989821, -0.6989838221344211, 0.2825538968093025, 0.18135079279686978, 0.003160906352623726, 0.7391985378342769, 0.2343729455970314, 0.7500876554069515, 0.5447344742137873, -0.21218706620346625, 0.46670106111058646, 0.40290320001006674, -0.8546297007492075, -0.18757628754494413, 0.8872513779257206, 0.9152987780933551, -0.9395378958954599, -1.4208665296452967, 0.5990921680637561, -0.8652279569876816, 0.6164139942844049, 0.561229321572559, -0.20648913067601743, -1.0962747752392985, -0.10693369033147138, -0.6432115099722137, -0.13044470885863413, 0.19736173303194104, 0.655338633997693, -0.9506065889933523, -0.03631585242024229, 0.4619321816379137, -0.8832536466171048, -0.7560595564602518, -0.012747476531978134, -0.4895583843282126, 0.6543249943056039, 0.5524007201525535, 1.1051151546971745, -0.11619715017628475, -0.4170728171277087, -0.38324073140340054, -0.664689458992658, -0.4316453415020686, -0.043131005466830255, -0.7498924464149206, -0.929280426809697, 0.278439126394943, 0.7126409391708257, -0.8507031588824481, -0.24112162306842533, -0.7038135173126332, -0.6353727468260882, 0.4223908203211976, -0.09844322340355506, -0.08063907493449178, 0.563961852563948, 0.1673278095854669, 0.8860752898827852, 0.9349578942306378, -0.43758152768886144, -0.3106153910863014, 0.3420636396789799, 0.8448537692694268, -0.6287184096780266, 0.27138966965660627,
0.7736942063747192, 0.8711932290279057, 0.58563460180919, 0.325842914414746, 0.730412869392335, -0.8185568864405155, 1.0794474731820172, 0.844653805807082, -1.1839241337875697, -0.2813481779442613, 0.24027920664057337, 0.22155629569783883, 0.018059367051418012, 0.15372065874179072, -0.8254179901458867, -0.8232267776263934, 0.8248016972199161, 1.086582100856943, 0.7218261639683653, 0.13318947942552817, -0.03898407446771685, -0.42806259880737846, -0.5573501498637248, -0.8701798410580346, 0.6351518969039295, 0.06343458490608539, 0.20582128175019987, 0.8806185704381964, -0.9706715169989821, -0.6989838221344211, 0.2825538968093025, 0.18135079279686978, 0.003160906352623726, 0.7391985378342769, 0.2343729455970314, 0.7500876554069515, 0.5447344742137873, -0.21218706620346625, 0.4930996197524107, 0.40290320001006674, -0.8546297007492075, -0.1697407820813871, 0.8872513779257206, 0.9152987780933551, -0.9395378958954599, -1.4208665296452967, 0.5990921680637561, -0.8652279569876816, 0.6164139942844049, 0.561229321572559, -0.20648913067601743, -1.0962747752392985, -0.10693369033147138, -0.6432115099722137, -0.13044470885863413, 0.19736173303194104, 0.655338633997693, -0.9506065889933523, -0.03631585242024229, 0.4614982611156351, -0.8832536466171048, -0.7560595564602518, -0.012747476531978134, -0.4895583843282126, 0.6543249943056039, 0.5524007201525535, 1.1051151546971745, -0.11619715017628475, -0.4170728171277087, -0.38324073140340054, -0.664689458992658, -0.4316453415020686, -0.043131005466830255, -0.7498924464149206, -0.929280426809697, 0.278439126394943, 0.7126409391708257, -0.8507031588824481, -0.25338990129170674, -0.7036680326685443, -0.6637529561288433, 0.4223908203211976, -0.09844322340355506, -0.08063907493449178, 0.563961852563948, 0.1673278095854669, 0.8860752898827852, 0.9349578942306378, -0.43758152768886144, -0.3398635614724388, 0.3420636396789799, 0.8448537692694268, -0.6287184096780266, 0.27138966965660627,
0.7736942063747192, 0.7860606687470472, 0.58563460180919, 0.33844587889937955, 0.7794325058654705, -0.8106575361925912, 1.0794474731820172, 0.844653805807082, -1.1839241337875697, -0.2667982253624913, 0.23967854901623434, 0.22245796159466463, 0.018059367051418012, 0.16492563108421007, -0.7996417690371096, -0.8485096271383383, 0.8248016972199161, 0.9796896956880006, 0.7248529450692253, 0.12591413145225472, -0.038992564321774316, -0.42806259880737846, -0.5573501498637248, -0.8701798410580346, 0.6854522777508284, 0.06343458490608539, 0.20582128175019987, 0.8806185704381964, -0.9706715169989821, -0.6989838221344211, 0.2825538968093025, 0.18135079279686978, 0.003160906352623726, 0.7169328065722526, 0.2343729455970314, 0.7500876554069515, 0.5447344742137873, -0.21218706620346625, 0.4930996197524107, 0.40290320001006674, -0.8457768849028536, -0.18249324715286783, 0.8872513779257206, 0.9612989712751512, -0.9395378958954599, -1.4208665296452967, 0.6041992536620079, -0.8652279569876816, 0.6513603550123325, 0.561229321572559, -0.19774237657597626, -1.0462853348022676, -0.10693369033147138, -0.6432115099722137, -0.13044470885863413, 0.19736173303194104, 0.6601189392862282, -0.9506065889933523, -0.035648415077768315, 0.43478780047527144, -0.8758291406620419, -0.7772386723078009, -0.013338828112504392, -0.45508250270384293, 0.6256149899415852, 0.5392090133414472, 1.1051151546971745, -0.11619715017628475, -0.4170728171277087, -0.4001274381919274, -0.7239196341433055, -0.3954862555437769, -0.04513826456070667, -0.7498924464149206, -0.929280426809697, 0.27594906175849143, 0.779501161745993, -0.8084290455473738, -0.25338990129170674, -0.8205300385003503, -0.6353727468260882, 0.4757667325896645, -0.10565508513315917, -0.0859165199896709, 0.5367920035845354, 0.16738370664477556, 0.8860752898827852, 0.9349578942306378, -0.4602424721911211, -0.33393824952917944, 0.3420636396789799, 0.8095361887411506, -0.6287184096780266, 0.2637781377755316,
0.7736942063747192, 0.7819847675985488, 0.58563460180919, 0.3158822843899231, 0.7605512792041594, -0.8106575361925912, 1.0794474731820172, 0.844653805807082, -1.1839241337875697, -0.26713623901719885, 0.24027920664057337, 0.21865308726929159, 0.0184294270721352, 0.15240630424349635, -0.7866408575735806, -0.8675317600837099, 0.8877648870353001, 0.9796896956880006, 0.7248529450692253, 0.12591413145225472, -0.0383860365211638, -0.42806259880737846, -0.6108445345281657, -0.8701798410580346, 0.6854522777508284, 0.06343458490608539, 0.20582128175019987, 0.8806185704381964, -0.9706715169989821, -0.6989838221344211, 0.298158422061151, 0.18135079279686978, 0.003160906352623726, 0.7391985378342769, 0.22022776723654247, 0.7500876554069515, 0.5447344742137873, -0.21218706620346625, 0.4930996197524107, 0.40290320001006674, -0.8546297007492075, -0.18757628754494413, 0.9541241871734905, 0.9152987780933551, -0.9395378958954599, -1.4208665296452967, 0.5990921680637561, -0.8652279569876816, 0.6164139942844049, 0.561229321572559, -0.20648913067601743, -1.0962747752392985, -0.10693369033147138, -0.6432115099722137, -0.11998445871003649, 0.19736173303194104, 0.655338633997693, -0.9506065889933523, -0.035648415077768315, 0.4672051654802403, -0.9679780590338651, -0.7937910961855411, -0.013338828112504392, -0.4985790789654474, 0.6256149899415852, 0.5524007201525535, 1.1051151546971745, -0.11619715017628475, -0.43043247444305444, -0.38324073140340054, -0.7239196341433055, -0.38668171847844746, -0.04513826456070667, -0.7498924464149206, -0.929280426809697, 0.278439126394943, 0.7946646220795596, -0.8507031588824481, -0.25338990129170674, -0.774545771541587, -0.5987624917351112, 0.4223908203211976, -0.09844322340355506, -0.08063907493449178, 0.5501716662154376, 0.1673278095854669, 0.8860752898827852, 0.9349578942306378, -0.4602424721911211, -0.30612608078287823, 0.3420636396789799, 0.8095361887411506, -0.6287184096780266, 0.2637781377755316,
0.7736942063747192, 0.8711932290279057, 0.58563460180919, 0.325842914414746, 0.730412869392335, -0.8185568864405155, 1.0794474731820172, 0.844653805807082, -1.1839241337875697, -0.2813481779442613, 0.24027920664057337, 0.22245796159466463, 0.018059367051418012, 0.15372065874179072, -0.8254179901458867, -0.8232267776263934, 0.8248016972199161, 1.086582100856943, 0.7218261639683653, 0.13318947942552817, -0.03898407446771685, -0.42806259880737846, -0.5573501498637248, -0.8701798410580346, 0.6351518969039295, 0.06343458490608539, 0.20582128175019987, 0.8806185704381964, -0.9706715169989821, -0.6989838221344211, 0.2825538968093025, 0.18135079279686978, 0.003160906352623726, 0.7391985378342769, 0.2343729455970314, 0.7500876554069515, 0.5447344742137873, -0.21218706620346625, 0.4930996197524107, 0.40290320001006674, -0.8546297007492075, -0.18757628754494413, 0.8872513779257206, 0.9152987780933551, -0.9395378958954599, -1.4208665296452967, 0.5990921680637561, -0.8652279569876816, 0.6164139942844049, 0.561229321572559, -0.20648913067601743, -1.0962747752392985, -0.10693369033147138, -0.6432115099722137, -0.13044470885863413, 0.17812935801397095, 0.655338633997693, -0.9506065889933523, -0.03631585242024229, 0.4614982611156351, -0.8832536466171048, -0.7560595564602518, -0.012747476531978134, -0.4895583843282126, 0.6543249943056039, 0.5524007201525535, 1.1051151546971745, -0.11619715017628475, -0.4170728171277087, -0.38324073140340054, -0.664689458992658, -0.4316453415020686, -0.043131005466830255, -0.7498924464149206, -0.929280426809697, 0.278439126394943, 0.7126409391708257, -0.8507031588824481, -0.25338990129170674, -0.774545771541587, -0.6353727468260882, 0.4223908203211976, -0.09844322340355506, -0.08063907493449178, 0.563961852563948, 0.1673278095854669, 0.8860752898827852, 0.9349578942306378, -0.43758152768886144, -0.3398635614724388, 0.3420636396789799, 0.8448537692694268, -0.6287184096780266, 0.27138966965660627,
0.7736942063747192, 0.8711932290279057, 0.58563460180919, 0.325842914414746, 0.730412869392335, -0.8185568864405155, 1.0794474731820172, 0.844653805807082, -1.1839241337875697, -0.2813481779442613, 0.24027920664057337, 0.22245796159466463, 0.018059367051418012, 0.15372065874179072, -0.8254179901458867, -0.8232267776263934, 0.8248016972199161, 1.086582100856943, 0.7218261639683653, 0.13318947942552817, -0.03898407446771685, -0.4554409679051817, -0.5573501498637248, -0.8701798410580346, 0.6351518969039295, 0.06343458490608539, 0.20582128175019987, 0.8806185704381964, -0.9706715169989821, -0.6989838221344211, 0.2825538968093025, 0.18135079279686978, 0.003160906352623726, 0.7391985378342769, 0.2343729455970314, 0.7500876554069515, 0.5447344742137873, -0.21218706620346625, 0.4930996197524107, 0.40290320001006674, -0.8546297007492075, -0.18757628754494413, 0.8872513779257206, 0.9152987780933551, -0.9395378958954599, -1.4208665296452967, 0.6378602875104243, -0.8652279569876816, 0.6164139942844049, 0.561229321572559, -0.20648913067601743, -1.0962747752392985, -0.10693369033147138, -0.6432115099722137, -0.13044470885863413, 0.19736173303194104, 0.655338633997693, -0.9506065889933523, -0.03631585242024229, 0.4614982611156351, -0.8832536466171048, -0.7572326196386845, -0.012747476531978134, -0.4895583843282126, 0.6543249943056039, 0.5524007201525535, 1.1051151546971745, -0.11619715017628475, -0.4170728171277087, -0.38324073140340054, -0.664689458992658, -0.4316453415020686, -0.043131005466830255, -0.7498924464149206, -0.929280426809697, 0.278439126394943, 0.7126409391708257, -0.8818288488835954, -0.311331657317253, -0.774545771541587, -0.6353727468260882, 0.4223908203211976, -0.09844322340355506, -0.08063907493449178, 0.563961852563948, 0.1673278095854669, 0.8860752898827852, 0.9349578942306378, -0.43758152768886144, -0.3398635614724388, 0.3420636396789799, 0.8571741069548088, -0.6287184096780266, 0.29379528416875056,
0.7736942063747192, 0.7860606687470472, 0.58563460180919, 0.33844587889937955, 0.730412869392335, -0.8106575361925912, 1.0794474731820172, 0.844653805807082, -1.2772865992040718, -0.30183557520558146, 0.24027920664057337, 0.22245796159466463, 0.01632010612398073, 0.15372065874179072, -0.8295269983645455, -0.801271141753504, 0.8248016972199161, 0.904653341127511, 0.7507578273157683, 0.12591413145225472, -0.03905576933631663, -0.42806259880737846, -0.5573501498637248, -0.7867745527682939, 0.6854522777508284, 0.0705282162478551, 0.20582128175019987, 0.8806185704381964, -0.9706715169989821, -0.714142532104505, 0.29934230543585616, 0.18135079279686978, 0.003160906352623726, 0.7391985378342769, 0.25691042835277267, 0.7030891632279549, 0.5447344742137873, -0.19996568783367524, 0.522552009778499, 0.4424241949714584, -0.8656812422236216, -0.18757628754494413, 0.8872513779257206, 0.9152987780933551, -0.9395378958954599, -1.3226635078721976, 0.6041992536620079, -0.8652279569876816, 0.5983692988940631, 0.5684060235063122, -0.20648913067601743, -1.1313893500039056, -0.10693369033147138, -0.6432115099722137, -0.11998445871003649, 0.19662505730469962, 0.655338633997693, -0.9470786821047622, -0.041693374025624626, 0.4672051654802403, -0.9021929767213062, -0.7155549509764043, -0.012747476531978134, -0.4909692917011917, 0.6102051361893449, 0.5524007201525535, 1.1051151546971745, -0.11619715017628475, -0.4170728171277087, -0.38324073140340054, -0.664689458992658, -0.44342417205667883, -0.043131005466830255, -0.7498924464149206, -0.929280426809697, 0.278439126394943, 0.7126409391708257, -0.8507031588824481, -0.28561021992430036, -0.774545771541587, -0.6353727468260882, 0.4223908203211976, -0.09844322340355506, -0.08063907493449178, 0.563961852563948, 0.1673278095854669, 0.8860752898827852, 0.9349578942306378, -0.43758152768886144, -0.3398635614724388, 0.3420636396789799, 0.8448537692694268, -0.6287184096780266, 0.2637781377755316,
0.7736942063747192, 0.8711932290279057, 0.58563460180919, 0.325842914414746, 0.730412869392335, -0.8185568864405155, 1.0794474731820172, 0.844653805807082, -1.1839241337875697, -0.2813481779442613, 0.24027920664057337, 0.22245796159466463, 0.018059367051418012, 0.15372065874179072, -0.8254179901458867, -0.8232267776263934, 0.8248016972199161, 1.086582100856943, 0.7218261639683653, 0.13318947942552817, -0.03898407446771685, -0.42806259880737846, -0.5573501498637248, -0.8701798410580346, 0.6351518969039295, 0.06343458490608539, 0.20582128175019987, 0.9403165927868814, -0.9706715169989821, -0.6989838221344211, 0.2825538968093025, 0.18135079279686978, 0.003160906352623726, 0.7391985378342769, 0.2343729455970314, 0.7500876554069515, 0.5447344742137873, -0.21218706620346625, 0.4930996197524107, 0.40290320001006674, -0.8546297007492075, -0.18757628754494413, 0.8872513779257206, 0.9152987780933551, -0.9395378958954599, -1.4208665296452967, 0.5990921680637561, -0.8652279569876816, 0.6164139942844049, 0.561229321572559, -0.20648913067601743, -1.0962747752392985, -0.10693369033147138, -0.6432115099722137, -0.13044470885863413, 0.19736173303194104, 0.655338633997693, -1.0389205421621688, -0.03631585242024229, 0.4614982611156351, -0.8832536466171048, -0.7560595564602518, -0.012747476531978134, -0.4895583843282126, 0.6543249943056039, 0.5524007201525535, 1.1051151546971745, -0.11619715017628475, -0.4170728171277087, -0.3998404826707806, -0.7239196341433055, -0.3954862555437769, -0.04513826456070667, -0.6956962300538847, -0.9761365938301761, 0.2806617389846643, 0.7126409391708257, -0.8507031588824481, -0.25667192374782455, -0.774545771541587, -0.677867054895924, 0.4223908203211976, -0.09190628498253547, -0.07803706355812738, 0.5501716662154376, 0.17557986251879465, 0.8860752898827852, 0.9349578942306378, -0.4602424721911211, -0.30612608078287823, 0.3420636396789799, 0.8095361887411506, -0.6287184096780266, 0.27138966965660627,
0.7736942063747192, 0.8711932290279057, 0.6254605742482202, 0.325842914414746, 0.730412869392335, -0.8185568864405155, 1.0794474731820172, 0.844653805807082, -1.1839241337875697, -0.2813481779442613, 0.24027920664057337, 0.22245796159466463, 0.018059367051418012, 0.15372065874179072, -0.7891508673240061, -0.8080543526553635, 0.8248016972199161, 0.904653341127511, 0.7326558687002365, 0.12591413145225472, -0.03905576933631663, -0.42806259880737846, -0.5573501498637248, -0.7867745527682939, 0.6854522777508284, 0.0705282162478551, 0.20582128175019987, 0.8806185704381964, -0.9036260504383928, -0.714142532104505, 0.29934230543585616, 0.18135079279686978, 0.003160906352623726, 0.7391985378342769, 0.2343729455970314, 0.7500876554069515, 0.5447344742137873, -0.21218706620346625, 0.4930996197524107, 0.40290320001006674, -0.8546297007492075, -0.18757628754494413, 0.8872513779257206, 0.965192832670222, -1.0042582151146986, -1.4208665296452967, 0.5990921680637561, -0.8652279569876816, 0.6164139942844049, 0.561229321572559, -0.20648913067601743, -1.0962747752392985, -0.10693369033147138, -0.6432115099722137, -0.13044470885863413, 0.19736173303194104, 0.655338633997693, -0.9506065889933523, -0.03631585242024229, 0.4614982611156351, -0.8832536466171048, -0.7560595564602518, -0.012747476531978134, -0.4895583843282126, 0.6543249943056039, 0.5524007201525535, 1.1051151546971745, -0.11619715017628475, -0.4170728171277087, -0.38324073140340054, -0.664689458992658, -0.4316453415020686, -0.043131005466830255, -0.7498924464149206, -1.007288167967175, 0.278439126394943, 0.7126409391708257, -0.8507031588824481, -0.25338990129170674, -0.774545771541587, -0.6353727468260882, 0.3812905545272932, -0.09844322340355506, -0.08063907493449178, 0.563961852563948, 0.1673278095854669, 0.9467745765162366, 0.9349578942306378, -0.43758152768886144, -0.3398635614724388, 0.3420636396789799, 0.8448537692694268, -0.6622976785812021, 0.27138966965660627,
0.7736942063747192, 0.7819847675985488, 0.58563460180919, 0.33844587889937955, 0.730412869392335, -0.8106575361925912, 1.0794474731820172, 0.9117993487352954, -1.1839241337875697, -0.2813481779442613, 0.24027920664057337, 0.22245796159466463, 0.018059367051418012, 0.16090613106661844, -0.8213274094746759, -0.8232267776263934, 0.8248016972199161, 1.086582100856943, 0.7218261639683653, 0.13318947942552817, -0.03898407446771685, -0.42806259880737846, -0.5573501498637248, -0.8701798410580346, 0.6351518969039295, 0.06343458490608539, 0.20582128175019987, 0.8806185704381964, -0.9706715169989821, -0.6989838221344211, 0.2825538968093025, 0.18135079279686978, 0.003160906352623726, 0.7391985378342769, 0.2343729455970314, 0.7500876554069515, 0.5447344742137873, -0.19996568783367524, 0.522552009778499, 0.4424241949714584, -0.8182507374106525, -0.18757628754494413, 0.8872513779257206, 0.9152987780933551, -0.9395378958954599, -1.3226635078721976, 0.6041992536620079, -0.8652279569876816, 0.5983692988940631, 0.5684060235063122, -0.20648913067601743, -1.1323489107975375, -0.10693369033147138, -0.6978698736338732, -0.13044470885863413, 0.18511178138151257, 0.655338633997693, -0.9506065889933523, -0.035648415077768315, 0.4672051654802403, -0.883108631118622, -0.7937910961855411, -0.01328256458317109, -0.4985790789654474, 0.6256149899415852, 0.5524007201525535, 1.1051151546971745, -0.11619715017628475, -0.3922983177356546, -0.3501974944827278, -0.7239196341433055, -0.3954862555437769, -0.04513826456070667, -0.7498924464149206, -0.929280426809697, 0.25988522188627894, 0.7765174474769686, -0.8507031588824481, -0.25338990129170674, -0.774545771541587, -0.6353727468260882, 0.4223908203211976, -0.09844322340355506, -0.08063907493449178, 0.5501716662154376, 0.1823319953280031, 0.8860752898827852, 1.016869402267548, -0.4602424721911211, -0.30612608078287823, 0.366262719999097, 0.8095361887411506, -0.6287184096780266, 0.2637781377755316,
0.7422093845760314, 0.8711932290279057, 0.58563460180919, 0.325842914414746, 0.730412869392335, -0.8185568864405155, 1.0794474731820172, 0.8645594411971721, -1.1839241337875697, -0.2813481779442613, 0.24027920664057337, 0.22245796159466463, 0.018059367051418012, 0.15372065874179072, -0.8254179901458867, -0.8232267776263934, 0.8248016972199161, 1.086582100856943, 0.7218261639683653, 0.13318947942552817, -0.0393555480007387, -0.42806259880737846, -0.5573501498637248, -0.8701798410580346, 0.6351518969039295, 0.05978675139860292, 0.20582128175019987, 0.8806185704381964, -0.9706715169989821, -0.6989838221344211, 0.2825538968093025, 0.18135079279686978, 0.003160906352623726, 0.7391985378342769, 0.2343729455970314, 0.7500876554069515, 0.5447344742137873, -0.21218706620346625, 0.46040560449594814, 0.40290320001006674, -0.8546297007492075, -0.18757628754494413, 0.8872513779257206, 0.9255428661492436, -0.9395378958954599, -1.3226635078721976, 0.5990921680637561, -0.8652279569876816, 0.6164139942844049, 0.561229321572559, -0.20648913067601743, -1.0962747752392985, -0.10693369033147138, -0.6432115099722137, -0.13044470885863413, 0.19736173303194104, 0.655338633997693, -0.9506065889933523, -0.03914597654759744, 0.4672051654802403, -0.8832536466171048, -0.7560595564602518, -0.013338828112504392, -0.4811907434373898, 0.6256149899415852, 0.5392090133414472, 1.1051151546971745, -0.11619715017628475, -0.4170728171277087, -0.4001274381919274, -0.7239196341433055, -0.3954862555437769, -0.04513826456070667, -0.7498924464149206, -0.929280426809697, 0.278439126394943, 0.779501161745993, -0.8507031588824481, -0.28561021992430036, -0.8745556434290572, -0.6304310035466243, 0.5220828362588327, -0.10565508513315917, -0.0859165199896709, 0.5367920035845354, 0.18329580924782088, 0.8860752898827852, 0.9349578942306378, -0.4602424721911211, -0.3391819716100832, 0.3420636396789799, 0.748711389094039, -0.6287184096780266, 0.27138966965660627,
0.7736942063747192, 0.8408193005704406, 0.6253567416243122, 0.325842914414746, 0.7683325384837306, -0.8106575361925912, 1.0794474731820172, 0.844653805807082, -1.1839241337875697, -0.30805924544607544, 0.24027920664057337, 0.22245796159466463, 0.018059367051418012, 0.1416115787125051, -0.7853556716475507, -0.8232267776263934, 0.7964187159421109, 1.086582100856943, 0.7218261639683653, 0.13216143181096723, -0.03936938595381348, -0.5365894725492387, -0.462328254656056, -0.8701798410580346, 0.6351518969039295, 0.06343458490608539, 0.20582128175019987, 0.8806185704381964, -0.9706715169989821, -0.6989838221344211, 0.2825538968093025, 0.18135079279686978, 0.003160906352623726, 0.7391985378342769, 0.2343729455970314, 0.7500876554069515, 0.5447344742137873, -0.21218706620346625, 0.4930996197524107, 0.40290320001006674, -0.8546297007492075, -0.18757628754494413, 0.8872513779257206, 0.9152987780933551, -0.9395378958954599, -1.4208665296452967, 0.598637276867789, -0.8652279569876816, 0.6343177310860613, 0.561229321572559, -0.20920809038477342, -1.1323489107975375, -0.11257184780728803, -0.6432115099722137, -0.12923547992967088, 0.19736173303194104, 0.655338633997693, -0.9506065889933523, -0.035648415077768315, 0.4672051654802403, -0.9526243977970525, -0.7772386723078009, -0.013338828112504392, -0.4231880278933737, 0.6256149899415852, 0.5392090133414472, 1.1051151546971745, -0.11376810312104052, -0.4170728171277087, -0.4001274381919274, -0.7591821173379089, -0.3954862555437769, -0.04513826456070667, -0.7530023460875346, -0.929280426809697, 0.2634339356137033, 0.779501161745993, -0.8507031588824481, -0.28561021992430036, -0.8745556434290572, -0.6353727468260882, 0.5220828362588327, -0.11093373775495863, -0.08123158939503809, 0.5367920035845354, 0.1673278095854669, 0.8768510487827792, 0.9349578942306378, -0.4602424721911211, -0.33393824952917944, 0.3420636396789799, 0.748711389094039, -0.6287184096780266, 0.27138966965660627,
0.7736942063747192, 0.8711932290279057, 0.58563460180919, 0.325842914414746, 0.7605512792041594, -0.8195631576828994, 1.0794474731820172, 0.844653805807082, -1.258745054741621, -0.2813481779442613, 0.22150512392839963, 0.22245796159466463, 0.018059367051418012, 0.15051122976026912, -0.7853556716475507, -0.8232267776263934, 0.8248016972199161, 1.0044190993753717, 0.7049606917512733, 0.13216143181096723, -0.03936938595381348, -0.5365894725492387, -0.5573501498637248, -0.8701798410580346, 0.6854522777508284, 0.06343458490608539, 0.20582128175019987, 0.8806185704381964, -0.9706715169989821, -0.6989838221344211, 0.298158422061151, 0.18135079279686978, 0.003160906352623726, 0.6833436555285831, 0.2334611413627717, 0.7500876554069515, 0.5447344742137873, -0.21218706620346625, 0.4930996197524107, 0.40290320001006674, -0.8546297007492075, -0.18757628754494413, 0.9541241871734905, 0.9152987780933551, -0.9395378958954599, -1.4208665296452967, 0.5990921680637561, -0.8652279569876816, 0.6164139942844049, 0.561229321572559, -0.20648913067601743, -1.0962747752392985, -0.10693369033147138, -0.6432115099722137, -0.11998445871003649, 0.19736173303194104, 0.655338633997693, -0.9506065889933523, -0.03631585242024229, 0.4973965565401607, -0.8832536466171048, -0.7560595564602518, -0.012747476531978134, -0.4895583843282126, 0.6543249943056039, 0.5524007201525535, 1.1051151546971745, -0.11619715017628475, -0.4170728171277087, -0.38324073140340054, -0.664689458992658, -0.4316453415020686, -0.043131005466830255, -0.7498924464149206, -0.929280426809697, 0.278439126394943, 0.7126409391708257, -0.8507031588824481, -0.25338990129170674, -0.774545771541587, -0.6353727468260882, 0.4223908203211976, -0.09844322340355506, -0.08063907493449178, 0.563961852563948, 0.1673278095854669, 0.8860752898827852, 0.9349578942306378, -0.43758152768886144, -0.3398635614724388, 0.3420636396789799, 0.8448537692694268, -0.6287184096780266, 0.27138966965660627,
0.7736942063747192, 0.7819847675985488, 0.58563460180919, 0.33844587889937955, 0.7794325058654705, -0.8106575361925912, 1.0794474731820172, 0.844653805807082, -1.1839241337875697, -0.26713623901719885, 0.23967854901623434, 0.22245796159466463, 0.018059367051418012, 0.16492563108421007, -0.7996417690371096, -0.8485096271383383, 0.8248016972199161, 0.9796896956880006, 0.7248529450692253, 0.12591413145225472, -0.0383860365211638, -0.42806259880737846, -0.6108445345281657, -0.8701798410580346, 0.6943367379381578, 0.06343458490608539, 0.20582128175019987, 0.8806185704381964, -0.9706715169989821, -0.7176421453735616, 0.29934230543585616, 0.18135079279686978, 0.0029820153069337403, 0.7391985378342769, 0.2343729455970314, 0.7500876554069515, 0.5447344742137873, -0.20081706913088143, 0.5003890096606439, 0.40290320001006674, -0.9305227534223743, -0.18757628754494413, 0.8872513779257206, 0.9152987780933551, -0.9395378958954599, -1.4208665296452967, 0.5990921680637561, -0.8652279569876816, 0.6164139942844049, 0.561229321572559, -0.20648913067601743, -1.0962747752392985, -0.10693369033147138, -0.6432115099722137, -0.13044470885863413, 0.19736173303194104, 0.655338633997693, -0.9506065889933523, -0.035648415077768315, 0.4672051654802403, -0.9679780590338651, -0.7937910961855411, -0.013338828112504392, -0.4985790789654474, 0.6256149899415852, 0.5524007201525535, 1.1051151546971745, -0.11619715017628475, -0.43043247444305444, -0.38324073140340054, -0.7239196341433055, -0.3954862555437769, -0.04513826456070667, -0.7413190303772798, -0.929280426809697, 0.278439126394943, 0.7946646220795596, -0.8507031588824481, -0.25338990129170674, -0.774545771541587, -0.5850078891070506, 0.4223908203211976, -0.0958140161444178, -0.08063907493449178, 0.5501716662154376, 0.1673278095854669, 0.8860752898827852, 0.9349578942306378, -0.4602424721911211, -0.30612608078287823, 0.3420636396789799, 0.8095361887411506, -0.6287184096780266, 0.2637781377755316,
0.7736942063747192, 0.8711932290279057, 0.58563460180919, 0.33844587889937955, 0.730412869392335, -0.8106575361925912, 1.0794474731820172, 0.7961393879740613, -1.258745054741621, -0.2813481779442613, 0.22150512392839963, 0.22811944425945732, 0.018059367051418012, 0.15051122976026912, -0.7853556716475507, -0.7982399377092685, 0.8248016972199161, 1.086582100856943, 0.7049606917512733, 0.13216143181096723, -0.03936938595381348, -0.5365894725492387, -0.5573501498637248, -0.8701798410580346, 0.6943367379381578, 0.06343458490608539, 0.20582128175019987, 0.8806185704381964, -0.9706715169989821, -0.714142532104505, 0.2833971312032279, 0.18135079279686978, 0.0029820153069337403, 0.7391985378342769, 0.2343729455970314, 0.7500876554069515, 0.5447344742137873, -0.204850653128787, 0.5003890096606439, 0.40290320001006674, -0.9305227534223743, -0.18757628754494413, 0.8513760895251637, 0.9152987780933551, -0.9395378958954599, -1.4208665296452967, 0.5990921680637561, -0.8652279569876816, 0.6164139942844049, 0.561229321572559, -0.20648913067601743, -1.0962747752392985, -0.10693369033147138, -0.6432115099722137, -0.13044470885863413, 0.19736173303194104, 0.655338633997693, -0.9506065889933523, -0.03631585242024229, 0.4614982611156351, -0.8832536466171048, -0.7826910597257319, -0.012747476531978134, -0.4895583843282126, 0.6543249943056039, 0.5524007201525535, 1.1051151546971745, -0.11619715017628475, -0.4170728171277087, -0.4065935030317247, -0.664689458992658, -0.4316453415020686, -0.043131005466830255, -0.7498924464149206, -0.929280426809697, 0.278439126394943, 0.7126409391708257, -0.8507031588824481, -0.25338990129170674, -0.774545771541587, -0.6353727468260882, 0.4223908203211976, -0.09844322340355506, -0.08063907493449178, 0.598054539953367, 0.1673278095854669, 0.8860752898827852, 0.9349578942306378, -0.43758152768886144, -0.3398635614724388, 0.3420636396789799, 0.7987824387758418, -0.6287184096780266, 0.27138966965660627,
0.7736942063747192, 0.7819847675985488, 0.58563460180919, 0.325842914414746, 0.7605512792041594, -0.8195631576828994, 1.0794474731820172, 0.844653805807082, -1.2928537749800049, -0.2813481779442613, 0.24027920664057337, 0.22245796159466463, 0.018059367051418012, 0.15372065874179072, -0.8254179901458867, -0.8232267776263934, 0.8248016972199161, 1.086582100856943, 0.7218261639683653, 0.13216143181096723, -0.03764240925932085, -0.47194230197642323, -0.5573501498637248, -0.8701798410580346, 0.6854522777508284, 0.06313336909431022, 0.20582128175019987, 0.8806185704381964, -0.9706715169989821, -0.6693626423145982, 0.2825538968093025, 0.16702959357465005, 0.0033580035622670762, 0.7391985378342769, 0.2343729455970314, 0.7500876554069515, 0.5260754918860386, -0.19216667300186435, 0.522552009778499, 0.40733449108035025, -0.9046361508272843, -0.18757628754494413, 0.8872513779257206, 0.8504422221307543, -0.9395378958954599, -1.5300682098537304, 0.5990921680637561, -0.7861160828058009, 0.6343177310860613, 0.561229321572559, -0.20648913067601743, -1.0962747752392985, -0.10693369033147138, -0.6432115099722137, -0.11998445871003649, 0.19662505730469962, 0.655338633997693, -0.8512245159218379, -0.035648415077768315, 0.43808949986773543, -0.8832536466171048, -0.7715799245353081, -0.013338828112504392, -0.49038107482070137, 0.5724945070254158, 0.5392090133414472, 1.1051151546971745, -0.1258043526840131, -0.4170728171277087, -0.38324073140340054, -0.7181492272931035, -0.380433180785575, -0.04513826456070667, -0.7498924464149206, -0.929280426809697, 0.278439126394943, 0.8422403127245782, -0.8908579862652598, -0.25338990129170674, -0.774545771541587, -0.6353727468260882, 0.4223908203211976, -0.09844322340355506, -0.08063907493449178, 0.5501716662154376, 0.1673278095854669, 0.8860752898827852, 0.9349578942306378, -0.4602424721911211, -0.30612608078287823, 0.3420636396789799, 0.8614878743779503, -0.6287184096780266, 0.2637781377755316,
0.7422093845760314, 0.8711932290279057, 0.58563460180919, 0.325842914414746, 0.7683325384837306, -0.8106575361925912, 1.0794474731820172, 0.844653805807082, -1.283810522351127, -0.30805924544607544, 0.24027920664057337, 0.22245796159466463, 0.018059367051418012, 0.16888177769935914, -0.8295269983645455, -0.8080543526553635, 0.8248016972199161, 0.9282801136788996, 0.7507578273157683, 0.12591413145225472, -0.03905576933631663, -0.42806259880737846, -0.5573501498637248, -0.7867745527682939, 0.6854522777508284, 0.0705282162478551, 0.22501374426868948, 0.8806185704381964, -0.9706715169989821, -0.714142532104505, 0.29934230543585616, 0.18135079279686978, 0.0028278076937749423, 0.7391985378342769, 0.2343729455970314, 0.7500876554069515, 0.5230673280689244, -0.2205268541692587, 0.5003890096606439, 0.4424241949714584, -0.7959335997402989, -0.18757628754494413, 0.851736635166281, 0.9152987780933551, -0.9395378958954599, -1.3226635078721976, 0.5990921680637561, -0.8652279569876816, 0.6164139942844049, 0.561229321572559, -0.20648913067601743, -1.2372847371772993, -0.10693369033147138, -0.6978698736338732, -0.13044470885863413, 0.19736173303194104, 0.655338633997693, -0.9506065889933523, -0.03631585242024229, 0.4672051654802403, -0.8832536466171048, -0.7560595564602518, -0.013338828112504392, -0.4811907434373898, 0.6256149899415852, 0.5392090133414472, 1.1051151546971745, -0.11619715017628475, -0.4170728171277087, -0.4001274381919274, -0.7239196341433055, -0.3954862555437769, -0.04513826456070667, -0.7498924464149206, -0.929280426809697, 0.278439126394943, 0.7648447946420233, -0.8507031588824481, -0.28561021992430036, -0.8745556434290572, -0.6304310035466243, 0.5220828362588327, -0.10565508513315917, -0.0859165199896709, 0.5367920035845354, 0.18329580924782088, 0.8860752898827852, 0.9349578942306378, -0.4602424721911211, -0.33393824952917944, 0.3420636396789799, 0.748711389094039, -0.6287184096780266, 0.27138966965660627,
0.7736942063747192, 0.7819847675985488, 0.58563460180919, 0.33844587889937955, 0.730412869392335, -0.7800442832486915, 1.0794474731820172, 0.844653805807082, -1.1106610362620917, -0.2813481779442613, 0.24027920664057337, 0.22245796159466463, 0.018059367051418012, 0.1416115787125051, -0.7853556716475507, -0.8232267776263934, 0.8248016972199161, 1.086582100856943, 0.7218261639683653, 0.13216143181096723, -0.03936938595381348, -0.5365894725492387, -0.5064215159059025, -0.8701798410580346, 0.6351518969039295, 0.06427422214391573, 0.2073996014463719, 0.8806185704381964, -0.9706715169989821, -0.6989838221344211, 0.2825538968093025, 0.18135079279686978, 0.003160906352623726, 0.7391985378342769, 0.2343729455970314, 0.7500876554069515, 0.5447344742137873, -0.21218706620346625, 0.4930996197524107, 0.40290320001006674, -0.8546297007492075, -0.18757628754494413, 0.8872513779257206, 0.9152987780933551, -0.9395378958954599, -1.4208665296452967, 0.5990921680637561, -0.8652279569876816, 0.6164139942844049, 0.561229321572559, -0.20648913067601743, -1.0962747752392985, -0.10693369033147138, -0.6432115099722137, -0.13044470885863413, 0.19736173303194104, 0.655338633997693, -0.9506065889933523, -0.035648415077768315, 0.4672051654802403, -0.9679780590338651, -0.7772386723078009, -0.013921127384425013, -0.4985790789654474, 0.6426364253455993, 0.5524007201525535, 1.1916709475001344, -0.11619715017628475, -0.43043247444305444, -0.41280479818143895, -0.6523849637042947, -0.3954862555437769, -0.04513826456070667, -0.7498924464149206, -0.9973823299115162, 0.278439126394943, 0.7765174474769686, -0.7721093465800734, -0.25338990129170674, -0.774545771541587, -0.6353727468260882, 0.4223908203211976, -0.09844322340355506, -0.08063907493449178, 0.5501716662154376, 0.1673278095854669, 0.8860752898827852, 0.9349578942306378, -0.4602424721911211, -0.30612608078287823, 0.3420636396789799, 0.8095361887411506, -0.6287184096780266, 0.2637781377755316,
0.7736942063747192, 0.7819847675985488, 0.58563460180919, 0.33844587889937955, 0.730412869392335, -0.7800442832486915, 1.0794474731820172, 0.844653805807082, -1.1106610362620917, -0.2813481779442613, 0.24027920664057337, 0.22245796159466463, 0.018059367051418012, 0.15372065874179072, -0.8295269983645455, -0.8080543526553635, 0.8248016972199161, 0.904653341127511, 0.7507578273157683, 0.12591413145225472, -0.03905576933631663, -0.42361430025779023, -0.5573501498637248, -0.7867745527682939, 0.6854522777508284, 0.0705282162478551, 0.22501374426868948, 0.8806185704381964, -0.9706715169989821, -0.714142532104505, 0.2819467963621877, 0.18135079279686978, 0.0028278076937749423, 0.7391985378342769, 0.2343729455970314, 0.7500876554069515, 0.5280906226334738, -0.2205268541692587, 0.5003890096606439, 0.4424241949714584, -0.7959335997402989, -0.18757628754494413, 0.7761051426147281, 0.9152987780933551, -0.9395378958954599, -1.3226635078721976, 0.6041992536620079, -0.8652279569876816, 0.6513603550123325, 0.561229321572559, -0.19774237657597626, -1.0462853348022676, -0.10693369033147138, -0.6432115099722137, -0.13044470885863413, 0.19736173303194104, 0.6601189392862282, -0.9506065889933523, -0.035648415077768315, 0.43478780047527144, -0.9679780590338651, -0.7772386723078009, -0.013338828112504392, -0.4985790789654474, 0.699677640800404, 0.5524007201525535, 1.1916709475001344, -0.11619715017628475, -0.43043247444305444, -0.41280479818143895, -0.6523849637042947, -0.3954862555437769, -0.04513826456070667, -0.7498924464149206, -0.9973823299115162, 0.278439126394943, 0.7765174474769686, -0.8507031588824481, -0.25338990129170674, -0.774545771541587, -0.6353727468260882, 0.4223908203211976, -0.09844322340355506, -0.08063907493449178, 0.5501716662154376, 0.1673278095854669, 0.8860752898827852, 1.0193290995787625, -0.4602424721911211, -0.30612608078287823, 0.3420636396789799, 0.8095361887411506, -0.6287184096780266, 0.2637781377755316,
0.7736942063747192, 0.7819847675985488, 0.58563460180919, 0.33844587889937955, 0.730412869392335, -0.8106575361925912, 1.0794474731820172, 0.9117993487352954, -1.1839241337875697, -0.2813481779442613, 0.24027920664057337, 0.22245796159466463, 0.018059367051418012, 0.15372065874179072, -0.7891508673240061, -0.8080543526553635, 0.8248016972199161, 0.904653341127511, 0.7326558687002365, 0.12591413145225472, -0.03905576933631663, -0.42806259880737846, -0.5573501498637248, -0.7867745527682939, 0.6854522777508284, 0.0705282162478551, 0.22501374426868948, 0.8806185704381964, -0.9706715169989821, -0.714142532104505, 0.29934230543585616, 0.18135079279686978, 0.0028278076937749423, 0.7391985378342769, 0.2343729455970314, 0.7500876554069515, 0.5230673280689244, -0.2205268541692587, 0.5003890096606439, 0.4424241949714584, -0.7959335997402989, -0.18757628754494413, 0.851736635166281, 0.9152987780933551, -0.9395378958954599, -1.3226635078721976, 0.6041992536620079, -0.8652279569876816, 0.7014534242230469, 0.561229321572559, -0.19774237657597626, -1.0462853348022676, -0.10693369033147138, -0.6432115099722137, -0.13044470885863413, 0.19736173303194104, 0.6601189392862282, -0.9506065889933523, -0.035648415077768315, 0.43478780047527144, -0.9679780590338651, -0.8205008177307346, -0.013338828112504392, -0.4985790789654474, 0.6426364253455993, 0.5524007201525535, 1.1916709475001344, -0.12467504625148493, -0.43043247444305444, -0.41280479818143895, -0.6523849637042947, -0.3954862555437769, -0.04513826456070667, -0.7498924464149206, -0.929280426809697, 0.2783547270207997, 0.7765174474769686, -0.8507031588824481, -0.25338990129170674, -0.774545771541587, -0.6353727468260882, 0.4223908203211976, -0.09844322340355506, -0.08063907493449178, 0.5501716662154376, 0.1823319953280031, 0.8860752898827852, 1.016869402267548, -0.4602424721911211, -0.30612608078287823, 0.366262719999097, 0.8095361887411506, -0.6287184096780266, 0.2637781377755316,
0.7736942063747192, 0.7860606687470472, 0.58563460180919, 0.3158822843899231, 0.7605512792041594, -0.8106575361925912, 1.0794474731820172, 0.844653805807082, -1.1839241337875697, -0.26713623901719885, 0.24027920664057337, 0.21865308726929159, 0.0184294270721352, 0.15240630424349635, -0.7866408575735806, -0.7978385610461325, 0.8877648870353001, 0.9796896956880006, 0.7248529450692253, 0.13318947942552817, -0.03898407446771685, -0.42806259880737846, -0.5573501498637248, -0.8701798410580346, 0.7055768099903413, 0.057585485227521695, 0.20582128175019987, 0.8963495790286213, -0.9706715169989821, -0.714142532104505, 0.29934230543585616, 0.18135079279686978, 0.003160906352623726, 0.7391985378342769, 0.2343729455970314, 0.7500876554069515, 0.5260754918860386, -0.21218706620346625, 0.4930996197524107, 0.40290320001006674, -0.8457768849028536, -0.18757628754494413, 0.9483318689514338, 0.9612989712751512, -1.0151745633215716, -1.4208665296452967, 0.5990921680637561, -0.8652279569876816, 0.6164139942844049, 0.561229321572559, -0.20648913067601743, -1.1323489107975375, -0.10693369033147138, -0.6978698736338732, -0.13044470885863413, 0.19736173303194104, 0.655338633997693, -0.9506065889933523, -0.035648415077768315, 0.4672051654802403, -0.9679780590338651, -0.7772386723078009, -0.013338828112504392, -0.45508250270384293, 0.6256149899415852, 0.5392090133414472, 1.1051151546971745, -0.11619715017628475, -0.4170728171277087, -0.4001274381919274, -0.7239196341433055, -0.3954862555437769, -0.04513826456070667, -0.7498924464149206, -0.929280426809697, 0.27594906175849143, 0.779501161745993, -0.8507031588824481, -0.25338990129170674, -0.8205300385003503, -0.6353727468260882, 0.4757667325896645, -0.10565508513315917, -0.0859165199896709, 0.5367920035845354, 0.16738370664477556, 0.8860752898827852, 0.9349578942306378, -0.4602424721911211, -0.33393824952917944, 0.3420636396789799, 0.8095361887411506, -0.6287184096780266, 0.2637781377755316,
0.7736942063747192, 0.8711932290279057, 0.58563460180919, 0.325842914414746, 0.730412869392335, -0.8185568864405155, 1.0794474731820172, 0.844653805807082, -1.1839241337875697, -0.2813481779442613, 0.24027920664057337, 0.22245796159466463, 0.0177664595019855, 0.15372065874179072, -0.8422746929255404, -0.8232267776263934, 0.8248016972199161, 1.086582100856943, 0.7218261639683653, 0.12591413145225472, -0.038992564321774316, -0.42806259880737846, -0.5573501498637248, -0.8701798410580346, 0.6854522777508284, 0.06343458490608539, 0.20582128175019987, 0.8806185704381964, -0.9706715169989821, -0.6989838221344211, 0.2825538968093025, 0.18135079279686978, 0.003160906352623726, 0.7169328065722526, 0.2343729455970314, 0.7500876554069515, 0.5447344742137873, -0.21218706620346625, 0.522552009778499, 0.40733449108035025, -0.8656812422236216, -0.18757628754494413, 0.8872513779257206, 0.9152987780933551, -0.8512457736054003, -1.5300682098537304, 0.5443133960612891, -0.8652279569876816, 0.6343177310860613, 0.561229321572559, -0.20648913067601743, -1.0962747752392985, -0.10693369033147138, -0.6432115099722137, -0.11998445871003649, 0.19662505730469962, 0.6916645607021346, -0.9254729834396979, -0.035648415077768315, 0.4672051654802403, -0.8832536466171048, -0.7772386723078009, -0.013338828112504392, -0.44153973819414727, 0.5570030836824513, 0.5392090133414472, 1.1051151546971745, -0.11619715017628475, -0.4170728171277087, -0.38324073140340054, -0.7239196341433055, -0.3954862555437769, -0.04513826456070667, -0.7498924464149206, -0.8513973797893973, 0.278439126394943, 0.7809025357033399, -0.870046444871637, -0.289799178449638, -0.8205300385003503, -0.6353727468260882, 0.5220828362588327, -0.10565508513315917, -0.0859165199896709, 0.563961852563948, 0.1673278095854669, 0.8860752898827852, 0.9349578942306378, -0.43758152768886144, -0.3398635614724388, 0.3420636396789799, 0.8448537692694268, -0.6803058229082769, 0.27138966965660627,
0.7736942063747192, 0.8711932290279057, 0.58563460180919, 0.325842914414746, 0.730412869392335, -0.8185568864405155, 1.0794474731820172, 0.8312668030800691, -1.1839241337875697, -0.2813481779442613, 0.24027920664057337, 0.22245796159466463, 0.0177664595019855, 0.15372065874179072, -0.8295269983645455, -0.8080543526553635, 0.8248016972199161, 0.904653341127511, 0.7507578273157683, 0.12431375298720426, -0.03905576933631663, -0.42806259880737846, -0.5361564330838606, -0.7867745527682939, 0.6854522777508284, 0.0705282162478551, 0.22501374426868948, 0.8806185704381964, -0.8867807607311614, -0.714142532104505, 0.29934230543585616, 0.18135079279686978, 0.0028278076937749423, 0.7391985378342769, 0.2343729455970314, 0.7500876554069515, 0.5230673280689244, -0.2205268541692587, 0.5003890096606439, 0.4424241949714584, -0.7959335997402989, -0.18757628754494413, 0.851736635166281, 0.9152987780933551, -0.9395378958954599, -1.3226635078721976, 0.5990921680637561, -0.8652279569876816, 0.6164139942844049, 0.561229321572559, -0.20648913067601743, -1.1323489107975375, -0.10693369033147138, -0.6978698736338732, -0.13044470885863413, 0.19736173303194104, 0.655338633997693, -0.9506065889933523, -0.035648415077768315, 0.4672051654802403, -0.9679780590338651, -0.7772386723078009, -0.013338828112504392, -0.4985790789654474, 0.6426364253455993, 0.5524007201525535, 1.1916709475001344, -0.11619715017628475, -0.43043247444305444, -0.41280479818143895, -0.6523849637042947, -0.3954862555437769, -0.04513826456070667, -0.7498924464149206, -0.9973823299115162, 0.2892246952195057, 0.7765174474769686, -0.8507031588824481, -0.25338990129170674, -0.774545771541587, -0.6353727468260882, 0.4223908203211976, -0.09844322340355506, -0.08063907493449178, 0.5501716662154376, 0.1673278095854669, 0.8860752898827852, 0.9349578942306378, -0.43758152768886144, -0.3398635614724388, 0.3420636396789799, 0.8448537692694268, -0.6287184096780266, 0.27138966965660627,
0.7736942063747192, 0.7819847675985488, 0.58563460180919, 0.33844587889937955, 0.730412869392335, -0.7800442832486915, 1.0794474731820172, 0.844653805807082, -1.1106610362620917, -0.2813481779442613, 0.24027920664057337, 0.22245796159466463, 0.018059367051418012, 0.14798035360375858, -0.8422746929255404, -0.8232267776263934, 0.8248016972199161, 1.086582100856943, 0.7218261639683653, 0.13318947942552817, -0.03898407446771685, -0.42806259880737846, -0.5573501498637248, -0.8701798410580346, 0.7055768099903413, 0.057585485227521695, 0.20582128175019987, 0.8806185704381964, -0.9706715169989821, -0.7572138359053427, 0.29934230543585616, 0.18135079279686978, 0.003160906352623726, 0.6804989761660459, 0.2343729455970314, 0.7500876554069515, 0.5260754918860386, -0.21218706620346625, 0.522552009778499, 0.40733449108035025, -0.8154488778661168, -0.18757628754494413, 0.8872513779257206, 1.0021604980234384, -0.8512457736054003, -1.5300682098537304, 0.5443133960612891, -0.8378507422947721, 0.6343177310860613, 0.561229321572559, -0.20648913067601743, -1.0962747752392985, -0.10693369033147138, -0.6432115099722137, -0.13116905143304175, 0.19662505730469962, 0.6916645607021346, -0.8675141822354988, -0.035648415077768315, 0.4672051654802403, -0.8832536466171048, -0.7772386723078009, -0.013338828112504392, -0.44153973819414727, 0.5570030836824513, 0.5392090133414472, 1.1051151546971745, -0.11619715017628475, -0.4170728171277087, -0.38324073140340054, -0.7239196341433055, -0.3954862555437769, -0.04513826456070667, -0.7498924464149206, -0.8513973797893973, 0.278439126394943, 0.7825284016255278, -0.870046444871637, -0.289799178449638, -0.8205300385003503, -0.6353727468260882, 0.5703330964569288, -0.10565508513315917, -0.0859165199896709, 0.563961852563948, 0.1673278095854669, 0.8860752898827852, 0.9349578942306378, -0.4602424721911211, -0.30612608078287823, 0.3456881055147179, 0.8095361887411506, -0.6287184096780266, 0.2637781377755316,
0.7736942063747192, 0.7819847675985488, 0.58563460180919, 0.33844587889937955, 0.730412869392335, -0.8106575361925912, 1.0794474731820172, 0.9117993487352954, -1.1839241337875697, -0.2813481779442613, 0.24027920664057337, 0.24121385108421795, 0.018059367051418012, 0.15372065874179072, -0.7891508673240061, -0.8080543526553635, 0.8248016972199161, 0.904653341127511, 0.7326558687002365, 0.12591413145225472, -0.036435896053639984, -0.42806259880737846, -0.5573501498637248, -0.7867745527682939, 0.6854522777508284, 0.0705282162478551, 0.22501374426868948, 0.8806185704381964, -0.9706715169989821, -0.6693626423145982, 0.2825538968093025, 0.16702959357465005, 0.0033580035622670762, 0.7391985378342769, 0.2343729455970314, 0.7500876554069515, 0.47947162696076545, -0.21218706620346625, 0.522552009778499, 0.40733449108035025, -0.9046361508272843, -0.18757628754494413, 0.8872513779257206, 0.9611534491607342, -0.9395378958954599, -1.5300682098537304, 0.5990921680637561, -0.8652279569876816, 0.6343177310860613, 0.561229321572559, -0.20648913067601743, -1.0962747752392985, -0.10693369033147138, -0.6432115099722137, -0.11998445871003649, 0.19662505730469962, 0.655338633997693, -0.8512245159218379, -0.035648415077768315, 0.43808949986773543, -0.8832536466171048, -0.7715799245353081, -0.013338828112504392, -0.49038107482070137, 0.5724945070254158, 0.5392090133414472, 1.1051151546971745, -0.1258043526840131, -0.4170728171277087, -0.38324073140340054, -0.7181492272931035, -0.380433180785575, -0.04513826456070667, -0.7498924464149206, -0.929280426809697, 0.278439126394943, 0.8422403127245782, -0.8908579862652598, -0.25338990129170674, -0.774545771541587, -0.6353727468260882, 0.4223908203211976, -0.09844322340355506, -0.08063907493449178, 0.5501716662154376, 0.1673278095854669, 0.8860752898827852, 0.9349578942306378, -0.4602424721911211, -0.30612608078287823, 0.3420636396789799, 0.8614878743779503, -0.6287184096780266, 0.2637781377755316,
0.7736942063747192, 0.7819847675985488, 0.58563460180919, 0.33844587889937955, 0.730412869392335, -0.8106575361925912, 1.0794474731820172, 0.844653805807082, -1.1839241337875697, -0.2813481779442613, 0.24027920664057337, 0.22245796159466463, 0.018059367051418012, 0.16859947233742126, -0.8878300939914296, -0.7502470937353916, 0.8248016972199161, 1.086582100856943, 0.7218261639683653, 0.13216143181096723, -0.03905576933631663, -0.47194230197642323, -0.5573501498637248, -0.8701798410580346, 0.6854522777508284, 0.061470487637409185, 0.20582128175019987, 0.8806185704381964, -0.9706715169989821, -0.714142532104505, 0.29934230543585616, 0.18135079279686978, 0.0028278076937749423, 0.7391985378342769, 0.2343729455970314, 0.7500876554069515, 0.5230673280689244, -0.2205268541692587, 0.5003890096606439, 0.4424241949714584, -0.7959335997402989, -0.18757628754494413, 0.851736635166281, 0.9152987780933551, -0.9395378958954599, -1.3226635078721976, 0.6041992536620079, -0.9317068609203354, 0.6513603550123325, 0.561229321572559, -0.19774237657597626, -1.0462853348022676, -0.10693369033147138, -0.6432115099722137, -0.13044470885863413, 0.19736173303194104, 0.6601189392862282, -0.9506065889933523, -0.035648415077768315, 0.43478780047527144, -0.9679780590338651, -0.7772386723078009, -0.013338828112504392, -0.4985790789654474, 0.6426364253455993, 0.5524007201525535, 1.1916709475001344, -0.11619715017628475, -0.43043247444305444, -0.41280479818143895, -0.6523849637042947, -0.3954862555437769, -0.04513826456070667, -0.7498924464149206, -0.929280426809697, 0.25988522188627894, 0.7765174474769686, -0.8507031588824481, -0.25338990129170674, -0.774545771541587, -0.6353727468260882, 0.4223908203211976, -0.09844322340355506, -0.08063907493449178, 0.5501716662154376, 0.1823319953280031, 0.8860752898827852, 1.016869402267548, -0.4766168843978023, -0.30612608078287823, 0.366262719999097, 0.8095361887411506, -0.6287184096780266, 0.24938370441480048,
0.7224082263206724, 0.7819847675985488, 0.58563460180919, 0.33844587889937955, 0.730412869392335, -0.8106575361925912, 1.0794474731820172, 0.8216859644158071, -1.1839241337875697, -0.2813481779442613, 0.24027920664057337, 0.22245796159466463, 0.018059367051418012, 0.15372065874179072, -0.837488569494029, -0.8232267776263934, 0.8248016972199161, 1.086582100856943, 0.7218261639683653, 0.13216143181096723, -0.03905576933631663, -0.47194230197642323, -0.5573501498637248, -0.8701798410580346, 0.6854522777508284, 0.06313336909431022, 0.20831635451772085, 0.8806185704381964, -0.9706715169989821, -0.6693626423145982, 0.2825538968093025, 0.16702959357465005, 0.0033580035622670762, 0.7391985378342769, 0.2343729455970314, 0.7500876554069515, 0.5821232147301412, -0.21218706620346625, 0.4930996197524107, 0.40290320001006674, -0.8546297007492075, -0.18075904960832936, 0.8872513779257206, 0.9152987780933551, -0.9395378958954599, -1.4208665296452967, 0.5397697643878328, -0.8652279569876816, 0.6164139942844049, 0.561229321572559, -0.20648913067601743, -1.0962747752392985, -0.10693369033147138, -0.6010127473577807, -0.13044470885863413, 0.19736173303194104, 0.655338633997693, -0.9506065889933523, -0.03631585242024229, 0.4614982611156351, -0.8926502544383286, -0.7560595564602518, -0.012747476531978134, -0.4520314773610134, 0.6543249943056039, 0.5524007201525535, 1.1051151546971745, -0.11619715017628475, -0.4170728171277087, -0.38324073140340054, -0.664689458992658, -0.4316453415020686, -0.043131005466830255, -0.7498924464149206, -0.929280426809697, 0.278439126394943, 0.7126409391708257, -0.8507031588824481, -0.25338990129170674, -0.774545771541587, -0.6353727468260882, 0.4223908203211976, -0.09844322340355506, -0.08063907493449178, 0.563961852563948, 0.1673278095854669, 0.8860752898827852, 0.9349578942306378, -0.4602424721911211, -0.30612608078287823, 0.3420636396789799, 0.8614878743779503, -0.6287184096780266, 0.2637781377755316,
0.7736942063747192, 0.8711932290279057, 0.58563460180919, 0.325842914414746, 0.730412869392335, -0.8185568864405155, 1.0794474731820172, 0.844653805807082, -1.1839241337875697, -0.2813481779442613, 0.24027920664057337, 0.22245796159466463, 0.018059367051418012, 0.15372065874179072, -0.8254179901458867, -0.8232267776263934, 0.8248016972199161, 1.086582100856943, 0.7218261639683653, 0.1424470188275595, -0.03898407446771685, -0.42806259880737846, -0.5573501498637248, -0.8701798410580346, 0.6351518969039295, 0.06343458490608539, 0.20582128175019987, 0.8806185704381964, -0.9876465814296025, -0.6989838221344211, 0.2825538968093025, 0.18135079279686978, 0.003160906352623726, 0.7391985378342769, 0.2343729455970314, 0.7500876554069515, 0.5260754918860386, -0.20086405361068488, 0.522552009778499, 0.40733449108035025, -0.9046361508272843, -0.18757628754494413, 0.8872513779257206, 0.9152987780933551, -0.9395378958954599, -1.5300682098537304, 0.5990921680637561, -0.8652279569876816, 0.6343177310860613, 0.561229321572559, -0.20648913067601743, -1.0962747752392985, -0.10693369033147138, -0.6432115099722137, -0.11998445871003649, 0.19662505730469962, 0.655338633997693, -0.8512245159218379, -0.035648415077768315, 0.43808949986773543, -0.8832536466171048, -0.7715799245353081, -0.013338828112504392, -0.49038107482070137, 0.5724945070254158, 0.5392090133414472, 1.1051151546971745, -0.12187248456842799, -0.4170728171277087, -0.38324073140340054, -0.7181492272931035, -0.380433180785575, -0.04513826456070667, -0.7498924464149206, -0.929280426809697, 0.278439126394943, 0.8053275377136132, -0.8908579862652598, -0.25338990129170674, -0.774545771541587, -0.6353727468260882, 0.4223908203211976, -0.09844322340355506, -0.08063907493449178, 0.5501716662154376, 0.1673278095854669, 0.8860752898827852, 1.0270429399008092, -0.43758152768886144, -0.3398635614724388, 0.3420636396789799, 0.8448537692694268, -0.6287184096780266, 0.27138966965660627,
0.7736942063747192, 0.8711932290279057, 0.58563460180919, 0.325842914414746, 0.730412869392335, -0.8185568864405155, 1.0794474731820172, 0.844653805807082, -1.1839241337875697, -0.2813481779442613, 0.24027920664057337, 0.22245796159466463, 0.018059367051418012, 0.15372065874179072, -0.8254179901458867, -0.8232267776263934, 0.8248016972199161, 0.904653341127511, 0.7326558687002365, 0.12591413145225472, -0.03905576933631663, -0.42806259880737846, -0.5573501498637248, -0.7867745527682939, 0.6854522777508284, 0.0705282162478551, 0.20582128175019987, 0.8806185704381964, -0.9036260504383928, -0.714142532104505, 0.29934230543585616, 0.18135079279686978, 0.003160906352623726, 0.7391985378342769, 0.2343729455970314, 0.7500876554069515, 0.5447344742137873, -0.19996568783367524, 0.522552009778499, 0.4424241949714584, -0.8115387253644508, -0.18757628754494413, 0.8872513779257206, 0.9152987780933551, -0.9395378958954599, -1.3226635078721976, 0.6488596672182324, -0.8652279569876816, 0.6164139942844049, 0.561229321572559, -0.20648913067601743, -1.0962747752392985, -0.10955161172740151, -0.6432115099722137, -0.13044470885863413, 0.19736173303194104, 0.655338633997693, -0.9506065889933523, -0.03631585242024229, 0.4614982611156351, -0.8832536466171048, -0.7560595564602518, -0.012747476531978134, -0.4895583843282126, 0.6543249943056039, 0.5524007201525535, 1.1051151546971745, -0.11619715017628475, -0.4170728171277087, -0.38324073140340054, -0.664689458992658, -0.4316453415020686, -0.043131005466830255, -0.7498924464149206, -0.929280426809697, 0.278439126394943, 0.7126409391708257, -0.8507031588824481, -0.25338990129170674, -0.774545771541587, -0.6353727468260882, 0.4223908203211976, -0.09844322340355506, -0.08063907493449178, 0.563961852563948, 0.1673278095854669, 0.8860752898827852, 0.9349578942306378, -0.43758152768886144, -0.3655154295539772, 0.3420636396789799, 0.8448537692694268, -0.6287184096780266, 0.27138966965660627,
0.7736942063747192, 0.7819847675985488, 0.58563460180919, 0.33844587889937955, 0.730412869392335, -0.8106575361925912, 1.0794474731820172, 0.9117993487352954, -1.1839241337875697, -0.2813481779442613, 0.24027920664057337, 0.22245796159466463, 0.018568546649663016, 0.15372065874179072, -0.7891508673240061, -0.8022105441302212, 0.8248016972199161, 1.086582100856943, 0.7218261639683653, 0.13318947942552817, -0.03898407446771685, -0.42806259880737846, -0.5573501498637248, -0.8701798410580346, 0.6351518969039295, 0.06343458490608539, 0.20582128175019987, 0.8806185704381964, -0.9706715169989821, -0.6989838221344211, 0.2825538968093025, 0.18135079279686978, 0.003160906352623726, 0.7391985378342769, 0.2343729455970314, 0.7500876554069515, 0.5233749752492094, -0.21218706620346625, 0.4930996197524107, 0.40290320001006674, -0.8546297007492075, -0.18757628754494413, 0.8872513779257206, 0.9152987780933551, -0.9395378958954599, -1.30299767037382, 0.6041992536620079, -0.8652279569876816, 0.5983692988940631, 0.5684060235063122, -0.20648913067601743, -1.1323489107975375, -0.10693369033147138, -0.6978698736338732, -0.13044470885863413, 0.18511178138151257, 0.655338633997693, -0.9506065889933523, -0.035648415077768315, 0.4672051654802403, -1.0185195857723128, -0.7937910961855411, -0.01328256458317109, -0.4985790789654474, 0.6256149899415852, 0.5524007201525535, 1.1051151546971745, -0.11619715017628475, -0.43043247444305444, -0.38324073140340054, -0.7239196341433055, -0.3954862555437769, -0.04513826456070667, -0.7498924464149206, -0.929280426809697, 0.25988522188627894, 0.7765174474769686, -0.8507031588824481, -0.25338990129170674, -0.774545771541587, -0.6353727468260882, 0.4223908203211976, -0.09844322340355506, -0.08063907493449178, 0.5501716662154376, 0.1823319953280031, 0.8860752898827852, 1.016869402267548, -0.4602424721911211, -0.30612608078287823, 0.366262719999097, 0.8095361887411506, -0.6287184096780266, 0.2637781377755316,
0.7736942063747192, 0.7819847675985488, 0.58563460180919, 0.33844587889937955, 0.730412869392335, -0.7800442832486915, 1.0794474731820172, 0.844653805807082, -1.1106610362620917, -0.2813481779442613, 0.24027920664057337, 0.22245796159466463, 0.018059367051418012, 0.15372065874179072, -0.8295269983645455, -0.8080543526553635, 0.8248016972199161, 0.8209311622609023, 0.7507578273157683, 0.12591413145225472, -0.03905576933631663, -0.42806259880737846, -0.5573501498637248, -0.7867745527682939, 0.6596485158818015, 0.0705282162478551, 0.22501374426868948, 0.8806185704381964, -0.9706715169989821, -0.6989838221344211, 0.298158422061151, 0.18135079279686978, 0.003160906352623726, 0.7391985378342769, 0.22022776723654247, 0.7500876554069515, 0.5651494241794134, -0.21218706620346625, 0.4930996197524107, 0.40290320001006674, -0.9088585411223786, -0.18757628754494413, 0.9541241871734905, 0.9152987780933551, -0.9395378958954599, -1.4208665296452967, 0.5990921680637561, -0.8652279569876816, 0.6164139942844049, 0.561229321572559, -0.20648913067601743, -1.0483554308521446, -0.10693369033147138, -0.6432115099722137, -0.11998445871003649, 0.19736173303194104, 0.655338633997693, -0.9506065889933523, -0.035648415077768315, 0.4672051654802403, -0.9679780590338651, -0.7772386723078009, -0.013338828112504392, -0.4985790789654474, 0.6426364253455993, 0.5524007201525535, 1.1916709475001344, -0.12258352435698648, -0.43043247444305444, -0.41280479818143895, -0.6523849637042947, -0.3954862555437769, -0.04513826456070667, -0.6785571053725428, -0.9973823299115162, 0.278439126394943, 0.7765174474769686, -0.8507031588824481, -0.25338990129170674, -0.774545771541587, -0.6490882105463442, 0.4223908203211976, -0.09844322340355506, -0.08063907493449178, 0.578522545130644, 0.1673278095854669, 0.8860752898827852, 0.9349578942306378, -0.4602424721911211, -0.30612608078287823, 0.3420636396789799, 0.8095361887411506, -0.6287184096780266, 0.2637781377755316,
0.7736942063747192, 0.7819847675985488, 0.58563460180919, 0.33844587889937955, 0.7794325058654705, -0.8106575361925912, 1.0794474731820172, 0.844653805807082, -1.1838891389878659, -0.26713623901719885, 0.24370175063739963, 0.22245796159466463, 0.018059367051418012, 0.16492563108421007, -0.7996417690371096, -0.8485096271383383, 0.8248016972199161, 0.9796896956880006, 0.7248529450692253, 0.12591413145225472, -0.0383860365211638, -0.39766361449873044, -0.6108445345281657, -0.8701798410580346, 0.6854522777508284, 0.06343458490608539, 0.20582128175019987, 0.8806185704381964, -0.9706715169989821, -0.714142532104505, 0.29934230543585616, 0.1729770602637865, 0.0028278076937749423, 0.7391985378342769, 0.2343729455970314, 0.7500876554069515, 0.5230673280689244, -0.2205268541692587, 0.5003890096606439, 0.4424241949714584, -0.7959335997402989, -0.18757628754494413, 0.851736635166281, 0.9152987780933551, -0.9395378958954599, -1.3226635078721976, 0.5990921680637561, -0.8652279569876816, 0.6164139942844049, 0.561229321572559, -0.20648913067601743, -1.1323489107975375, -0.10693369033147138, -0.6978698736338732, -0.13044470885863413, 0.19736173303194104, 0.655338633997693, -0.9506065889933523, -0.035648415077768315, 0.4672051654802403, -0.9679780590338651, -0.7937910961855411, -0.013338828112504392, -0.4985790789654474, 0.6256149899415852, 0.5524007201525535, 1.1051151546971745, -0.11619715017628475, -0.43043247444305444, -0.38324073140340054, -0.7239196341433055, -0.3954862555437769, -0.04513826456070667, -0.7498924464149206, -0.929280426809697, 0.278439126394943, 0.7946646220795596, -0.8507031588824481, -0.25338990129170674, -0.774545771541587, -0.5987624917351112, 0.4223908203211976, -0.09844322340355506, -0.08063907493449178, 0.5501716662154376, 0.1673278095854669, 0.8860752898827852, 0.8548504140574975, -0.4602424721911211, -0.30612608078287823, 0.3420636396789799, 0.8095361887411506, -0.6287184096780266, 0.2637781377755316,
0.7736942063747192, 0.8711932290279057, 0.58563460180919, 0.325842914414746, 0.730412869392335, -0.8185568864405155, 1.0794474731820172, 0.844653805807082, -1.1839241337875697, -0.2813481779442613, 0.24027920664057337, 0.22245796159466463, 0.018059367051418012, 0.15372065874179072, -0.8254179901458867, -0.8232267776263934, 0.8248016972199161, 1.086582100856943, 0.7218261639683653, 0.13318947942552817, -0.03898407446771685, -0.42806259880737846, -0.5573501498637248, -0.8701798410580346, 0.6351518969039295, 0.06343458490608539, 0.20582128175019987, 0.8806185704381964, -0.9706715169989821, -0.6989838221344211, 0.2825538968093025, 0.18135079279686978, 0.003160906352623726, 0.7391985378342769, 0.2343729455970314, 0.7500876554069515, 0.5447344742137873, -0.21218706620346625, 0.4930996197524107, 0.40290320001006674, -0.8546297007492075, -0.18757628754494413, 0.8872513779257206, 0.9152987780933551, -0.9395378958954599, -1.4208665296452967, 0.5990921680637561, -0.8652279569876816, 0.6164139942844049, 0.5684060235063122, -0.20648913067601743, -1.1323489107975375, -0.10693369033147138, -0.6978698736338732, -0.13044470885863413, 0.19736173303194104, 0.655338633997693, -0.9506065889933523, -0.03631585242024229, 0.4614982611156351, -0.8832536466171048, -0.7309912023377004, -0.012747476531978134, -0.4895583843282126, 0.6543249943056039, 0.5524007201525535, 1.1051151546971745, -0.11619715017628475, -0.4170728171277087, -0.38324073140340054, -0.664689458992658, -0.4316453415020686, -0.043131005466830255, -0.7498924464149206, -0.929280426809697, 0.278439126394943, 0.7126409391708257, -0.8507031588824481, -0.25338990129170674, -0.8350327386156642, -0.6353727468260882, 0.4223908203211976, -0.09844322340355506, -0.08063907493449178, 0.563961852563948, 0.1673278095854669, 0.8860752898827852, 0.9349578942306378, -0.43758152768886144, -0.3398635614724388, 0.3420636396789799, 0.8448537692694268, -0.6287184096780266, 0.27138966965660627,
