-0.5760895916134443, -0.005416604019854665, -0.519522956912579, -0.42005380926189617, -0.5755513312625757, -0.2833873380429184, -0.6356717222625654, -0.6112777480089908, -0.9058373221640388, -0.9101453440931424, 0.20965441940996943, -0.3508298586930827, -0.62262522293555, -0.74206347145283, 0.32227863641678245, 0.957860803700133, 0.21213293760518237, -0.9071754254058346, 0.19975483411265071, 0.5098694798368164, 0.4058123001265499, -0.9525747344021964, 0.08832786656287639, 0.7738873364990102, -0.8168573560662693, 0.024072852058883765, 0.8769019895773829, -0.7076186390168591, -0.01368687319088524, 0.028495126771667323, -0.708543541218533, -0.8257549450305743, -0.23499200200421, -0.5098214266385201, -0.9571985638774798, -0.760036866616939, 0.21493073847019217, -0.6961190183978339, -0.1674788144369459, 0.2343896753136987, -0.793423576610899, -0.11663204396407734, -0.06359708307243417, -0.960181890078484, 0.991716220230042, 0.8172790104337029, -0.5383959702208494, 0.40209938475057583, 0.6832600775802047, -0.9216452830156263, 0.31326371467386327, -0.6748574191349095, -0.025132570151784828, -0.8389122147042396, -0.5917828744047844, 0.9942111518029597, -0.9001211226009769, -0.9908148028656871, -0.26207606041329523, 0.8560049210736234, 0.6248440613261721, -0.8569393911094327, -0.4903231245159958, -0.6864032988958382, -0.16887423545507918, -0.9910991037542438, 0.7846072690146066, -0.6131288929806746, 0.15876110940545063, 0.2446813952782647, -0.21704030078206915,